tree
version=v3
num_class=1
num_tree_per_iteration=1
label_index=0
max_feature_idx=8
objective=regression
feature_names=Outbreak_enc Region_enc Month Week Confirmed_Lag_5 Confirmed_Lag_4 Confirmed_Lag_3 Confirmed_Lag_2 Confirmed_Lag_1
feature_infos=none [0:11] [1:4] [4:15] [0:110574] [0:115242] [0:119827] [0:126168] [1:131646]
tree_sizes=2810 2865 2877 2887 2909 2840 2899 2867 2894 2863 2865 2837 2841 2918 2901 2908 2846 2873 2897 2875 2847 2875 2905 2856 2867 2836 2828 2901 2880 2930 2888 2853 2915 2947 2898 2847 2897 2907 2839 2945 2974 2923 2917 2899 2820 2801 2873 2892 2874 2827 2816 2824 2856 2823 2893 2844 2836 2781 2865 2776 2778 2792 2819 2803 2798 2774 2896 2823 2777 2829 2870 2907 2834 2816 2809 2817 2834 2771 2808 2897 2820 2916 2710 2799 2845 2810 2845 2809 2798 2752 2801 2778 2786 2733 2848 2821 2811 2859 2797 2812 2757 2823 2818 2881 2761 2882 2860 2774 2857 2854 2856 2864 2890 2800 2866 2801 2811 2821 2818 2881 2848 2801 2806 2863 2794 2809 2781 2818 2853 2794 2823 2877 2792 2792 2821 2845 2790 2795 2842 2815 2790 2819 2815 2822 2832 2799 2791 2789 2836 2855 2861 2779 2813 2835 2805 2901 2909 2812 2788 2801 2880 2830 2810 2776 2906 2802 2762 2787 2791 2833 2823 2743 2847 2856 2793 2826 2846 2923 2793 2813

Tree=0
num_leaves=31
num_cat=0
split_feature=7 8 8 8 7 8 8 8 8 8 8 8 8 6 1 2 2 4 6 8 3 6 8 8 8 3 8 4 7 3
split_gain=5.24098e+11 5.1755e+10 3.86146e+10 7.83801e+09 6.65618e+09 6.19721e+09 4.46814e+09 1.03726e+09 8.29017e+08 7.95934e+08 7.85247e+08 5.46724e+08 4.60548e+08 3.37662e+08 3.05749e+08 2.69831e+08 2.53522e+08 2.27849e+08 2.26205e+08 2.23198e+08 1.37223e+08 1.29409e+08 1.19885e+08 1.04854e+08 1.01193e+08 9.14774e+07 8.83549e+07 8.59785e+07 7.70846e+07 9.24936e+07
threshold=27540.000000000004 71781.000000000015 6626.5000000000009 53380.500000000007 14910.000000000002 98906.000000000015 1747.0000000000002 10884.000000000002 38022.500000000007 22676.500000000004 548.50000000000011 3750.0000000000005 63184.500000000007 67801.500000000015 10.500000000000002 3.5000000000000004 3.5000000000000004 941.50000000000011 89557.500000000015 13454.000000000002 13.500000000000002 33176.000000000007 8500.0000000000018 187.50000000000003 19583.000000000004 13.500000000000002 1020.5000000000001 25051.500000000004 1252.5000000000002 12.500000000000002
decision_type=2 2 2 2 2 2 2 2 2 2 2 2 2 2 2 2 2 2 2 2 2 2 2 2 2 2 2 2 2 2
left_child=2 3 6 8 7 13 10 22 27 24 23 28 -5 -3 -14 -7 -16 -9 -17 -19 -15 25 -4 -1 -6 -10 -12 -2 29 -8
right_child=1 5 4 12 9 15 11 17 21 -11 26 -13 14 20 16 18 -18 19 -20 -21 -22 -23 -24 -25 -26 -27 -28 -29 -30 -31
leaf_value=1573.9581866138712 5424.2477469395235 10279.28941360619 2410.53941360619 7747.4294136061899 3501.1860802728561 12147.956080272857 3170.5560802728569 1571.2560924798877 6564.1810802728587 4606.2455539570674 1653.0381809098985 2139.1043087274466 8283.2960802728558 10517.256080272853 8783.8810802728567 12863.656080272856 10564.056080272849 2926.0623302728563 14012.364413606188 3339.8288075455839 11456.484651701427 6824.4005247173009 2634.03941360619 1607.617502214538 3911.8627469395233 5833.6894136061892 1715.7136896831676 6389.3560802728489 1867.121386074122 1810.4560985834034
leaf_weight=5014 12 5.9999999999999991 48 14.999999999999998 10 0.999999999999999 0.99999999999999867 0.999999999999999 3.9999999999999973 19 547 112 25.000000000000004 1.9999999999999998 3.9999999999999991 1.9999999999999987 1 32 12 22 7 9 48 1135 15 3 382 1.0000000000000007 242 1
leaf_count=5014 12 6 48 15 10 1 1 1 4 19 547 112 25 2 4 2 1 32 12 22 7 9 48 1135 15 3 382 1 242 1
internal_value=0 70509.8 -961.203 56306 12929.9 105546 -1325.58 9776.08 43485.8 23753.1 -1499.45 2131.29 64567.9 91173.1 66830 119918 73968.5 13238.7 121052 13515.7 95047 48305.2 7792.27 -1628.91 20045.3 45080.5 -642.523 37554.2 1291.69 7474.44
internal_weight=0 104 7629 74 195 30 7434 151 29 44 7078 356 45 15 30 15 5 55 14 54 9 16 96 6149 25 7 929 13 244 2
internal_count=7733 104 7629 74 195 30 7434 151 29 44 7078 356 45 15 30 15 5 55 14 54 9 16 96 6149 25 7 929 13 244 2
shrinkage=1


Tree=1
num_leaves=31
num_cat=0
split_feature=7 8 8 8 7 8 8 8 8 8 8 8 8 6 1 2 2 4 6 8 3 6 8 8 8 4 3 4 1 3
split_gain=4.2452e+11 4.19215e+10 3.12778e+10 6.34879e+09 5.39151e+09 5.01974e+09 3.62095e+09 8.40179e+08 6.71504e+08 6.44706e+08 6.05446e+08 4.8808e+08 3.73044e+08 2.73506e+08 2.47657e+08 2.18563e+08 2.05353e+08 1.84557e+08 1.83226e+08 1.8079e+08 1.11151e+08 1.04821e+08 1.02213e+08 9.74972e+07 9.71072e+07 9.07619e+07 7.40967e+07 6.96426e+07 7.11117e+07 6.91057e+07
threshold=27540.000000000004 71781.000000000015 6626.5000000000009 53380.500000000007 14910.000000000002 98906.000000000015 1685.0000000000002 10884.000000000002 38022.500000000007 22676.500000000004 584.50000000000011 3402.5000000000005 63184.500000000007 67801.500000000015 10.500000000000002 3.5000000000000004 3.5000000000000004 941.50000000000011 89557.500000000015 13454.000000000002 13.500000000000002 33176.000000000007 5082.0000000000009 214.50000000000003 8500.0000000000018 11150.500000000002 13.500000000000002 25051.500000000004 6.5000000000000009 13.500000000000002
decision_type=2 2 2 2 2 2 2 2 2 2 2 2 2 2 2 2 2 2 2 2 2 2 2 2 2 2 2 2 2 2
left_child=2 3 6 8 7 13 10 24 27 25 23 -8 -5 -3 -14 -7 -16 -9 -17 -19 -15 26 -13 -1 -4 -6 -10 28 -2 -23
right_child=1 5 4 12 9 15 11 17 21 -11 -12 22 14 20 16 18 -18 19 -20 -21 -22 29 -24 -25 -26 -27 -28 -29 -30 -31
leaf_value=-151.81196248467356 2968.8002441406238 7682.6044270833336 600.72938028971362 5403.9303645833334 2037.4372265624993 9364.4046875000004 93.642081831428172 -154.6256103515625 4339.007031250002 2576.864864309211 -55.383886483443717 269.03171335856121 5886.2103124999994 7896.7742187499971 6336.7367187500004 10008.534375000001 7938.8945312499927 1064.7 11042.371614583331 1437.0898393110797 8742.0801339285717 5091.6097656249985 447.75414174397787 -118.81151425407381 801.87939860026052 1648.5030989583336 3681.5645833333324 4181.6644531249931 3485.2003173828125 4425.0883370535712
leaf_weight=5142 4.0000000000000009 5.9999999999999991 48 14.999999999999998 10.000000000000002 0.999999999999999 229 0.999999999999999 3.9999999999999973 19 835 96 25.000000000000004 1.9999999999999998 3.9999999999999991 1.9999999999999987 1 32 12 22 7 1.9999999999999998 48 1084 48 14.999999999999998 3 1.0000000000000007 7.9999999999999991 7
leaf_count=5142 4 6 48 15 10 1 229 1 4 19 835 96 25 2 4 2 1 32 12 22 7 2 48 1084 48 15 3 1 8 7
internal_value=0 63458.8 -865.083 50675.4 11636.9 94991.2 -1193.02 8798.47 39137.3 21377.8 -1353.43 1843.52 58111.1 82055.8 60147 107927 66571.7 11914.9 108947 12164.1 85542.3 43474.7 3286.06 -1460.66 7013.04 18040.8 40572.5 33798.8 33130.7 45732
internal_weight=0 104 7629 74 195 30 7434 151 29 44 7061 373 45 15 30 15 5 55 14 54 9 16 144 6226 96 25 7 13 12 9
internal_count=7733 104 7629 74 195 30 7434 151 29 44 7061 373 45 15 30 15 5 55 14 54 9 16 144 6226 96 25 7 13 12 9
shrinkage=0.1


Tree=2
num_leaves=31
num_cat=0
split_feature=7 8 8 8 7 8 8 8 8 7 8 8 8 6 1 2 2 4 6 8 8 3 4 3 8 8 8 7 3 4
split_gain=3.43861e+11 3.39564e+10 2.5335e+10 5.14252e+09 4.36712e+09 4.06599e+09 2.93811e+09 6.80545e+08 5.43918e+08 5.41878e+08 5.18111e+08 3.69434e+08 3.02165e+08 2.2154e+08 2.00602e+08 1.77036e+08 1.66336e+08 1.49491e+08 1.48413e+08 1.4644e+08 1.04717e+08 9.00323e+07 8.96778e+07 1.2274e+08 8.08547e+07 7.86568e+07 7.51373e+07 7.2756e+07 7.49198e+07 6.11724e+07
threshold=27540.000000000004 71781.000000000015 6626.5000000000009 53380.500000000007 14910.000000000002 98906.000000000015 1747.0000000000002 10884.000000000002 38022.500000000007 22126.500000000004 499.50000000000006 4076.0000000000005 63184.500000000007 67801.500000000015 10.500000000000002 3.5000000000000004 3.5000000000000004 941.50000000000011 89557.500000000015 13454.000000000002 19583.000000000004 13.500000000000002 32648.000000000004 13.500000000000002 1020.5000000000001 8500.0000000000018 2696.5000000000005 1252.5000000000002 12.500000000000002 25051.500000000004
decision_type=2 2 2 2 2 2 2 2 2 2 2 2 2 2 2 2 2 2 2 2 2 2 2 2 2 2 2 2 2 2
left_child=2 3 6 8 7 13 10 25 -2 20 -1 26 -5 -3 -14 -7 -16 -9 -17 -19 -6 -15 23 29 -12 -4 27 28 -8 -10
right_child=1 5 4 12 9 15 11 17 22 -11 24 -13 14 21 16 18 -18 19 -20 -21 -22 -23 -24 -25 -26 -27 -28 -29 -30 -31
leaf_value=-132.71220903541965 3041.8938701923071 6914.3442057291677 540.65647735595701 4863.537395833333 1409.6823828124996 8427.9640625000011 1275.3801757812505 -139.16304931640624 3905.1062500000007 2411.9555338541668 -77.545916479862115 340.59403025309246 5297.5892187499994 7107.0968749999975 5703.0632812500007 9007.6812499999996 7145.0046874999944 958.22998809814453 9938.1348958333328 1293.380837180398 1809.4715152138158 7867.872321428571 4405.5511718750004 3514.5183593749994 -19.738593100557466 721.69143880208333 172.84380907331195 56.076392663586631 51.290179443359321 4582.4488281249978
leaf_weight=6036 13.000000000000002 5.9999999999999991 48 14.999999999999998 10.000000000000002 0.999999999999999 0.99999999999999867 0.999999999999999 3.9999999999999982 14.999999999999998 660 96 25.000000000000004 1.9999999999999998 3.9999999999999991 1.9999999999999987 1 32 12 22 19 7 2.9999999999999991 7 382 48 112 146 1 1.9999999999999998
leaf_count=6036 13 6 48 15 10 1 1 1 4 15 660 96 25 2 4 2 1 32 12 22 19 7 3 7 382 48 112 146 1 2
internal_value=0 57112.9 -778.575 45607.9 10473.2 85492.1 -1073.72 7918.63 35223.5 19240 -1214.71 1729.48 52300 73850.2 54132.3 97134 59914.5 10723.4 98052.1 10947.7 16716.1 76988.1 39127.3 37990 -563.536 6311.74 1110.47 642.826 6633.35 41308.9
internal_weight=0 104 7629 74 195 30 7434 151 29 44 7078 356 45 15 30 15 5 55 14 54 29 9 16 13 1042 96 260 148 2 6
internal_count=7733 104 7629 74 195 30 7434 151 29 44 7078 356 45 15 30 15 5 55 14 54 29 9 16 13 1042 96 260 148 2 6
shrinkage=0.1


Tree=3
num_leaves=31
num_cat=0
split_feature=7 8 8 7 7 8 8 8 8 7 8 8 8 6 1 2 2 8 4 6 6 8 3 1 3 8 4 1 4 3
split_gain=2.78527e+11 2.75047e+10 2.05423e+10 4.17231e+09 3.81797e+09 3.29345e+09 2.09421e+09 6.562e+08 4.80467e+08 4.38921e+08 3.59519e+08 2.95263e+08 2.04241e+08 1.79447e+08 1.62488e+08 1.43399e+08 1.34732e+08 1.26658e+08 1.58999e+08 1.20215e+08 8.51862e+07 8.48208e+07 7.29261e+07 7.14849e+07 6.54966e+07 6.39707e+07 5.64105e+07 5.76005e+07 5.27852e+07 5.23561e+07
threshold=27540.000000000004 71781.000000000015 6001.5000000000009 48860.500000000007 14910.000000000002 98906.000000000015 1512.5000000000002 10068.500000000002 38022.500000000007 22126.500000000004 377.50000000000006 3402.5000000000005 63184.500000000007 67801.500000000015 10.500000000000002 3.5000000000000004 3.5000000000000004 13454.000000000002 941.50000000000011 89557.500000000015 33176.000000000007 19583.000000000004 13.500000000000002 6.5000000000000009 13.500000000000002 836.50000000000011 25051.500000000004 6.5000000000000009 32648.000000000004 13.500000000000002
decision_type=2 2 2 2 2 2 2 2 2 2 2 2 2 2 2 2 2 2 2 2 2 2 2 2 2 2 2 2 2 2
left_child=2 3 6 8 7 13 10 -4 26 21 -1 -8 23 -3 -14 -7 -16 -9 -19 -17 29 -6 -15 -5 -22 -12 27 -2 -26 -10
right_child=1 5 4 12 9 15 11 17 20 -11 25 -13 14 22 16 19 -18 18 -20 -21 24 -23 -24 -25 28 -27 -28 -29 -30 -31
leaf_value=-121.1972191026948 2367.730859374999 6222.9096354166668 514.06751480102537 4240.9197048611113 1268.7141992187496 7585.1671875000002 64.975322713681635 822.58225911458339 3514.5956542968738 2170.7600260416671 -80.338457282198704 248.31242456436158 4767.8306249999996 6396.3873046874978 5132.7570312500002 8106.9125000000004 6430.5042968749949 -125.2467407226558 1164.0427468039773 8944.3216145833321 4046.0320312499994 1628.5244243421055 7081.0848214285716 4712.5101562500004 3313.8992187499994 -34.272779548770252 3459.3085937499945 2832.4907958984377 3943.0960937499985 2961.9561848958328
leaf_weight=5744 4.0000000000000009 5.9999999999999991 96 8.9999999999999982 10.000000000000002 0.999999999999999 280 48 4.0000000000000009 14.999999999999998 771 128 25.000000000000004 1.9999999999999998 3.9999999999999991 1.9999999999999987 1 1.0000000000000024 22 12 4 19 7 4.9999999999999991 4 495 1.0000000000000007 7.9999999999999991 1.9999999999999998 3
leaf_count=5744 4 6 96 9 10 1 280 48 4 15 771 128 25 2 4 2 1 1 22 12 4 19 7 5 4 495 1 8 2 3
internal_value=0 51401.6 -700.717 41047.1 9028.85 76942.9 -977.468 6845.4 31953.4 17316 -1105.65 1224.93 47247.3 66465.2 48719.1 87420.6 53923.1 9150.37 11079.9 88246.9 35453 15044.5 69289.3 44093.4 37325.9 -623.27 27377 26775.7 35236.3 32777.5
internal_weight=0 104 7629 74 211 30 7418 167 30 44 7010 408 44 15 30 15 5 71 23 14 17 29 9 14 10 1266 13 12 6 7
internal_count=7733 104 7629 74 211 30 7418 167 30 44 7010 408 44 15 30 15 5 71 23 14 17 29 9 14 10 1266 13 12 6 7
shrinkage=0.1


Tree=4
num_leaves=31
num_cat=0
split_feature=8 8 8 8 8 8 8 8 8 8 8 8 8 4 5 1 2 2 6 3 8 4 6 8 4 2 1 3 8 3
split_gain=2.25653e+11 2.33066e+10 1.56752e+10 3.863e+09 2.84446e+09 2.66769e+09 1.49348e+09 4.96307e+08 4.37122e+08 3.25409e+08 2.47293e+08 2.31655e+08 1.97801e+08 1.94067e+08 1.57913e+08 1.31615e+08 1.16153e+08 1.09133e+08 9.73738e+07 7.53292e+07 7.44027e+07 6.2505e+07 5.96078e+07 5.41341e+07 4.98659e+07 6.44082e+07 4.50982e+07 4.24084e+07 4.03063e+07 3.72377e+07
threshold=29518.500000000004 71781.000000000015 5578.0000000000009 53380.500000000007 15861.000000000002 98906.000000000015 1356.5000000000002 10068.500000000002 38022.500000000007 22676.500000000004 347.50000000000006 2844.5000000000005 63184.500000000007 941.50000000000011 67800.500000000015 10.500000000000002 3.5000000000000004 3.5000000000000004 89557.500000000015 13.500000000000002 11855.000000000002 11150.500000000002 33176.000000000007 7860.0000000000009 25051.500000000004 2.5000000000000004 6.5000000000000009 13.500000000000002 773.50000000000011 13.500000000000002
decision_type=2 2 2 2 2 2 2 2 2 2 2 2 2 2 2 2 2 2 2 2 2 2 2 2 2 2 2 2 2 2
left_child=2 3 6 8 7 14 10 23 24 13 -1 -8 26 -6 19 -14 -7 -17 -18 -3 -9 -15 27 -4 25 -2 -5 -10 -12 -24
right_child=1 5 4 12 9 16 11 20 22 -11 28 -13 15 21 -16 17 18 -19 -20 -21 -22 -23 29 -25 -26 -27 -28 -29 -30 -31
leaf_value=-109.43827951629144 1969.6276692708348 5203.5167968750047 386.92293014526371 3798.394878472222 -112.72207031250001 6826.6507812500004 33.744374953637525 688.39602355957038 3163.1359375000015 1810.7478942871094 -74.509683181416776 182.74198883056641 4291.0474218749996 1449.2992317708331 6440.7278124999975 4619.4812499999998 7296.2218750000002 5787.4539062499953 8049.8888346354161 5889.6710937499993 904.03855743408212 1165.1590087890625 3719.6007812499988 527.40922851562505 3113.3777343749948 2487.6695638020833 4152.333984375 2665.7604817708325 -37.803412371079126 3230.3305803571425
leaf_weight=5668 2.9999999999999973 1.9999999999999973 64 8.9999999999999982 0.999999999999999 0.999999999999999 300 32 3.9999999999999973 15.999999999999998 794 160 25.000000000000004 15.000000000000002 5.0000000000000009 3.9999999999999991 1.9999999999999987 1 12 8 32 15.999999999999998 1.9999999999999998 48 1.0000000000000007 11.999999999999998 5.9999999999999991 3 480 7
leaf_count=5668 3 2 64 9 1 1 300 32 4 16 794 160 25 15 5 4 2 1 12 8 32 16 2 48 1 12 6 3 480 7
internal_value=0 45604 -639.867 36391.8 7601.69 69248.6 -889.274 5740.72 27992.4 14425.3 -1004.9 855.696 42364.7 12584.2 59818.7 43847.2 78678.5 48530.8 79422.2 57524.4 7962.17 13026.5 31688.3 4471.31 24296.4 23840.6 39399.7 29499.8 -606.8 33390.6
internal_weight=0 107 7626 77 224 30 7402 176 32 48 6942 460 45 32 15 30 15 5 14 10 64 31 16 112 16 15 15 7 1274 9
internal_count=7733 107 7626 77 224 30 7402 176 32 48 6942 460 45 32 15 30 15 5 14 10 64 31 16 112 16 15 15 7 1274 9
shrinkage=0.1


Tree=5
num_leaves=31
num_cat=0
split_feature=8 8 8 7 8 8 8 8 8 8 8 8 4 6 8 8 4 2 2 6 3 5 3 1 8 8 3 4 2 4
split_gain=1.82779e+11 1.88784e+10 1.2697e+10 3.15612e+09 2.31158e+09 2.16083e+09 1.21247e+09 4.08509e+08 3.78985e+08 2.30429e+08 2.17167e+08 1.68747e+08 1.34516e+08 1.30029e+08 1.28048e+08 1.06849e+08 1.06608e+08 9.40843e+07 8.83976e+07 7.8873e+07 5.28353e+07 7.79042e+07 5.19658e+07 4.70825e+07 4.38486e+07 4.24237e+07 4.2405e+07 4.03913e+07 5.21706e+07 3.35967e+07
threshold=29518.500000000004 71781.000000000015 5578.0000000000009 48860.500000000007 13454.000000000002 98906.000000000015 1420.5000000000002 22676.500000000004 38022.500000000007 10068.500000000002 319.50000000000006 3026.0000000000005 941.50000000000011 67801.500000000015 63184.500000000007 19583.000000000004 58660.000000000007 3.5000000000000004 3.5000000000000004 89557.500000000015 13.500000000000002 33542.000000000007 13.500000000000002 6.5000000000000009 7860.0000000000009 813.50000000000011 13.500000000000002 25051.500000000004 2.5000000000000004 25051.500000000004
decision_type=2 2 2 2 2 2 2 2 2 2 2 2 2 2 2 2 2 2 2 2 2 2 2 2 2 2 2 2 2 2
left_child=2 3 6 8 9 13 10 12 27 24 -1 -8 -6 26 23 -14 18 -7 -16 -19 29 -22 -15 -5 -4 -12 -3 28 -2 -10
right_child=1 5 4 14 7 17 11 -9 20 -11 25 -13 15 22 16 -17 -18 19 -20 -21 21 -23 -24 -25 -26 -27 -28 -29 -30 -31
leaf_value=-98.959846513337865 1772.6648437500012 4428.6335937499998 348.23063735961915 3443.3002387152783 -101.44985961914062 6143.9855468750002 38.769770857839717 1629.6730712890626 2846.8224609374993 664.29633789062507 -67.452788023478419 171.82059864468044 967.40186767578132 5174.5363281249984 4157.5332031249964 1290.8573242187501 3861.9427343750003 6566.5992187500005 5208.708593749996 7244.9004557291664 2435.4012499999999 3027.4898925781245 5752.5203683035716 3826.0257812500004 474.66830647786458 -30.882235588438842 5141.9779687499995 2802.0398437499953 2238.9025716145834 3256.6806640624995
leaf_weight=5555 2.9999999999999973 0.999999999999999 64 8.9999999999999982 0.999999999999999 0.999999999999999 282 15.999999999999998 4 48 943 144 32 1.9999999999999998 4.0000000000000027 14.999999999999998 25 1.9999999999999987 1 12 5 4 7 4.9999999999999991 48 478 5 1.0000000000000007 11.999999999999998 4
leaf_count=5555 3 1 64 9 1 1 282 16 4 48 943 144 32 2 4 15 25 2 1 12 5 4 7 5 48 478 5 1 12 4
internal_value=0 41043.6 -575.88 32752.6 6841.52 62323.7 -800.346 11920.8 25360 4809.82 -900.361 837.447 10462.1 53836.8 38297.1 10706.3 39462.5 70810.7 43677.7 71480 28647.6 26985.5 56240.8 35799.9 4024.18 -551.511 50230.9 21866.8 21456.6 30517.5
internal_weight=0 107 7626 77 224 30 7402 64 33 160 6976 426 48 15 44 47 30 15 5 14 17 9 9 14 112 1421 6 16 15 8
internal_count=7733 107 7626 77 224 30 7402 64 33 160 6976 426 48 15 44 47 30 15 5 14 17 9 9 14 112 1421 6 16 15 8
shrinkage=0.1


Tree=6
num_leaves=31
num_cat=0
split_feature=8 8 8 7 8 8 8 8 8 8 8 4 5 8 8 1 2 2 6 8 3 4 6 8 1 1 8 4 1 2
split_gain=1.48051e+11 1.52915e+10 1.02845e+10 2.55645e+09 1.88745e+09 1.75027e+09 9.85185e+08 3.20242e+08 3.06978e+08 2.09043e+08 2.05843e+08 1.28406e+08 1.12704e+08 1.03719e+08 1.03437e+08 8.63526e+07 7.62082e+07 7.16021e+07 6.3887e+07 5.12215e+07 5.02843e+07 4.94091e+07 4.31217e+07 4.08857e+07 4.06963e+07 3.81369e+07 3.59384e+07 3.2717e+07 4.34452e+07 3.05035e+07
threshold=29518.500000000004 71781.000000000015 5578.0000000000009 48860.500000000007 15861.000000000002 98906.000000000015 1616.0000000000002 10068.500000000002 38022.500000000007 22676.500000000004 367.50000000000006 941.50000000000011 67800.500000000015 63184.500000000007 3160.0000000000005 10.500000000000002 3.5000000000000004 3.5000000000000004 89557.500000000015 11855.000000000002 13.500000000000002 11150.500000000002 33176.000000000007 956.50000000000011 10.500000000000002 6.5000000000000009 7270.0000000000009 25051.500000000004 6.5000000000000009 2.5000000000000004
decision_type=2 2 2 2 2 2 2 2 2 2 2 2 2 2 2 2 2 2 2 2 2 2 2 2 2 2 2 2 2 2
left_child=2 3 6 8 7 12 10 26 27 11 -1 -6 20 25 -8 29 -7 -17 -18 -9 -3 -13 -10 -12 -24 -5 -4 28 -2 -15
right_child=1 5 4 13 9 16 14 19 22 -11 23 21 -14 15 -16 17 18 -19 -20 -21 -22 -23 24 -25 -26 -27 -28 -29 -30 -31
leaf_value=-88.464914000675776 1690.4092773437508 4203.0068359375036 296.76705627441407 3098.9701822916668 -91.304876708984381 5529.5871093750002 49.697133529289914 553.12678375244138 2387.9276785714278 1466.7058044433595 -56.701835869947189 1190.3781770833332 5232.9628906249982 3254.8283203124956 161.84985642433168 3741.7796875000004 5909.939453125 4687.8378906249955 6520.4100911458327 732.04976501464853 4763.6108886718748 937.75174560546884 2464.4668457031244 -18.940095391664254 2876.2531249999997 3443.4233984375005 411.2333778381348 2521.8359374999959 2051.4296777343748 3530.9782031249997
leaf_weight=5724 4.9999999999999973 1.9999999999999973 48 8.9999999999999982 0.999999999999999 0.999999999999999 230 32 7.0000000000000009 15.999999999999998 899 15.000000000000002 5.0000000000000009 5.0000000000000062 128 3.9999999999999991 1.9999999999999987 1 12 32 8 15.999999999999998 4 421 6 4.9999999999999991 64 1.0000000000000007 9.9999999999999982 20
leaf_count=5724 5 2 48 9 1 1 230 32 7 16 899 15 5 5 128 4 2 1 12 32 8 16 4 421 6 5 64 1 10 20
internal_value=0 36939.2 -518.292 29477.3 6157.37 56091.4 -720.312 4641.44 22824 11715.8 -802.558 10240.1 48453.1 34467.4 897.964 35516.2 63729.6 39309.9 64332 6425.88 46514.9 10599.9 25782.9 -446.581 27115.4 32219.9 3621.76 19680.1 19310.9 34757.5
internal_weight=0 107 7626 77 224 30 7402 176 33 48 7044 32 15 44 358 30 15 5 14 64 10 31 17 1320 10 14 112 16 15 25
internal_count=7733 107 7626 77 224 30 7402 176 33 48 7044 32 15 44 358 30 15 5 14 64 10 31 17 1320 10 14 112 16 15 25
shrinkage=0.1


Tree=7
num_leaves=31
num_cat=0
split_feature=7 8 8 7 7 8 8 8 8 7 7 8 6 8 1 2 2 8 4 6 8 8 1 5 1 6 8 1 8 4
split_gain=1.19927e+11 1.18338e+10 8.8667e+09 1.80993e+09 1.53353e+09 1.41772e+09 1.06042e+09 2.40427e+08 2.33931e+08 2.03291e+08 1.98531e+08 1.03274e+08 9.42624e+07 8.40124e+07 6.99456e+07 6.17286e+07 5.79976e+07 5.37693e+07 5.23852e+07 5.17485e+07 4.95414e+07 4.02172e+07 3.75719e+07 6.24618e+07 3.64245e+07 3.50826e+07 3.15307e+07 3.08908e+07 2.69773e+07 2.64619e+07
threshold=27540.000000000004 71781.000000000015 6626.5000000000009 48860.500000000007 14910.000000000002 98906.000000000015 2200.5000000000005 10884.000000000002 656.50000000000011 35272.000000000007 22126.500000000004 4278.5000000000009 67801.500000000015 63184.500000000007 10.500000000000002 3.5000000000000004 3.5000000000000004 127.50000000000001 941.50000000000011 89557.500000000015 15861.000000000002 19583.000000000004 10.500000000000002 67800.500000000015 6.5000000000000009 59393.000000000007 8500.0000000000018 6.5000000000000009 1279.5000000000002 16387.000000000004
decision_type=2 2 2 2 2 2 2 2 2 2 2 2 2 2 2 2 2 2 2 2 2 2 2 2 2 2 2 2 2 2
left_child=2 3 6 9 7 12 8 26 17 29 21 -8 25 27 -15 -7 -16 -1 -9 -17 -20 -6 -14 -24 -11 -3 -4 -5 -10 -2
right_child=1 5 4 13 10 15 11 18 28 24 -12 -13 22 14 16 19 -18 -19 20 -21 -22 -23 23 -25 -26 -27 -28 -29 -30 -31
leaf_value=-83.215949342112069 2331.4166015625001 4594.4593750000004 315.46344273885097 2789.0731119791672 824.07613281249985 4976.6285156250005 90.202493329392269 -82.174389648437511 -33.677060259907243 2134.6997656250001 1434.5225260416667 225.23073364257812 5143.3675781250004 3128.1735546874997 3367.6019042968751 5318.9457031250004 4219.0539062499965 -62.707084442310126 614.40840301513674 5868.3692708333328 919.18726399739592 1071.8342567845395 4132.4925781249985 4709.6664062499995 2465.2652734374997 3945.6214062499998 430.08369140625001 3099.0808593750003 4.6149976071616381 1798.9502371651784
leaf_weight=4536 0.999999999999999 0.999999999999999 48 8.9999999999999982 10.000000000000002 0.999999999999999 194 0.999999999999999 573 4.9999999999999991 14.999999999999998 80 0.999999999999999 25.000000000000004 3.9999999999999991 1.9999999999999987 1 1780 48 12 5.9999999999999991 19 3 5 10 5 48 4.9999999999999991 271 14
leaf_count=4536 1 1 48 9 10 1 194 1 573 5 15 80 1 25 4 2 1 1780 48 12 6 19 3 5 10 5 48 5 271 14
internal_value=0 33728.9 -459.799 26937 6196.63 50482.2 -634.402 4682.84 -708.286 20947.6 11391.7 1296.27 43607.8 31020.7 31964.6 57356.6 35378.9 -774.361 6349.92 57898.8 6482.73 9864 45654.6 44932.3 23550.8 40537.6 3727.74 28997.9 -213.819 18344.5
internal_weight=0 104 7629 74 195 30 7434 151 7160 30 44 274 15 44 30 15 5 6316 55 14 54 29 9 8 15 6 96 14 844 15
internal_count=7733 104 7629 74 195 30 7434 151 7160 30 44 274 15 44 30 15 5 6316 55 14 54 29 9 8 15 6 96 14 844 15
shrinkage=0.1


Tree=8
num_leaves=31
num_cat=0
split_feature=8 8 8 8 8 8 8 8 8 8 8 8 6 4 8 8 1 7 3 2 2 6 8 4 3 3 6 4 4 4
split_gain=9.71749e+10 1.0025e+10 6.75229e+09 1.67843e+09 1.24216e+09 1.14835e+09 6.48788e+08 2.10863e+08 1.84357e+08 1.49701e+08 1.22168e+08 8.05558e+07 7.63526e+07 7.21331e+07 6.00983e+07 5.85326e+07 5.66559e+07 5.57722e+07 6.06851e+07 5.00002e+07 4.69781e+07 4.19163e+07 4.0403e+07 3.74848e+07 5.57044e+07 3.43972e+07 2.84169e+07 2.78801e+07 3.19674e+07 2.47804e+07
threshold=29518.500000000004 71781.000000000015 5578.0000000000009 53380.500000000007 13454.000000000002 98906.000000000015 1747.0000000000002 22676.500000000004 38022.500000000007 257.50000000000006 9148.0000000000018 63184.500000000007 67801.500000000015 941.50000000000011 3555.5000000000005 19583.000000000004 10.500000000000002 1252.5000000000002 12.500000000000002 3.5000000000000004 3.5000000000000004 89557.500000000015 935.50000000000011 32648.000000000004 13.500000000000002 13.500000000000002 59393.000000000007 16387.000000000004 25051.500000000004 4603.5000000000009
decision_type=2 2 2 2 2 2 2 2 2 2 2 2 2 2 2 2 2 2 2 2 2 2 2 2 2 2 2 2 2 2
left_child=2 3 6 8 10 12 9 13 27 -1 -4 -5 26 -6 17 29 -13 18 -8 -7 -18 -21 -11 24 -10 -14 -3 -2 -29 -15
right_child=1 5 4 11 7 19 14 -9 23 22 -12 16 25 15 -16 -17 20 -19 -20 21 -22 -23 -24 -25 -26 -27 -28 28 -30 -31
leaf_value=-73.006117149574692 1944.0699218750019 4135.0132812500005 278.64233907063806 2592.9904687500002 -73.956951904296872 4478.9656249999998 1128.6620117187501 1185.6501525878907 2224.9261393229172 -48.528061885297021 457.00875053405764 2815.3561718749997 3743.1763671874987 1048.75751953125 146.38927752176923 947.33953776041676 3030.8416015625003 47.417283905501918 26.981002807617159 4787.05078125 3797.1484374999964 5281.5321614583336 -14.266133952551222 2393.4922526041669 1809.6933035714283 4213.4154575892853 3551.0592968749997 1503.0172551081732 2089.7574218749965 685.2165445963542
leaf_weight=5335 1.9999999999999973 0.999999999999999 96 14.999999999999998 0.999999999999999 0.999999999999999 0.99999999999999867 15.999999999999998 5.9999999999999982 1271 64 25.000000000000004 1.9999999999999998 1.9999999999999987 96 14.999999999999998 3.9999999999999991 226 1 1.9999999999999987 1 12 472 2.9999999999999991 7 7 5 12.999999999999998 1.0000000000000007 30
leaf_count=5335 2 1 96 15 1 1 1 16 6 1271 64 25 2 2 96 15 4 226 1 2 1 12 472 3 7 7 5 13 1 30
internal_value=0 29926.8 -419.901 23885 4989.23 45434 -583.592 8712.59 18348.4 -646.935 3499.89 27822.1 39247 7664.61 800.164 7843.43 28768.1 520.7 5778.22 51621 31841 52108.9 -392.5 20748.7 20013.4 41089.2 36483.8 15948.2 15449.3 7079.38
internal_weight=0 107 7626 77 224 30 7402 64 32 7078 160 45 15 48 324 47 30 228 2 15 5 14 1743 16 13 9 6 16 14 32
internal_count=7733 107 7626 77 224 30 7402 64 32 7078 160 45 15 48 324 47 30 228 2 15 5 14 1743 16 13 9 6 16 14 32
shrinkage=0.1


Tree=9
num_leaves=31
num_cat=0
split_feature=8 8 8 7 8 8 8 8 8 8 7 4 5 8 8 1 3 1 8 2 3 3 5 2 8 2 1 4 4 4
split_gain=7.87117e+10 8.12024e+09 5.47378e+09 1.3604e+09 9.34145e+08 9.30168e+08 6.10633e+08 1.62815e+08 1.4781e+08 1.45513e+08 1.11547e+08 7.14778e+07 6.50604e+07 5.43536e+07 5.37043e+07 4.58913e+07 4.09979e+07 4.35064e+07 3.83305e+07 3.80523e+07 3.43882e+07 3.08876e+07 5.05034e+07 2.91888e+07 2.84122e+07 2.47079e+07 2.46256e+07 2.45697e+07 2.25829e+07 2.58936e+07
threshold=29518.500000000004 71781.000000000015 6001.5000000000009 48860.500000000007 15861.000000000002 98906.000000000015 2052.0000000000005 38022.500000000007 10884.000000000002 656.50000000000011 22126.500000000004 941.50000000000011 67800.500000000015 4278.5000000000009 63184.500000000007 10.500000000000002 14.500000000000002 10.500000000000002 98.500000000000014 3.5000000000000004 13.500000000000002 13.500000000000002 33542.000000000007 3.5000000000000004 8500.0000000000018 2.5000000000000004 6.5000000000000009 11150.500000000002 16387.000000000004 25051.500000000004
decision_type=2 2 2 2 2 2 2 2 2 2 2 2 2 2 2 2 2 2 2 2 2 2 2 2 2 2 2 2 2 2
left_child=2 3 6 7 8 12 9 28 24 18 11 -6 20 -8 26 25 23 -18 -1 -17 -3 -9 -23 -7 -4 -16 -5 -13 -2 -30
right_child=1 5 4 14 10 16 13 21 -10 -11 -12 27 -14 -15 15 19 17 -19 -20 -21 -22 22 -24 -25 -26 -27 -28 -29 29 -31
leaf_value=-68.209422020926766 1749.6629882812515 3014.0884765625028 245.54273929595948 2253.0834852430557 -66.561254882812506 4031.0691406250075 69.762060737835853 2022.7549682617184 498.90238087972006 -18.163590099438217 1119.1124959309898 887.623408203125 3826.7629687499993 174.97016601562501 2334.9924609374971 2727.7574218750001 5491.2707031249911 4729.6373697916652 -51.610798426720763 3417.4335937499973 3477.689965820312 1540.8240429687498 2017.5473144531247 4597.7057031249997 347.32001088460288 2583.5276171875003 2529.8738281250003 718.31708496093756 1352.7155724158656 1880.7816406249967
leaf_weight=4247 1.9999999999999973 1.9999999999999973 64 8.9999999999999982 0.999999999999999 0.99999999999999711 211 8 48 827 11.999999999999998 14.999999999999998 5.0000000000000009 64 5.0000000000000062 3.9999999999999991 1.0000000000000007 3 2069 1 8 5 4 10 48 20 4.9999999999999991 20 12.999999999999998 1.0000000000000007
leaf_count=4247 2 2 64 9 1 1 211 8 48 827 12 15 5 64 5 4 1 3 2069 1 8 5 4 10 48 20 5 20 13 1
internal_value=0 26934.1 -377.911 21496.5 4681.58 40890.6 -519.778 16643 3520.84 -576.074 8550.73 7670.59 35322.3 942.469 25136.6 25891.3 46458.9 49200.5 -627.72 28656.9 33849.7 18797.9 17527 45461.9 2891.62 25338.2 23519.4 7908.77 14353.4 13904.3
internal_weight=0 107 7626 77 208 30 7418 33 160 7143 48 36 15 275 44 30 15 4 6316 5 10 17 9 11 112 25 14 35 16 14
internal_count=7733 107 7626 77 208 30 7418 33 160 7143 48 36 15 275 44 30 15 4 6316 5 10 17 9 11 112 25 14 35 16 14
shrinkage=0.1


Tree=10
num_leaves=31
num_cat=0
split_feature=7 8 8 8 8 7 8 8 8 7 7 8 6 2 8 3 1 4 8 1 5 4 1 2 2 8 6 4 1 1
split_gain=6.37756e+10 6.28079e+09 4.73209e+09 9.61679e+08 7.53436e+08 7.41951e+08 6.51399e+08 1.24998e+08 1.13971e+08 1.03067e+08 9.6172e+07 6.89642e+07 5.54634e+07 5.45793e+07 3.34708e+07 3.32083e+07 3.52402e+07 3.24611e+07 3.15722e+07 3.08786e+07 4.0164e+07 2.6946e+07 2.57959e+07 3.08224e+07 2.36429e+07 2.3159e+07 2.22127e+07 2.20431e+07 3.6227e+07 2.15091e+07
threshold=27540.000000000004 71781.000000000015 7270.0000000000009 53380.500000000007 98906.000000000015 14910.000000000002 2200.5000000000005 712.50000000000011 11855.000000000002 22126.500000000004 35272.000000000007 4637.0000000000009 67801.500000000015 2.5000000000000004 137.50000000000003 14.500000000000002 10.500000000000002 941.50000000000011 63184.500000000007 10.500000000000002 67800.500000000015 4276.5000000000009 10.500000000000002 3.5000000000000004 3.5000000000000004 19583.000000000004 59393.000000000007 32648.000000000004 6.5000000000000009 3.5000000000000004
decision_type=2 2 2 2 2 2 2 2 2 2 2 2 2 2 2 2 2 2 2 2 2 2 2 2 2 2 2 2 2 2
left_child=2 3 6 10 12 8 7 14 29 25 -2 -8 26 -5 -1 24 -17 -10 -15 -14 -21 -19 -20 -24 -6 -7 -3 28 -12 -4
right_child=1 4 5 13 15 9 11 -9 17 -11 27 -13 19 18 -16 16 -18 21 22 20 -22 -23 23 -25 -26 -27 -28 -29 -30 -31
leaf_value=-60.676862597143817 1339.83296875 3373.7429687500003 227.82272149447738 2071.5914388020833 3627.9621093750065 597.92903320312485 71.090659285954061 -13.709215778428556 -59.905126953125006 1043.9879459635417 1342.3836263020835 180.19855354309084 3859.9203125000004 2147.7232666015625 -44.351690783517327 4942.143749999992 4256.6736328124989 874.55551757812509 2325.1748828124996 2981.260807291666 3444.0867968749999 497.44158596462677 2454.9816406250002 3075.6904296874973 4137.9350781249996 785.93944541529618 2857.4563281249993 1944.5371744791657 1749.8640747070312 330.91126927617773
leaf_weight=4669 15 0.999999999999999 29 11.999999999999998 0.99999999999999711 10.000000000000002 210 773 0.999999999999999 14.999999999999998 2.9999999999999991 80 0.999999999999999 7.9999999999999991 1718 1.0000000000000007 3 1.9999999999999987 20.000000000000004 3 5 36 3.9999999999999991 1 10 19 5 3.0000000000000009 7.9999999999999991 67
leaf_count=4669 15 1 29 12 1 10 210 773 1 15 3 80 1 8 1718 1 3 2 20 3 5 36 4 1 10 19 5 3 8 67
internal_value=0 24596.3 -335.302 19648.3 36801.5 4745.64 -457.381 -516.891 3583.33 8311.81 15157.6 1011.89 31790.1 22542.2 -562.857 41813 44280.4 5024.9 23206.3 33360.2 32705.3 5172.9 23759.6 25791.2 40915.7 7211.08 29435 17042.6 16387.3 2997.7
internal_weight=0 104 7629 74 30 179 7450 7160 135 44 29 290 15 45 6387 15 4 39 33 9 8 38 25 5 11 29 6 14 11 96
internal_count=7733 104 7629 74 30 179 7450 7160 135 44 29 290 15 45 6387 15 4 39 33 9 8 38 25 5 11 29 6 14 11 96
shrinkage=0.1


Tree=11
num_leaves=31
num_cat=0
split_feature=6 8 8 7 8 8 7 7 8 8 8 6 6 1 8 1 8 3 1 4 1 5 2 3 1 3 5 4 8 4
split_gain=5.16734e+10 4.59109e+09 4.3408e+09 7.21655e+08 6.10283e+08 6.06112e+08 5.4916e+08 1.38591e+08 1.08113e+08 7.58024e+07 6.68908e+07 5.42271e+07 4.49254e+07 3.50882e+07 3.48266e+07 2.99755e+07 2.79254e+07 2.68987e+07 2.85446e+07 2.62935e+07 2.50117e+07 3.25328e+07 2.49661e+07 2.42463e+07 2.36118e+07 2.12191e+07 2.03978e+07 1.97608e+07 1.953e+07 3.29254e+07
threshold=27058.500000000004 71781.000000000015 7860.0000000000009 14910.000000000002 98906.000000000015 2315.0000000000005 48860.500000000007 22126.500000000004 712.50000000000011 11855.000000000002 4637.0000000000009 33176.000000000007 67801.500000000015 6.5000000000000009 63184.500000000007 10.500000000000002 82.500000000000014 14.500000000000002 10.500000000000002 941.50000000000011 10.500000000000002 67800.500000000015 3.5000000000000004 13.500000000000002 10.500000000000002 13.500000000000002 13924.000000000002 6584.0000000000009 29518.500000000004 16387.000000000004
decision_type=2 2 2 2 2 2 2 2 2 2 2 2 2 2 2 2 2 2 2 2 2 2 2 2 2 2 2 2 2 2
left_child=2 6 5 9 12 8 11 26 16 27 -7 13 25 -2 -8 -16 -1 -6 -19 -11 -14 -22 -17 -21 -13 -3 -5 -4 -9 -30
right_child=1 4 3 7 17 10 14 28 -10 19 -12 24 20 -15 15 22 -18 18 -20 23 21 -23 -24 -25 -26 -27 -28 -29 29 -31
leaf_value=-55.715617489146076 1102.8166210937495 2228.6468749999999 322.78611145019534 735.80831298828116 3682.4165660511362 67.53662967160345 1906.6852050781251 902.80241699218732 -11.464474636361512 -53.914617919921881 169.77008673350019 1431.9142089843747 3473.9281250000004 1433.2151692708335 2052.9926953124996 2209.4835937500002 -42.013825215638143 4447.9292968749924 3831.0061848958321 554.34086914062505 2683.1347005208327 3099.6782031249995 2768.1212890624975 393.69108421688992 1745.5743001302083 2733.2549999999997 567.97396647135417 221.33615570068361 1455.5055664062493 995.43692801339284
leaf_weight=4029 5.0000000000000009 0.999999999999999 48 14.000000000000002 10.999999999999998 192 13.999999999999998 12 791 0.999999999999999 96 4 0.999999999999999 8.9999999999999982 25.000000000000004 3.9999999999999991 2358 1.0000000000000007 3 17 3 5 1 21 6 5 14.999999999999998 32 1.9999999999999998 7
leaf_count=4029 5 1 48 14 11 192 14 12 791 1 96 4 1 9 25 4 2358 1 3 17 3 5 1 21 6 5 15 32 2 7
internal_value=0 22816.6 -292.865 4718.79 33121.4 -406.309 18270.4 7906.72 -463.381 3379.32 1016.14 14422.6 28611.1 13152.2 20369.2 20977 -506.571 37631.7 39852.4 4522.41 30024.1 29434.7 23212.1 4655.61 16201.1 26491.5 6489.97 2822.06 9863.19 10976.7
internal_weight=0 98 7635 169 30 7466 68 50 7178 119 288 24 15 14 44 30 6387 15 4 39 9 8 5 38 10 6 29 80 21 9
internal_count=7733 98 7635 169 30 7466 68 50 7178 119 288 24 15 14 44 30 6387 15 4 39 9 8 5 38 10 6 29 80 21 9
shrinkage=0.1


Tree=12
num_leaves=31
num_cat=0
split_feature=6 8 8 7 8 7 8 7 8 8 8 6 6 2 1 8 2 6 8 1 4 3 4 1 4 8 4 3 1 6
split_gain=4.18555e+10 3.71879e+09 3.51891e+09 6.46399e+08 4.94329e+08 4.4482e+08 4.2761e+08 1.12259e+08 8.29773e+07 7.42014e+07 4.62781e+07 4.39239e+07 3.63895e+07 2.90264e+07 2.84214e+07 2.60253e+07 2.57174e+07 2.94566e+07 2.33496e+07 2.61421e+07 2.12978e+07 2.09986e+07 2.06733e+07 1.91256e+07 1.85453e+07 1.82917e+07 1.82995e+07 1.753e+07 1.93208e+07 1.72192e+07
threshold=27058.500000000004 71781.000000000015 7270.0000000000009 14910.000000000002 98906.000000000015 48860.500000000007 2200.5000000000005 22126.500000000004 377.50000000000006 11855.000000000002 4278.5000000000009 33176.000000000007 67801.500000000015 2.5000000000000004 6.5000000000000009 1101.0000000000002 3.5000000000000004 89557.500000000015 63184.500000000007 6.5000000000000009 941.50000000000011 13.500000000000002 4603.5000000000009 10.500000000000002 25051.500000000004 19583.000000000004 13526.500000000002 12.500000000000002 10.500000000000002 59393.000000000007
decision_type=2 2 2 2 2 2 2 2 2 2 2 2 2 2 2 2 2 2 2 2 2 2 2 2 2 2 2 2 2 2
left_child=2 5 6 9 12 11 8 25 -1 -4 -8 14 29 -7 24 -10 -6 -18 19 -15 -11 -14 -22 -13 -2 -5 -27 28 -24 -3
right_child=1 4 3 7 16 13 10 -9 15 20 -12 23 21 18 -16 -17 17 -19 -20 -21 22 -23 27 -25 -26 26 -28 -29 -30 -31
leaf_value=-47.222575528176719 835.28665364583287 2763.0431640625002 243.44626185099284 474.62537109374983 2896.9242187500004 1692.5482421875001 53.885790512242274 887.68708844866069 -28.89502809929586 -48.523153686523443 138.77457774480183 1288.7227783203123 2416.408105468749 1498.0497395833329 1289.8936523437501 0.93157016085077426 3066.5402343750002 3481.0643473307291 1927.7044609375 1871.4455273437497 634.04610595703127 2783.8191685267857 365.94562988281257 1571.0168619791666 1228.4074707031245 725.40815873579527 526.63623046875 347.3560460408529 643.9438574218749 2308.4772265624997
leaf_weight=5744 3.0000000000000009 0.999999999999999 96 10.000000000000002 0.999999999999999 10.999999999999998 194 21 1003 0.999999999999999 96 4 1.9999999999999998 3 8.9999999999999982 413 1.9999999999999987 12 25 5 3.9999999999999991 7 4.9999999999999982 6 1.9999999999999998 11.000000000000002 7.9999999999999991 24 5 5
leaf_count=5744 3 1 96 10 1 11 194 21 1003 1 96 4 2 3 9 413 2 12 25 5 4 7 5 6 2 11 8 24 5 5
internal_value=0 20534.9 -263.579 4044.58 29809.3 16443.3 -370.56 7116.05 -418.776 2907 819.869 12980.3 25750 18332.3 11836.9 -201.956 33868.5 34218.5 18801.2 17314.2 4070.17 27021.7 4190.05 14581 9925.35 5840.98 6417.15 3937.06 5049.45 23842.4
internal_weight=0 98 7635 185 30 68 7450 50 7160 135 290 24 15 44 14 1416 15 14 33 8 39 9 38 10 5 29 19 34 10 6
internal_count=7733 98 7635 185 30 68 7450 50 7160 135 290 24 15 44 14 1416 15 14 33 8 39 9 38 10 5 29 19 34 10 6
shrinkage=0.1


Tree=13
num_leaves=31
num_cat=0
split_feature=8 8 8 5 8 8 8 8 8 8 8 3 8 8 5 1 5 4 6 2 6 8 4 4 2 6 4 3 8 1
split_gain=3.3928e+10 3.48652e+09 2.36307e+09 5.95215e+08 4.70587e+08 4.00407e+08 2.16883e+08 7.3689e+07 5.5164e+07 4.72048e+07 3.90518e+07 4.04415e+07 3.78948e+07 3.4085e+07 3.21764e+07 3.08339e+07 4.13782e+07 2.53206e+07 2.26456e+07 2.08311e+07 2.38599e+07 2.06623e+07 1.68439e+07 1.85164e+07 1.92397e+07 2.37773e+07 1.68119e+07 1.58086e+07 1.72723e+07 1.5451e+07
threshold=29518.500000000004 71781.000000000015 5082.0000000000009 33542.000000000007 13454.000000000002 98906.000000000015 1279.5000000000002 22676.500000000004 9148.0000000000018 53380.500000000007 38022.500000000007 13.500000000000002 162.50000000000003 2696.5000000000005 59393.000000000007 10.500000000000002 67800.500000000015 941.50000000000011 59393.000000000007 3.5000000000000004 89557.500000000015 19583.000000000004 16387.000000000004 25051.500000000004 2.5000000000000004 27058.500000000004 8980.5000000000018 9.5000000000000018 63184.500000000007 10.500000000000002
decision_type=2 2 2 2 2 2 2 2 2 2 2 2 2 2 2 2 2 2 2 2 2 2 2 2 2 2 2 2 2 2
left_child=2 3 6 10 8 14 12 17 -4 -5 22 -12 -1 -8 18 -16 -17 -6 -3 -7 -21 26 -2 24 -24 -26 -19 -11 -29 -30
right_child=1 5 4 9 7 19 13 -9 -10 27 11 -13 -14 -15 15 16 -18 21 -20 20 -22 -23 23 -25 25 -27 -28 28 29 -31
leaf_value=-44.255539284232128 1221.1863281249969 2486.738867187496 157.2362255913871 1337.3088671875003 -43.670840454101565 2607.2318359375004 10.907914565883864 702.06061706542971 273.61806735992434 1558.5264293323864 1322.5013671875004 959.96169921874991 -28.005655962392559 66.959134739637378 2760.9784179687526 2087.1656249999996 2518.6766406249999 513.02877197265627 1937.2470703124993 2759.8861328125004 3132.9579020182287 561.6928743489583 656.937255859375 1325.5977539062478 819.77687174479183 1134.5337402343748 363.30928344726567 1570.2419067382814 1698.749157072368 1896.3195117187502
leaf_weight=4851 2.0000000000000044 1.0000000000000007 112 4.9999999999999991 0.999999999999999 0.999999999999999 337 15.999999999999998 64 10.999999999999998 7.9999999999999982 5 2038 160 1.9999999999999973 4 5 11.999999999999998 3 1.9999999999999987 12 14.999999999999998 2.9999999999999991 1.0000000000000007 5.9999999999999982 4 20 7.9999999999999991 19.000000000000004 4.9999999999999991
leaf_count=4851 2 1 112 5 1 1 337 16 64 11 8 5 2038 160 2 4 5 12 3 2 12 15 3 1 6 4 20 8 19 5
internal_value=0 17683.2 -248.112 14120.2 2839.97 26828.3 -348.456 5162.07 1995.57 16281.3 10543.2 11830.6 -394.483 289.526 23175 24058.2 23268.9 4542.55 20746.2 30481.7 30796.6 4648.49 9497.24 9109.43 8790.47 9456.8 4194.54 16619.4 16974.9 17399.1
internal_weight=0 107 7626 77 240 30 7386 64 176 48 29 13 6889 497 15 11 9 48 4 15 14 47 16 14 13 10 32 43 32 24
internal_count=7733 107 7626 77 240 30 7386 64 176 48 29 13 6889 497 15 11 9 48 4 15 14 47 16 14 13 10 32 43 32 24
shrinkage=0.1


Tree=14
num_leaves=31
num_cat=0
split_feature=8 8 8 5 8 8 8 8 8 8 8 8 8 3 5 1 5 4 4 4 6 3 1 3 4 4 2 6 3 8
split_gain=2.74817e+10 2.82408e+09 1.91885e+09 4.82125e+08 3.24329e+08 3.00902e+08 2.48949e+08 4.76183e+07 4.43137e+07 3.82359e+07 3.76353e+07 3.70774e+07 3.1632e+07 3.27577e+07 2.60629e+07 2.49754e+07 3.35163e+07 2.41134e+07 2.2634e+07 1.98664e+07 1.83429e+07 1.80599e+07 2.31211e+07 1.41747e+07 1.36435e+07 1.49983e+07 1.55842e+07 1.92596e+07 1.2805e+07 1.39906e+07
threshold=29518.500000000004 71781.000000000015 6626.5000000000009 33542.000000000007 98906.000000000015 15861.000000000002 1420.5000000000002 10068.500000000002 3555.5000000000005 53380.500000000007 22676.500000000004 253.50000000000003 38022.500000000007 13.500000000000002 59393.000000000007 10.500000000000002 67800.500000000015 941.50000000000011 11150.500000000002 4603.5000000000009 59393.000000000007 14.500000000000002 10.500000000000002 12.500000000000002 16387.000000000004 25051.500000000004 2.5000000000000004 27058.500000000004 9.5000000000000018 63184.500000000007
decision_type=2 2 2 2 2 2 2 2 2 2 2 2 2 2 2 2 2 2 2 2 2 2 2 2 2 2 2 2 2 2
left_child=2 3 6 12 14 7 11 -4 -8 -5 17 -1 24 23 20 -16 -17 -7 -19 -9 -3 -6 -23 -14 -2 26 -26 -28 -11 -30
right_child=1 4 5 9 21 10 8 19 -10 28 -12 -13 13 -15 15 16 -18 18 -20 -21 -22 22 -24 -25 25 -27 27 -29 29 -31
leaf_value=-39.157596138253176 1099.0676757812471 2238.065039062496 166.08648376464845 1203.5779492187501 2677.1823153409096 -39.303753662109379 21.655151870173938 429.22023315429692 90.97213637530804 1402.6738014914772 631.85456390380864 -22.044384881126035 1018.4067220052086 863.96550781249994 2484.8805664062525 1878.4490234374998 2266.8090234374995 547.85748697916654 376.87338867187503 260.75487191336498 1743.5223307291662 3341.7339843749942 2786.5033854166659 1293.3579882812498 591.24350585937498 1193.0378906249978 737.79916992187509 1021.0803222656249 1413.2177368164064 1565.9186971028648
leaf_weight=5314 2.0000000000000044 1.0000000000000007 80 4.9999999999999991 10.999999999999998 0.999999999999999 330 7.9999999999999991 128 10.999999999999998 15.999999999999998 1662 2.9999999999999982 5 1.9999999999999973 4 5 15.000000000000002 15.999999999999998 56 3 1.0000000000000007 3 5 2.9999999999999991 1.0000000000000007 5.9999999999999982 4 7.9999999999999991 24
leaf_count=5314 2 1 80 5 11 1 330 8 128 11 16 1662 3 5 2 4 5 15 16 56 3 1 3 5 3 1 6 4 8 24
internal_value=0 15914.9 -223.301 12708.2 24145.5 2897.98 -303.915 2175.21 410.276 14653.1 5066.29 -350.805 9488.92 10647.6 20857.5 21652.4 20942 4440.17 4596.08 2818.13 18671.6 27433.5 29253.1 11902.5 8547.51 8198.49 7911.42 8511.12 14957.5 15277.4
internal_weight=0 107 7626 77 30 192 7434 144 458 48 48 6976 29 13 15 11 9 32 31 64 4 15 4 8 16 14 13 10 43 32
internal_count=7733 107 7626 77 30 192 7434 144 458 48 48 6976 29 13 15 11 9 32 31 64 4 15 4 8 16 14 13 10 43 32
shrinkage=0.1


Tree=15
num_leaves=31
num_cat=0
split_feature=8 8 8 5 8 8 8 8 8 8 8 8 3 3 8 6 4 2 6 8 4 4 1 5 4 3 4 2 4 4
split_gain=2.22601e+10 2.2875e+09 1.55731e+09 3.90521e+08 3.12449e+08 2.62707e+08 1.43377e+08 4.72747e+07 3.52074e+07 3.09711e+07 2.70724e+07 2.56219e+07 2.65337e+07 2.34525e+07 2.29991e+07 1.81858e+07 1.67978e+07 1.63152e+07 1.83861e+07 1.40656e+07 1.25733e+07 1.23271e+07 1.21828e+07 2.44024e+07 1.74226e+07 1.14815e+07 1.11917e+07 1.11084e+07 1.10513e+07 1.21486e+07
threshold=29518.500000000004 71781.000000000015 5082.0000000000009 33542.000000000007 13454.000000000002 98906.000000000015 1217.0000000000002 22676.500000000004 8500.0000000000018 53380.500000000007 2444.0000000000005 38022.500000000007 13.500000000000002 13.500000000000002 75.500000000000014 67801.500000000015 941.50000000000011 3.5000000000000004 89557.500000000015 19583.000000000004 8980.5000000000018 8010.5000000000009 6.5000000000000009 47307.000000000007 44740.500000000007 12.500000000000002 13526.500000000002 3.5000000000000004 16387.000000000004 25051.500000000004
decision_type=2 2 2 2 2 2 2 2 2 2 2 2 2 2 2 2 2 2 2 2 2 2 2 2 2 2 2 2 2 2
left_child=2 3 6 11 8 13 14 16 -4 -5 -8 28 25 -3 -1 -15 -6 -7 -19 20 -18 -10 24 -24 -11 -13 -21 -25 -2 -30
right_child=1 5 4 9 7 17 10 -9 21 22 -12 12 -14 15 -16 -17 19 18 -20 26 -22 -23 23 27 -26 -27 -28 -29 29 -31
leaf_value=-37.216089475450936 989.16093749999754 1627.0940104166666 120.96009631156922 1083.22017578125 -35.373379516601567 2078.7904296874999 4.4391252662022911 568.66911163330076 234.20325617386126 1029.18994140625 50.612223263581598 916.5660156250002 777.56896484374988 1794.0340820312497 -25.454418907422163 2043.7368303571429 422.28391723632814 2216.1792968750001 2543.6730021158855 529.24427897135422 292.80650817871094 144.98780285063245 1345.7511352539066 1544.1158691406245 1334.0182063802085 1164.0221484374997 352.92633870442711 1952.3150390624976 712.02786959134619 1073.7341796874982
leaf_weight=3946 2.0000000000000044 2.9999999999999991 96 4.9999999999999991 0.999999999999999 0.999999999999999 375 15.999999999999998 59 1.9999999999999987 192 2.9999999999999982 5 5 2873 7 11.999999999999998 1.9999999999999987 12 8.9999999999999982 20 21 7.9999999999999982 1.9999999999999998 30 5 5.9999999999999991 1.0000000000000002 12.999999999999998 1.0000000000000007
leaf_count=3946 2 3 96 5 1 1 375 16 59 2 192 3 5 5 2873 7 12 2 12 9 20 21 8 2 30 5 6 1 13 1
internal_value=0 14323.4 -200.971 11437.4 2305.94 21730.9 -282.43 4198.07 1617.89 13187.8 200.745 8540.02 9582.81 18771.7 -322.606 19396.9 3701.86 24690.2 24968.9 3788.15 3413.61 2107.84 13461.7 14369.6 13149.7 10712.3 4587.17 16801.8 7692.76 7378.64
internal_weight=0 107 7626 77 240 30 7386 64 176 48 567 29 13 15 6819 12 48 15 14 47 32 80 43 11 32 8 15 3 16 14
internal_count=7733 107 7626 77 240 30 7386 64 176 48 567 29 13 15 6819 12 48 15 14 47 32 80 43 11 32 8 15 3 16 14
shrinkage=0.1


Tree=16
num_leaves=31
num_cat=0
split_feature=7 8 8 5 8 8 8 8 7 8 8 8 3 6 3 4 3 4 5 4 4 4 3 1 8 5 4 3 1 1
split_gain=1.80374e+10 1.76886e+09 1.34397e+09 2.73242e+08 2.12792e+08 2.10122e+08 1.86635e+08 3.79625e+07 3.51225e+07 2.69369e+07 2.50866e+07 2.24309e+07 1.89965e+07 1.89213e+07 1.76656e+07 1.66932e+07 1.66882e+07 1.62712e+07 1.49854e+07 1.728e+07 1.56106e+07 1.46509e+07 1.33252e+07 1.87281e+07 1.29582e+07 1.27687e+07 1.91114e+07 1.27399e+07 1.85248e+07 1.20866e+07
threshold=27540.000000000004 71781.000000000015 7270.0000000000009 33542.000000000007 98906.000000000015 15861.000000000002 2052.0000000000005 773.50000000000011 22126.500000000004 10884.000000000002 53380.500000000007 4278.5000000000009 13.500000000000002 33176.000000000007 13.500000000000002 941.50000000000011 12.500000000000002 25051.500000000004 67800.500000000015 66028.000000000015 67794.500000000015 3320.5000000000005 14.500000000000002 10.500000000000002 56.500000000000007 66774.000000000015 58660.000000000007 13.500000000000002 6.5000000000000009 3.5000000000000004
decision_type=2 2 2 2 2 2 2 2 2 2 2 2 2 2 2 2 2 2 2 2 2 2 2 2 2 2 2 2 2 2
left_child=2 3 6 13 12 9 7 24 15 29 -5 -8 -3 16 -15 -7 17 -2 25 -20 -21 -11 -6 -24 -1 26 -14 28 -18 -4
right_child=1 4 5 10 22 8 11 -9 -10 21 -12 -13 18 14 -16 -17 27 -19 19 20 -22 -23 23 -25 -26 -27 -28 -29 -30 -31
leaf_value=-33.934806660858115 524.48490234374924 1464.3846354166667 94.564019323278359 974.89814453125007 2165.2773792613639 -31.836041259765626 33.776218651736521 -5.1623190583919678 553.15214599609374 508.73627929687501 1211.5566179142443 92.082534384727481 1647.0007975260414 1061.4708740234375 697.47678222656225 382.53264543805807 616.50932617187527 966.36074218749911 2263.7615234374962 1461.1615234374981 1945.0615234374993 232.25972860585091 2753.1933593749955 2253.4857869466136 -24.907863324751986 1332.4511718749989 2119.1939453124983 687.3134765625 967.93350423177071 176.76496651127655
leaf_weight=3635 5.0000000000000062 2.9999999999999991 27 4.9999999999999991 10.999999999999998 0.999999999999999 211 681 14.999999999999998 1.9999999999999987 43 96 6 3.9999999999999991 1.9999999999999998 35 1.999999999999998 1 1.0000000000000007 1.0000000000000002 1.9999999999999998 46 1.0000000000000007 3 2827 1 1 6 6 53
leaf_count=3635 5 3 27 5 11 1 211 681 15 2 43 96 6 4 2 35 2 1 1 1 2 46 1 3 2827 1 1 6 6 53
internal_value=0 13080.7 -178.318 10454.8 19557.9 2529.46 -243.378 -276.191 4245.9 1845.56 11869 520.088 16894.6 7843.89 9401.4 3710.22 7376.64 5981.31 17457.2 19037.6 17837.6 2437.8 22221.1 23784.1 -299.857 16667.1 17144.6 7974.64 8800.77 1490.22
internal_weight=0 104 7629 74 30 179 7450 7143 51 128 48 307 15 26 6 36 20 6 12 4 3 48 15 4 6462 8 7 14 8 80
internal_count=7733 104 7629 74 30 179 7450 7143 51 128 48 307 15 26 6 36 20 6 12 4 3 48 15 4 6462 8 7 14 8 80
shrinkage=0.1


Tree=17
num_leaves=31
num_cat=0
split_feature=6 8 8 8 8 8 7 8 8 7 1 8 1 4 5 1 5 4 5 6 4 2 6 6 1 5 4 2 4 7
split_gain=1.46117e+10 1.29321e+09 1.23934e+09 1.98578e+08 1.78081e+08 1.72362e+08 1.55444e+08 3.65751e+07 2.78838e+07 2.70792e+07 2.19657e+07 2.08815e+07 1.81984e+07 2.39737e+07 1.67874e+07 1.80703e+07 2.16154e+07 1.59989e+07 1.5268e+07 1.409e+07 1.35955e+07 1.2791e+07 1.41834e+07 1.22117e+07 1.15806e+07 1.56379e+07 1.43457e+07 1.15663e+07 1.13003e+07 1.12774e+07
threshold=27058.500000000004 71781.000000000015 8500.0000000000018 2444.0000000000005 19583.000000000004 98906.000000000015 48860.500000000007 886.50000000000011 11855.000000000002 22126.500000000004 6.5000000000000009 4637.0000000000009 6.5000000000000009 44740.500000000007 59393.000000000007 10.500000000000002 67800.500000000015 1100.0000000000002 47307.000000000007 59393.000000000007 25051.500000000004 3.5000000000000004 89557.500000000015 33176.000000000007 6.5000000000000009 17225.000000000004 16387.000000000004 3.5000000000000004 13526.500000000002 14.500000000000002
decision_type=2 2 2 2 2 2 2 2 2 2 2 2 2 2 2 2 2 2 2 2 2 2 2 2 2 2 2 2 2 2
left_child=2 6 3 7 8 14 10 29 -4 17 20 -5 13 -8 19 -16 27 -6 -14 -3 -2 -7 -23 -12 -11 -26 -27 -17 -19 -1
right_child=1 5 4 11 9 21 12 -9 -10 24 23 -13 18 -15 15 16 -18 28 -20 -21 -22 22 -24 -25 25 26 -28 -29 -30 -31
leaf_value=-32.018782620735941 469.97335611979156 1670.1550781249971 157.6840545654297 38.607792824777697 -28.652438354492087 1654.38359375 818.83547363281252 -1.8740772085111272 258.51044979095462 418.77254289899548 767.73003472222229 93.842451081531394 1121.3702706473216 1079.4607519531251 1856.194238281252 1520.6641601562494 1662.4986523437497 447.49284002130673 1391.0083658854164 1236.7184895833332 730.69810384114578 1778.0335937500001 2065.6734044392902 951.90759277343716 434.50723144531241 796.2321533203127 542.15377929687497 1180.5722167968745 291.29279937744144 -23.512065036554191
leaf_weight=2556 3 1.0000000000000007 64 176 1.0000000000000024 0.999999999999999 3.9999999999999991 645 48 7.0000000000000009 8.9999999999999982 112 6.9999999999999982 30 1.9999999999999973 1.9999999999999998 5 11.000000000000002 3 3 6 1.9999999999999987 12 6.0000000000000009 5.0000000000000009 3.9999999999999982 5 1.9999999999999998 7.9999999999999991 3993
leaf_count=2556 3 1 64 176 1 1 4 645 48 7 9 112 7 30 2 2 5 11 3 3 6 2 12 6 5 4 5 2 8 3993
internal_value=0 12133 -155.734 -213.348 2661.7 17602.1 9720.13 -245.944 2008.95 4444.82 7672.97 600.879 10836.8 10488 15205.1 15843 15238.9 3612.06 12022.6 13450.8 6437.9 19999 20245.8 8414.01 5237.92 5763.02 6550.78 13506.2 3817.24 -268.321
internal_weight=0 98 7635 7482 153 30 68 7194 112 41 24 288 44 34 15 11 9 20 10 4 9 15 14 15 21 14 9 4 19 6549
internal_count=7733 98 7635 7482 153 30 68 7194 112 41 24 288 44 34 15 11 9 20 10 4 9 15 14 15 21 14 9 4 19 6549
shrinkage=0.1


Tree=18
num_leaves=31
num_cat=0
split_feature=8 8 8 5 8 8 8 8 8 8 7 8 3 4 6 3 3 1 4 4 5 3 1 6 4 4 2 6 4 5
split_gain=1.18447e+10 1.21275e+09 8.30015e+08 2.05249e+08 1.42278e+08 1.39613e+08 9.94742e+07 2.51308e+07 1.70313e+07 1.64414e+07 1.61719e+07 1.5085e+07 1.46782e+07 1.46607e+07 1.39695e+07 1.41897e+07 1.41173e+07 1.32012e+07 1.5124e+07 1.24152e+07 1.23671e+07 1.20402e+07 1.10423e+07 1.06748e+07 1.05377e+07 1.36995e+07 1.03607e+07 1.14886e+07 9.83816e+06 1.76907e+07
threshold=29518.500000000004 71781.000000000015 6001.5000000000009 33542.000000000007 15861.000000000002 98906.000000000015 1356.5000000000002 10068.500000000002 264.50000000000006 3402.5000000000005 48860.500000000007 22676.500000000004 13.500000000000002 4603.5000000000009 33176.000000000007 12.500000000000002 13.500000000000002 6.5000000000000009 66028.000000000015 25051.500000000004 47307.000000000007 13.500000000000002 6.5000000000000009 67801.500000000015 941.50000000000011 11150.500000000002 3.5000000000000004 89557.500000000015 689.50000000000011 941.50000000000011
decision_type=2 2 2 2 2 2 2 2 2 2 2 2 2 2 2 2 2 2 2 2 2 2 2 2 2 2 2 2 2 2
left_child=2 3 6 14 7 12 8 -4 -1 28 -5 24 -3 -9 15 19 -16 18 -12 -2 -19 22 -17 -14 -6 -26 -7 -28 29 -8
right_child=1 5 4 10 11 26 9 13 -10 -11 17 -13 23 -15 16 21 -18 20 -20 -21 -22 -23 -24 -25 25 -27 27 -29 -30 -31
leaf_value=-25.914114181248166 416.07054036458288 1170.6167643229167 104.69914166132611 791.36990234375003 -25.787194824218751 1488.9453125 27.760015376748107 312.22696228027348 -14.121716610931555 54.683292518556122 876.72140299479167 412.63897628784184 1306.3234570312497 167.50718748910089 868.99006347656257 510.42110595703144 543.59882812499973 1009.2332310267859 1012.6805989583335 796.65483398437436 1251.907552083333 542.78039202008938 776.85380859374993 1497.6329520089284 372.6817749023437 239.65837593078615 1600.2302734375 1859.1060506184895 5.9609073811500366 190.32727251052859
leaf_weight=5354 6.0000000000000062 2.9999999999999991 96 4.9999999999999991 0.999999999999999 0.999999999999999 41 7.9999999999999991 1588 128 14.999999999999998 15.999999999999998 5 56 3.9999999999999991 1.999999999999998 1.9999999999999998 6.9999999999999982 18 1 3 6.9999999999999991 7 7 15.000000000000002 15.999999999999998 1.9999999999999987 12 299 7.9999999999999991
leaf_count=5354 6 3 96 5 1 1 41 8 1588 128 15 16 5 56 4 2 2 7 18 1 3 7 7 7 15 16 2 12 299 8
internal_value=0 10448.3 -146.599 8346.86 1823.58 15841.9 -201.843 1370.58 -232.166 240.39 9615.89 3333.58 13684.6 1855.97 6246.39 5891.9 7605.26 9813.82 9508.81 4704.4 10820.4 6411.43 7176.47 14179.2 2937.18 3040.25 17999.1 18221.2 127.675 543.016
internal_weight=0 107 7626 77 208 30 7418 160 6942 476 48 48 15 64 29 23 6 43 33 7 10 16 9 12 32 31 15 14 348 49
internal_count=7733 107 7626 77 208 30 7418 160 6942 476 48 48 15 64 29 23 6 43 33 7 10 16 9 12 32 31 15 14 348 49
shrinkage=0.1


Tree=19
num_leaves=31
num_cat=0
split_feature=6 8 8 8 7 8 7 8 7 1 3 1 8 1 4 5 1 5 6 5 2 2 3 1 4 4 1 5 4 4
split_gain=9.59702e+09 8.46453e+08 8.13741e+08 1.31575e+08 1.16283e+08 1.13087e+08 9.9491e+07 2.52318e+07 2.4219e+07 1.67912e+07 1.40083e+07 1.45646e+07 1.36035e+07 1.20276e+07 1.80606e+07 1.19935e+07 1.46538e+07 1.6717e+07 1.11498e+07 1.00173e+07 9.78864e+06 8.99783e+06 8.96086e+06 1.51697e+07 8.92415e+06 8.58291e+06 8.2059e+06 1.20136e+07 1.22437e+07 7.6409e+06
threshold=27058.500000000004 71781.000000000015 8500.0000000000018 2444.0000000000005 14910.000000000002 98906.000000000015 48860.500000000007 454.50000000000006 22126.500000000004 6.5000000000000009 12.500000000000002 6.5000000000000009 4278.5000000000009 6.5000000000000009 44740.500000000007 59393.000000000007 10.500000000000002 67800.500000000015 59393.000000000007 47307.000000000007 3.5000000000000004 3.5000000000000004 14.500000000000002 10.500000000000002 32648.000000000004 25051.500000000004 6.5000000000000009 17225.000000000004 16387.000000000004 4603.5000000000009
decision_type=2 2 2 2 2 2 2 2 2 2 2 2 2 2 2 2 2 2 2 2 2 2 2 2 2 2 2 2 2 2
left_child=2 6 3 7 10 15 9 -1 -6 25 11 -4 -5 14 -8 18 -17 20 -3 -15 -18 -21 -7 -24 -11 -2 -10 -28 -29 -12
right_child=1 5 4 12 8 22 13 -9 26 24 29 -13 -14 19 -16 16 17 -19 -20 21 -22 -23 23 -25 -26 -27 27 28 -30 -31
leaf_value=-22.668091976439811 378.22394205729159 1372.5071289062478 136.5678121948242 29.548829362094406 281.57730334051729 1573.3124644886366 649.47307128906255 -7.0722680689137238 334.18547973632803 668.48916015625002 205.96094900277944 299.97434387207028 73.286579358577725 908.3099121093752 875.68498209635425 1530.3770019531264 1235.1852050781245 1353.0258203124997 986.93782552083303 1004.2570312499997 922.3171874999997 1371.6362304687482 2085.3960937499965 1635.6592447916664 977.7074218749982 585.38221842447911 342.50833007812491 666.23968505859398 431.51310058593748 122.28730262307562
leaf_weight=5937 3 1.0000000000000007 10 160 29 10.999999999999998 3.9999999999999991 1257 7.0000000000000009 13.999999999999998 12.999999999999998 12 128 6.9999999999999982 30 1.9999999999999973 1.9999999999999998 5 3 1.9999999999999998 1.9999999999999998 1.0000000000000002 1.0000000000000007 3 1.0000000000000007 6 5.0000000000000009 3.9999999999999982 5 68
leaf_count=5937 3 1 10 160 29 11 4 1257 7 14 13 12 128 7 30 2 2 5 3 2 2 1 1 3 1 6 5 4 5 68
internal_value=0 9832.99 -126.213 -172.897 2156.77 14257.7 7880.92 -199.431 3408.02 6243.13 1549.36 2256.99 489.878 8774.26 8490.72 12316.1 12855.4 12311.3 10833.3 9738.32 10787.5 11267.2 16199.2 17480.9 6891.04 5163.29 4225.89 4667.9 5358.36 1357.16
internal_weight=0 98 7635 7482 153 30 68 7194 50 24 103 22 288 44 34 15 11 9 4 10 4 3 15 4 15 9 21 14 9 81
internal_count=7733 98 7635 7482 153 30 68 7194 50 24 103 22 288 44 34 15 11 9 4 10 4 3 15 4 15 9 21 14 9 81
shrinkage=0.1


Tree=20
num_leaves=31
num_cat=0
split_feature=8 8 8 5 7 6 8 8 3 8 8 4 5 4 2 2 3 2 6 3 3 3 4 4 5 7 8 5 4 5
split_gain=7.77847e+09 7.94261e+08 5.46311e+08 1.33775e+08 1.06706e+08 9.33029e+07 6.09096e+07 2.19488e+07 1.37937e+07 1.28118e+07 1.04222e+07 1.03589e+07 1.01531e+07 1.20636e+07 1.00263e+07 9.94408e+06 1.04365e+07 9.88962e+06 9.7712e+06 1.13102e+07 1.07225e+07 9.98646e+06 9.42728e+06 9.2863e+06 1.47787e+07 8.06548e+07 8.9938e+06 7.60956e+06 9.00248e+06 7.59352e+06
threshold=29518.500000000004 71781.000000000015 5578.0000000000009 33542.000000000007 11153.000000000002 89557.500000000015 1101.0000000000002 19583.000000000004 13.500000000000002 2696.5000000000005 63184.500000000007 9639.5000000000018 67800.500000000015 66028.000000000015 2.5000000000000004 3.5000000000000004 13.500000000000002 3.5000000000000004 33176.000000000007 13.500000000000002 12.500000000000002 13.500000000000002 25051.500000000004 709.00000000000011 941.50000000000011 1217.0000000000002 62.500000000000007 2800.0000000000005 941.50000000000011 66774.000000000015
decision_type=2 2 2 2 2 2 2 2 2 2 2 2 2 2 2 2 2 2 2 2 2 2 2 2 2 2 2 2 2 2
left_child=2 3 6 18 27 8 26 11 -3 23 15 -6 29 -14 -12 16 -5 -7 20 -20 22 -22 -2 24 -8 -26 -1 28 -4 -10
right_child=1 5 4 10 7 17 9 -9 12 -11 14 -13 13 -15 -16 -17 -18 -19 19 -21 21 -23 -24 -25 25 -27 -28 -29 -30 -31
leaf_value=-22.652984326916169 326.81140950520796 934.38343098958285 52.454906209309883 734.3348266601563 234.46359973144533 1182.7195312499978 18.473358274641495 305.7578257406912 1133.7435267857143 35.650540465387436 685.91585937499951 131.42041213512422 1586.0696289062473 1205.5921874999999 841.0390429687501 635.83439636230457 989.73291015624909 1510.0381713867187 717.79520263671884 426.5453735351561 592.252685546875 432.99679478236607 658.4511230468745 -3.6810376774284941 998.71425781250002 46.156335425376895 -15.311403407523082 89.202657604797025 271.57411621093746 839.15380859374932
leaf_weight=3723 6.0000000000000062 3.0000000000000009 3 7.9999999999999991 25 1.0000000000000007 105 31 7 176 5.0000000000000027 15.999999999999998 1.0000000000000007 5 25 8 2.0000000000000009 12 3.9999999999999991 1.9999999999999998 8.9999999999999982 6.9999999999999991 1 365 0.999999999999999 7.9999999999999991 3024 144 5 1
leaf_count=3723 6 3 3 8 25 1 105 31 7 176 5 16 1 5 25 8 2 12 4 2 9 7 1 365 1 8 3024 144 5 1
internal_value=0 8467 -118.8 6766.39 1419.79 12831.9 -165.361 2422.61 11289.7 125.78 7790.91 1942.52 11706.7 12690.1 8151.85 7189.34 7854.14 14848.6 5070.64 6207.12 4774.16 5225.78 3741.89 41.0039 290.146 1519.96 -193.625 944.764 1894.04 10969.2
internal_weight=0 107 7626 77 224 30 7402 72 17 655 48 41 14 6 30 18 10 13 29 6 23 16 7 479 114 9 6747 152 8 8
internal_count=7733 107 7626 77 224 30 7402 72 17 655 48 41 14 6 30 18 10 13 29 6 23 16 7 479 114 9 6747 152 8 8
shrinkage=0.1


Tree=21
num_leaves=31
num_cat=0
split_feature=6 8 8 7 8 6 7 7 1 3 1 8 7 4 6 8 1 1 4 2 5 2 4 5 3 1 5 4 4 5
split_gain=6.30389e+09 5.5393e+08 5.3879e+08 8.55217e+07 7.59183e+07 7.55753e+07 6.37164e+07 1.58664e+07 1.33201e+07 2.14462e+07 1.32906e+07 1.32245e+07 1.50311e+07 6.32601e+07 1.26188e+07 1.18774e+07 9.62122e+06 8.92532e+06 1.3048e+07 8.01059e+06 7.97169e+06 7.28824e+06 6.73712e+06 6.63361e+06 6.6031e+06 6.14185e+06 9.16762e+06 1.0549e+07 5.747e+06 5.61451e+06
threshold=27058.500000000004 71781.000000000015 7860.0000000000009 14910.000000000002 1555.0000000000002 89557.500000000015 48860.500000000007 22126.500000000004 4.5000000000000009 12.500000000000002 6.5000000000000009 4278.5000000000009 1217.0000000000002 643.50000000000011 67801.500000000015 151.50000000000003 10.500000000000002 6.5000000000000009 44740.500000000007 3.5000000000000004 47307.000000000007 3.5000000000000004 32648.000000000004 13924.000000000002 13.500000000000002 6.5000000000000009 17225.000000000004 16387.000000000004 25051.500000000004 67800.500000000015
decision_type=2 2 2 2 2 2 2 2 2 2 2 2 2 2 2 2 2 2 2 2 2 2 2 2 2 2 2 2 2 2
left_child=2 6 4 8 15 14 10 23 -4 -10 28 12 13 -6 24 -1 -16 18 -8 -7 -19 -22 -12 -5 -3 -9 -27 -28 -2 -18
right_child=1 5 3 7 11 19 17 25 9 -11 22 -13 -14 -15 16 -17 29 20 -20 -21 21 -23 -24 -25 -26 26 27 -29 -30 -31
leaf_value=-19.565093797659774 298.87236328124993 664.84409179687384 67.325871571372531 277.65073966979975 27.567086868286136 1064.4475585937482 516.43079833984382 265.79759347098206 259.59673602764423 120.04119240442913 547.68361118861606 55.775027698278429 13.029607319130889 898.8428710937493 1278.0982910156251 -10.749948369972591 923.9197102864581 735.10678710937509 708.70469401041669 1359.0344034830728 819.72744140624968 1150.3686523437486 816.35327148437364 181.93921997070314 946.33519531249988 271.9518017578124 561.87755737304701 344.00071044921873 468.38638509114583 1091.4683186848958
leaf_weight=4780 3 1.0000000000000007 34 14.000000000000002 4.9999999999999991 1.0000000000000007 3.9999999999999991 7.0000000000000009 12.999999999999998 72 13.999999999999998 112 321 1 1.9999999999999987 2247 3 6.9999999999999982 30 12 1.9999999999999998 1.0000000000000002 1.0000000000000007 14.999999999999998 5 5.0000000000000009 3.9999999999999982 5 6 6
leaf_count=4780 3 1 34 14 5 1 4 7 13 72 14 112 321 1 2 2247 3 7 30 12 2 1 1 15 5 5 4 5 6 6
internal_value=0 7969.33 -102.291 1663.36 -142.259 11548.7 6390.19 2760.81 1202.25 1413.85 5079.52 261.184 159.608 1727.8 10160.8 -167.463 10797.1 7105.1 6860.84 13363.7 7935.57 9299.41 5655.95 2281.45 8994.2 3422.79 3805.19 4408.35 4118.82 10356.2
internal_weight=0 98 7635 169 7466 30 68 50 119 85 24 439 327 6 17 7027 11 44 34 13 10 3 15 29 6 21 14 9 9 9
internal_count=7733 98 7635 169 7466 30 68 50 119 85 24 439 327 6 17 7027 11 44 34 13 10 3 15 29 6 21 14 9 9 9
shrinkage=0.1


Tree=22
num_leaves=31
num_cat=0
split_feature=8 8 8 5 6 8 8 6 5 8 8 1 8 7 8 4 1 1 2 3 4 7 1 3 4 1 4 5 5 7
split_gain=5.10836e+09 5.20145e+08 3.6065e+08 8.70773e+07 6.1216e+07 5.97468e+07 5.00013e+07 1.02212e+07 9.80464e+06 9.58119e+06 9.54645e+06 7.79318e+06 7.58084e+06 7.57091e+06 1.27295e+07 1.16632e+08 2.62404e+08 7.22175e+06 9.39899e+06 1.67119e+07 6.98908e+06 6.90076e+06 6.50184e+06 9.79988e+06 6.47817e+06 6.39918e+06 8.37305e+06 6.45707e+06 6.39857e+06 5.47339e+07
threshold=29518.500000000004 71781.000000000015 6626.5000000000009 33542.000000000007 89557.500000000015 13454.000000000002 1279.5000000000002 67801.500000000015 3718.0000000000005 3026.0000000000005 22676.500000000004 10.500000000000002 9148.0000000000018 14.500000000000002 15.500000000000002 3.5000000000000004 10.500000000000002 6.5000000000000009 3.5000000000000004 12.500000000000002 771.50000000000011 48860.500000000007 10.500000000000002 14.500000000000002 32648.000000000004 6.5000000000000009 66028.000000000015 47307.000000000007 941.50000000000011 1217.0000000000002
decision_type=2 2 2 2 2 2 2 2 2 2 2 2 2 2 2 2 2 2 2 2 2 2 2 2 2 2 2 2 2 2
left_child=2 3 6 17 7 8 13 -3 -4 20 -7 -9 -10 -1 15 16 -15 -2 19 -19 28 24 23 -6 -5 26 -23 -27 -8 -30
right_child=1 4 5 21 22 10 9 11 12 -11 -12 -13 -14 14 -16 -17 -18 18 -20 -21 -22 25 -24 -25 -26 27 -28 -29 29 -31
leaf_value=-19.745343682202563 342.93608642578118 809.47800292968725 193.43592033386233 427.06211751302084 1147.2330078124976 182.2821237007777 21.248526428685047 1150.2884277343751 53.11272251842351 35.234319745275108 271.47501163482667 932.05687934027765 103.40943093453684 -17.995083618164031 -13.304047175712533 -19.614648835555368 1965.9548828124975 288.70255940755192 344.39653727213545 557.8088476562499 -0.24646750084313332 567.7077539062501 1172.5810791015624 1589.9492187499982 659.40830078124975 661.59611118861619 668.86966145833333 836.94707031249982 808.95859375000009 36.237868296016352
leaf_weight=2556 10.000000000000002 6.0000000000000009 7.9999999999999991 2.9999999999999991 1.0000000000000009 48 66 1.9999999999999987 58 176 15.999999999999998 9 62 2.0000000000000027 4307 23 1.0000000000000002 3.0000000000000009 5.9999999999999991 10 291 14.999999999999998 11 1 1.9999999999999998 6.9999999999999982 18 3 0.999999999999999 10.999999999999998
leaf_count=2556 10 6 8 3 1 48 66 2 58 176 16 9 62 2 4307 23 1 3 6 10 291 15 11 1 2 7 18 3 1 11
internal_value=0 6861.57 -96.2743 5485.35 10393.8 1256.9 -131.223 9144.68 862.454 160.358 2045.8 9717.35 790.994 -154.291 -128.829 568.78 6433.22 4117.22 4479.25 4957.07 68.7874 6311.93 12027.4 13685.9 5200.01 6441.23 6228.87 7142.01 334.613 1006.31
internal_weight=0 107 7626 77 30 192 7434 17 128 545 64 11 120 6889 4333 26 3 29 19 13 369 48 13 2 5 43 33 10 78 12
internal_count=7733 107 7626 77 30 192 7434 17 128 545 64 11 120 6889 4333 26 3 29 19 13 369 48 13 2 5 43 33 10 78 12
shrinkage=0.1


Tree=23
num_leaves=31
num_cat=0
split_feature=6 8 8 8 4 7 8 8 1 7 4 4 8 1 3 3 4 3 2 6 2 2 1 2 4 1 2 4 3 8
split_gain=4.1432e+09 3.62023e+08 3.53608e+08 6.58513e+07 4.98406e+07 4.19367e+07 4.13461e+07 1.15172e+07 1.00854e+07 9.69438e+06 1.02319e+07 8.62696e+06 8.44371e+06 7.05749e+06 7.93791e+06 6.97603e+06 6.88215e+06 6.79602e+06 5.99249e+06 5.81636e+06 5.59472e+06 5.17133e+06 4.84138e+06 4.79689e+06 6.26639e+06 4.71814e+06 7.89449e+06 7.29354e+06 1.2026e+07 4.35754e+06
threshold=27058.500000000004 71781.000000000015 9148.0000000000018 2200.5000000000005 67794.500000000015 18049.000000000004 53380.500000000007 293.50000000000006 6.5000000000000009 11153.000000000002 5907.0000000000009 5907.0000000000009 5082.0000000000009 10.500000000000002 14.500000000000002 13.500000000000002 32648.000000000004 11.500000000000002 2.5000000000000004 33176.000000000007 3.5000000000000004 2.5000000000000004 6.5000000000000009 3.5000000000000004 941.50000000000011 6.5000000000000009 3.5000000000000004 13526.500000000002 12.500000000000002 63184.500000000007
decision_type=2 2 2 2 2 2 2 2 2 2 2 2 2 2 2 2 2 2 2 2 2 2 2 2 2 2 2 2 2 2
left_child=2 6 3 7 15 9 8 -1 16 11 22 23 20 14 -6 -3 -2 -12 -14 -10 -5 -8 -11 24 -4 -7 27 -27 -29 -23
right_child=1 4 5 12 13 25 21 -9 19 10 17 -13 18 -15 -16 -17 -18 -19 -20 -21 -22 29 -24 -25 -26 26 -28 28 -30 -31
leaf_value=-15.481948330072598 280.01564592633929 662.48430989583301 -79.282391357421602 36.399581477098302 1032.509667968752 202.97119852701826 517.94778442382812 -6.0696687104827527 414.39794379340276 147.26082763671874 257.91354827880861 52.694093181347029 225.92701721191406 1030.9123517717633 1430.9542968749984 834.51712535511342 490.35444335937484 120.51691737704807 51.263915592973888 548.91692871093733 4.9306517556309704 530.36867675781252 337.81367797851556 76.286456909179662 178.74928512573243 259.65962320963536 207.70550130208332 113.01844482421866 500.7359069824218 615.16218359375
leaf_weight=5453 7 3.0000000000000009 1.0000000000000024 114 0.999999999999997 14.999999999999998 11.999999999999998 1707 8.9999999999999982 1.9999999999999987 3.9999999999999991 29 1.9999999999999987 14 1 11 1.9999999999999998 36 110 5.0000000000000009 112 7.9999999999999991 4 10.000000000000002 15.999999999999998 6 9 1 4 25
leaf_count=5453 7 3 1 114 1 15 12 1707 9 2 4 29 2 14 1 11 2 36 110 5 112 8 4 10 16 6 9 1 4 25
internal_value=0 6460.79 -82.9283 -112.018 9354.46 1509.17 5184.17 -132.38 4093.47 1185.07 1525.23 905.661 319.31 10560.1 12317.3 7976.53 3267.58 1342.57 543.829 4624.4 208.044 5741.64 2742.96 1312.43 1635.71 2453.67 2771.63 3339.93 4231.92 5946.06
internal_weight=0 98 7635 7498 30 137 68 7160 23 102 46 56 338 16 2 14 9 40 112 14 226 45 6 27 17 35 20 11 5 33
internal_count=7733 98 7635 7498 30 137 68 7160 23 102 46 56 338 16 2 14 9 40 112 14 226 45 6 27 17 35 20 11 5 33
shrinkage=0.1


Tree=24
num_leaves=31
num_cat=0
split_feature=6 8 8 8 6 8 8 7 8 1 4 7 6 1 2 8 4 4 2 4 6 7 1 6 2 4 2 6 5 3
split_gain=3.35599e+09 2.93239e+08 2.86635e+08 4.70208e+07 4.14276e+07 4.0074e+07 3.34903e+07 9.63355e+06 9.47817e+06 8.16916e+06 7.86432e+06 9.23638e+06 7.7115e+06 6.48876e+06 6.16889e+06 5.92641e+06 5.65152e+06 6.73287e+06 5.98013e+06 5.57454e+06 5.54201e+06 6.3027e+06 1.21859e+07 4.71126e+06 4.18878e+06 4.16662e+06 9.27708e+06 3.96451e+06 4.13784e+06 3.90839e+06
threshold=27058.500000000004 71781.000000000015 8500.0000000000018 2052.0000000000005 89557.500000000015 15861.000000000002 53380.500000000007 22126.500000000004 584.50000000000011 6.5000000000000009 8010.5000000000009 11153.000000000002 67801.500000000015 10.500000000000002 3.5000000000000004 4278.5000000000009 941.50000000000011 11150.500000000002 2.5000000000000004 32648.000000000004 59393.000000000007 67802.500000000015 10.500000000000002 33176.000000000007 2.5000000000000004 2315.0000000000005 2.5000000000000004 14309.500000000002 13924.000000000002 12.500000000000002
decision_type=2 2 2 2 2 2 2 2 2 2 2 2 2 2 2 2 2 2 2 2 2 2 2 2 2 2 2 2 2 2
left_child=2 6 3 8 12 10 9 16 -1 19 11 -4 20 -14 -6 29 -7 -18 -19 -2 -3 -22 -23 -11 -8 -17 -27 -20 -29 -5
right_child=1 4 5 15 14 7 24 -9 -10 23 -12 -13 13 -15 -16 25 17 18 27 -21 21 22 -24 -25 -26 26 -28 28 -30 -31
leaf_value=-13.359286730068474 252.01408342633928 862.84902343749854 91.162629283558246 52.980164863586424 737.65346679687377 -71.354150390625009 466.15300699869795 248.27564842587427 -2.4696510684313893 372.95815294053818 46.143045218785602 191.54214838201349 951.807861328125 752.67593858506928 996.16778564453114 81.680512585847282 220.39227355957033 295.80821533203073 8.5959635416666575 441.31899414062485 380.4175292968747 963.41708984374918 560.33020833333319 494.02523437499985 535.1455640388258 337.81606445312502 31.772276506888183 331.04401855468751 120.48760212489537 10.8674167817799
leaf_weight=6226 7 1.0000000000000007 55 25 1.0000000000000007 0.999999999999999 11.999999999999998 21 917 8.9999999999999982 30 10.999999999999998 1.9999999999999987 9 12 23 14.999999999999998 2.0000000000000027 3.0000000000000027 1.9999999999999998 1 1 3 5.0000000000000009 33 0.999999999999999 104 0.999999999999999 13.999999999999998 186
leaf_count=6226 7 1 55 25 1 1 12 21 917 9 30 11 2 9 12 23 15 2 3 2 1 1 3 5 33 1 104 1 14 186
internal_value=0 5814.71 -74.6355 -102.343 8419.01 1280.31 4665.75 1944.49 -119.613 3684.12 885.958 1078.93 7391.4 7888.82 9762.82 261.552 1630.5 1697.47 1317.64 2940.82 6479.46 6049.65 6611.02 4161.96 5167.48 431.311 346.87 1135.37 1345.25 158.571
internal_weight=0 98 7635 7482 30 153 68 57 7143 23 96 66 17 11 13 339 36 35 20 9 6 5 4 14 45 128 105 18 15 211
internal_count=7733 98 7635 7482 30 153 68 57 7143 23 96 66 17 11 13 339 36 35 20 9 6 5 4 14 45 128 105 18 15 211
shrinkage=0.1


Tree=25
num_leaves=31
num_cat=0
split_feature=8 8 8 5 4 8 8 4 8 4 5 5 1 3 3 2 8 3 3 4 1 4 7 8 4 1 8 4 1 3
split_gain=2.72097e+09 2.75207e+08 1.92997e+08 4.57181e+07 3.37846e+07 3.11818e+07 2.80727e+07 8.44695e+06 7.28678e+06 6.6209e+06 1.01656e+07 4.01713e+07 5.27843e+06 6.4297e+06 5.21635e+06 5.18887e+06 5.03174e+06 4.85322e+06 1.24689e+07 1.01371e+07 5.32252e+06 4.63176e+06 4.55949e+06 1.05839e+07 9.44723e+07 2.12547e+08 4.46795e+06 6.32406e+06 4.1319e+06 5.83229e+06
threshold=29518.500000000004 71781.000000000015 7270.0000000000009 33542.000000000007 67794.500000000015 1101.0000000000002 13454.000000000002 4603.5000000000009 2696.5000000000005 689.50000000000011 941.50000000000011 967.00000000000011 10.500000000000002 14.500000000000002 13.500000000000002 3.5000000000000004 2444.0000000000005 13.500000000000002 12.500000000000002 25051.500000000004 6.5000000000000009 941.50000000000011 14.500000000000002 15.500000000000002 3.5000000000000004 10.500000000000002 19583.000000000004 4603.5000000000009 6.5000000000000009 12.500000000000002
decision_type=2 2 2 2 2 2 2 2 2 2 2 2 2 2 2 2 2 2 2 2 2 2 2 2 2 2 2 2 2 2
left_child=2 3 5 17 14 22 7 -4 9 10 16 -12 13 -6 -3 -10 -7 18 19 -2 -20 -8 -1 24 25 -24 27 -23 -9 -30
right_child=1 4 6 -5 12 8 21 28 15 -11 11 -13 -14 -15 -16 -17 -18 -19 20 -21 -22 26 23 -25 -26 -27 -28 -29 29 -31
leaf_value=-14.888584878485714 166.64461466471354 527.3798014322914 113.85201786586218 460.56564865112307 829.64189453125164 15.150980342012279 -64.218737792968753 23.534382197436166 40.95300193586133 -2.6587123275442357 728.91665039062502 44.325468909740444 835.26853855678007 1188.2420898437488 676.14118652343745 10.508315762929749 240.60793457031252 240.55591362847213 252.8423095703123 391.77894694010411 433.19334309895834 298.66096191406251 -13.311451339721657 -9.9267477134968942 -14.769060151473335 1772.2435546874979 179.75484998149258 115.00828620910646 203.90223795572919 60.090236980357069
leaf_weight=2556 6 3.0000000000000009 28 48 0.999999999999997 98 0.999999999999999 34 110 373 0.999999999999999 6 14 1 11 114 0.999999999999999 9.0000000000000018 2.0000000000000009 3 8.9999999999999982 1.9999999999999987 2.0000000000000027 4165 23 1.0000000000000002 31 30 2.9999999999999991 47
leaf_count=2556 6 3 28 48 1 98 1 34 110 373 1 6 14 1 11 114 1 9 2 3 9 2 2 4165 23 1 31 30 3 47
internal_value=0 5007.77 -70.2637 4006.73 7577.11 -94.7152 964.757 662.855 105.709 36.0871 256.63 1421.24 8569.78 10089.4 6442.64 254.588 174.283 3015.39 3289.81 2416.89 4004.02 1493.09 -115.598 -95.297 540.743 5818.74 1526.98 1264.87 504.3 687.19
internal_weight=0 107 7626 77 30 7450 176 112 703 479 106 7 16 2 14 224 99 29 20 9 11 64 6747 4191 26 3 63 32 84 50
internal_count=7733 107 7626 77 30 7450 176 112 703 479 106 7 16 2 14 224 99 29 20 9 11 64 6747 4191 26 3 63 32 84 50
shrinkage=0.1


Tree=26
num_leaves=31
num_cat=0
split_feature=6 8 8 8 6 7 8 8 7 1 5 6 4 3 4 1 1 4 1 4 5 5 2 5 2 2 6 7 1 8
split_gain=2.20483e+09 1.91817e+08 1.89305e+08 3.51025e+07 2.80194e+07 2.24324e+07 2.16722e+07 7.96418e+06 7.14001e+06 5.91886e+06 5.91147e+06 5.84766e+06 5.76864e+06 8.29096e+06 5.73598e+06 5.55864e+06 5.48995e+06 7.83677e+06 5.37376e+06 4.88574e+06 8.94855e+06 3.25388e+07 4.87325e+06 4.83648e+06 5.90348e+06 4.78014e+06 4.37468e+06 5.25661e+06 9.60261e+06 4.21077e+06
threshold=27058.500000000004 71781.000000000015 9148.0000000000018 2550.5000000000005 89557.500000000015 48860.500000000007 22676.500000000004 991.50000000000011 11153.000000000002 4.5000000000000009 20747.000000000004 67801.500000000015 5907.0000000000009 11.500000000000002 5907.0000000000009 6.5000000000000009 6.5000000000000009 44740.500000000007 10.500000000000002 689.50000000000011 941.50000000000011 967.00000000000011 3.5000000000000004 47307.000000000007 3.5000000000000004 2.5000000000000004 59393.000000000007 67802.500000000015 10.500000000000002 2444.0000000000005
decision_type=2 2 2 2 2 2 2 2 2 2 2 2 2 2 2 2 2 2 2 2 2 2 2 2 2 2 2 2 2 2
left_child=2 5 3 7 11 15 8 -1 14 10 25 26 -10 -14 -4 -2 17 -7 -13 20 29 -22 -6 -18 -25 -8 -3 -28 -29 -9
right_child=1 4 6 -5 22 16 9 19 12 -11 -12 18 13 -15 -16 -17 23 -19 -20 -21 21 -23 -24 24 -26 -27 27 28 -30 -31
leaf_value=-10.500576895982162 238.48312038845484 708.94999999999879 99.569373505203828 26.056824369832043 580.361230468749 270.16461181640625 147.05152587890606 10.613931856155396 209.54981282552086 228.00360071518844 209.65637512207027 789.01296386718752 227.94289794921875 92.206542888217513 35.519692776120941 337.89150227864582 440.40584193638398 419.17525065104167 607.79578993055554 -3.6988855509541523 656.02500000000009 39.892919158935541 810.1295733133951 492.97265624999983 790.54975585937393 -71.583846282958959 274.76164550781226 799.46123046874936 441.64178873697904 216.547119140625
leaf_weight=6660 9 1.0000000000000007 27 288 1.0000000000000007 3.9999999999999991 2.0000000000000018 140 5.9999999999999991 17 4 1.9999999999999987 4.9999999999999991 45 29 15 6.9999999999999982 30 9 402 0.999999999999999 6 12 1.9999999999999998 1.0000000000000002 1.9999999999999998 1 1 3 0.999999999999999
leaf_count=6660 9 1 27 288 1 4 2 140 6 17 4 2 5 45 29 15 7 30 9 402 1 6 12 2 1 2 1 1 3 1
internal_value=0 4713.08 -60.4953 -81.7799 6819.4 3783.82 1104.41 -95.4548 916.496 1946.25 1236.95 5974.29 1168.98 1057.8 664.008 3006.13 4208.01 4016.45 6407.44 20.1987 175.532 1279.12 7924.55 4859.34 5921.65 377.338 5180.16 4798.3 5310.97 120.745
internal_weight=0 98 7635 7498 30 68 137 7210 112 25 8 17 56 50 56 24 44 34 11 550 148 7 13 10 3 4 6 5 4 141
internal_count=7733 98 7635 7498 30 68 137 7210 112 25 8 17 56 50 56 24 44 34 11 550 148 7 13 10 3 4 6 5 4 141
shrinkage=0.1


Tree=27
num_leaves=31
num_cat=0
split_feature=6 8 8 8 4 8 7 4 8 6 4 3 3 4 8 1 5 4 2 4 1 4 8 4 1 3 5 2 3 5
split_gain=1.78591e+09 1.55372e+08 1.54265e+08 2.42621e+07 2.29138e+07 2.24749e+07 1.81703e+07 7.17768e+06 5.76148e+06 4.99142e+06 4.86399e+06 5.82494e+06 8.3069e+06 7.50262e+06 4.85449e+06 4.79428e+06 4.78829e+06 4.52795e+06 5.6311e+06 5.24374e+06 4.44686e+06 6.34778e+06 4.27811e+06 4.06585e+06 3.9548e+06 5.20806e+06 3.91755e+06 4.78182e+06 4.12795e+06 3.89167e+06
threshold=27058.500000000004 71781.000000000015 7860.0000000000009 15861.000000000002 67794.500000000015 1254.5000000000002 48860.500000000007 4603.5000000000009 4076.0000000000005 8081.5000000000009 32648.000000000004 13.500000000000002 12.500000000000002 25051.500000000004 22676.500000000004 4.5000000000000009 20747.000000000004 11150.500000000002 2.5000000000000004 941.50000000000011 6.5000000000000009 44740.500000000007 49.500000000000007 783.00000000000011 10.500000000000002 14.500000000000002 47307.000000000007 3.5000000000000004 13.500000000000002 17225.000000000004
decision_type=2 2 2 2 2 2 2 2 2 2 2 2 2 2 2 2 2 2 2 2 2 2 2 2 2 2 2 2 2 2
left_child=2 6 5 7 -3 22 10 9 23 -4 11 12 13 -2 17 16 -16 19 -19 -5 21 -8 -1 -7 25 -6 28 -28 -22 -17
right_child=1 4 3 14 24 8 20 -9 -10 -11 -12 -13 -14 -15 15 29 -18 18 -20 -21 26 -23 -24 -25 -26 -27 27 -29 -30 -31
leaf_value=-11.671368548606694 129.1883789062498 520.31666957310256 99.645959303114125 -67.753802490234378 665.66479492187636 24.583998057150072 243.14815063476564 50.199749606977342 29.657596265338363 266.16959228515628 419.86140136718751 188.90878753662111 372.90458984374999 338.38989257812494 33.960456943511943 148.01659284319189 188.69074096679685 308.49838867187555 63.416728642781578 168.74829467773441 329.8611328125001 377.25774088541669 -6.6740854795180908 1.3151213598862672 676.70565708705351 988.40488281249895 443.67539062499986 711.49477539062411 485.03742675781234 245.2338916015625
leaf_weight=3494 4.0000000000000053 14.000000000000002 18.000000000000004 0.999999999999999 0.999999999999997 93 3.9999999999999991 92 128 1.9999999999999987 1.9999999999999987 7.9999999999999991 7 3 4.0000000000000018 7.0000000000000027 4 0.99999999999999711 15 14.999999999999998 3.9999999999999982 30 3361 390 14 1 1.9999999999999998 1.0000000000000002 3 9.9999999999999982
leaf_count=3494 4 14 18 1 1 93 4 92 128 2 2 8 7 3 4 7 4 1 15 15 4 30 3361 390 14 1 2 1 3 10
internal_value=0 4241.77 -54.4458 890.333 6137.46 -75.8317 3405.44 620.031 107.944 1162.98 2705.52 2569.78 2958.75 2188.46 1421.45 1751.62 1113.26 1163.51 787.343 1539.67 3787.21 3614.8 -92.2121 57.9546 6954.97 8270.35 4373.4 5329.49 3963.65 2052.03
internal_weight=0 98 7635 169 30 7466 68 112 611 20 24 22 14 7 57 25 8 32 16 16 44 34 6855 483 16 2 10 3 7 17
internal_count=7733 98 7635 169 30 7466 68 112 611 20 24 22 14 7 57 25 8 32 16 16 44 34 6855 483 16 2 10 3 7 17
shrinkage=0.1


Tree=28
num_leaves=31
num_cat=0
split_feature=6 7 8 8 6 7 8 8 2 1 5 3 2 3 7 4 2 4 1 5 2 1 4 2 1 4 5 2 4 3
split_gain=1.44659e+09 1.26566e+08 1.26022e+08 2.64517e+07 1.74964e+07 1.53514e+07 1.18422e+07 5.92058e+06 5.76215e+06 5.3387e+06 6.93703e+06 6.59323e+06 6.57358e+06 5.6986e+06 5.26891e+06 5.2273e+06 1.00569e+07 9.1559e+06 4.65847e+06 7.14443e+06 4.57431e+06 4.25492e+06 4.21641e+06 4.5395e+06 4.1027e+06 3.90894e+06 7.65999e+06 3.85226e+06 3.57263e+06 4.85453e+06
threshold=27058.500000000004 67802.500000000015 10068.500000000002 2550.5000000000005 89557.500000000015 48860.500000000007 22676.500000000004 183.50000000000003 3.5000000000000004 10.500000000000002 67800.500000000015 14.500000000000002 3.5000000000000004 13.500000000000002 12479.000000000002 66028.000000000015 3.5000000000000004 67794.500000000015 10.500000000000002 47307.000000000007 3.5000000000000004 6.5000000000000009 66028.000000000015 3.5000000000000004 10.500000000000002 16387.000000000004 17225.000000000004 3.5000000000000004 5907.0000000000009 11.500000000000002
decision_type=2 2 2 2 2 2 2 2 2 2 2 2 2 2 2 2 2 2 2 2 2 2 2 2 2 2 2 2 2 2
left_child=2 5 3 7 9 21 8 -1 28 11 12 -3 13 -11 -10 16 -12 -17 22 -20 -21 -2 23 -7 -16 26 -8 -6 -4 -30
right_child=1 4 6 -5 27 18 25 -9 14 10 15 -13 -14 -15 24 17 -18 -19 19 20 -22 -23 -24 -25 -26 -27 -28 -29 29 -31
leaf_value=-9.6613633198621773 189.13870985243054 661.21448567708376 138.0204080682052 22.364479969088972 454.6545410156242 318.4457188197544 134.95180969238274 -3.4553253519668186 26.44426127274831 332.31292724609364 437.48129882812475 364.71872558593702 229.63139648437493 571.03037109374975 156.02118617466516 201.67324218749982 885.96552734374916 551.07086588541654 333.71067504882819 399.30784912109357 613.18432617187477 276.111689453125 361.0481373506434 197.65146789550784 59.688827896118156 116.48943309783937 292.73323974609377 658.9405619303385 156.22353036063052 61.57806078592936
leaf_weight=4988 9 2.9999999999999973 19 304 1.0000000000000007 14.000000000000002 8.0000000000000018 2222 27 1.9999999999999998 0.99999999999999967 1.0000000000000002 1.9999999999999998 1.9999999999999998 7.0000000000000009 1 1 3 5.9999999999999982 1.9999999999999998 1.9999999999999998 15 17 3.9999999999999991 12 11.999999999999998 4.9999999999999991 12 7.0000000000000027 24
leaf_count=4988 9 3 19 304 1 14 8 2222 27 2 1 1 2 2 7 1 1 3 6 2 2 15 17 4 12 12 5 12 7 24
internal_value=0 3817.59 -49.0012 -65.3045 5570.55 3080.85 963.421 -77.4877 803.775 4870.4 4536.9 5870.91 3776.58 4516.72 548.35 5297.22 6617.23 4637.21 3425.31 4027.25 5062.46 2434.97 3253.33 2916.03 951.797 1576.46 1956.37 6432.26 1038.77 829.496
internal_weight=0 98 7635 7514 29 69 121 7210 96 16 12 4 6 4 46 6 2 4 45 10 4 24 35 18 19 25 13 13 50 31
internal_count=7733 98 7635 7514 29 69 121 7210 96 16 12 4 6 4 46 6 2 4 45 10 4 24 35 18 19 25 13 13 50 31
shrinkage=0.1


Tree=29
num_leaves=31
num_cat=0
split_feature=8 7 8 6 7 6 8 1 5 3 2 3 4 2 4 8 1 1 3 4 3 3 4 3 4 8 2 8 4 1
split_gain=1.17305e+09 1.18435e+08 8.68984e+07 2.16476e+07 1.79101e+07 1.41721e+07 9.50586e+06 4.32435e+06 5.61899e+06 5.34052e+06 5.3246e+06 4.61587e+06 4.23411e+06 8.14609e+06 7.41628e+06 3.98123e+06 6.28052e+06 4.18814e+06 5.66405e+06 3.85021e+06 6.79313e+06 3.45905e+06 5.54102e+06 3.75786e+06 3.21206e+06 3.28171e+06 3.12033e+06 2.76024e+06 5.17525e+06 4.12402e+06
threshold=29518.500000000004 67802.500000000015 5082.0000000000009 33176.000000000007 11153.000000000002 89557.500000000015 1070.5000000000002 10.500000000000002 67800.500000000015 14.500000000000002 3.5000000000000004 13.500000000000002 66028.000000000015 3.5000000000000004 67794.500000000015 67751.500000000015 10.500000000000002 6.5000000000000009 13.500000000000002 2211.0000000000005 5.5000000000000009 12.500000000000002 25051.500000000004 13.500000000000002 318.50000000000006 7860.0000000000009 3.5000000000000004 19583.000000000004 9639.5000000000018 4.5000000000000009
decision_type=2 2 2 2 2 2 2 2 2 2 2 2 2 2 2 2 2 2 2 2 2 2 2 2 2 2 2 2 2 2
left_child=2 3 6 21 19 7 -1 9 10 -3 11 -9 13 -10 -14 17 -17 18 -5 24 -21 22 -2 -23 -4 -26 -7 28 29 -6
right_child=1 5 4 15 27 26 -8 8 12 -11 -12 -13 14 -15 -16 16 -18 -19 -20 20 -22 23 -24 -25 25 -27 -28 -29 -30 -31
leaf_value=-7.6577463486306874 88.237371826171824 595.09303385416706 -27.579025268554688 283.63123914930554 14.668967437744127 409.18911132812428 4.9529999375161609 299.08164062499986 393.73315429687477 328.24685058593707 206.66826171874993 513.9272949218747 181.50592041015611 797.36894531249914 495.96378580729152 317.04782714843753 506.49099121093752 322.94192118326828 171.4404022216797 292.13127441406249 30.650118668667684 251.58153211805558 342.4917480468747 153.88930315290179 68.901017107282371 182.4459335327148 593.0465067545573 118.85067795784244 34.897603178024291 125.45648462204707
leaf_weight=6730 6.0000000000000027 2.9999999999999973 1.9999999999999987 18.000000000000004 4.0000000000000027 1.0000000000000007 656 1.9999999999999998 0.99999999999999967 1.0000000000000002 1.9999999999999998 1.9999999999999998 1 1 3 13.999999999999998 1.9999999999999987 14.999999999999998 5.9999999999999991 0.999999999999999 154 8.9999999999999982 1 6.9999999999999991 6.9999999999999982 4 12 31 15.999999999999998 21
leaf_count=6730 6 3 2 18 4 1 656 2 1 1 2 2 1 1 3 14 2 15 6 1 154 9 1 7 7 4 12 31 16 21
internal_value=0 3288.06 -46.1347 2646.56 546.049 5013.49 -65.377 4383.36 4083.21 5283.81 3398.92 4065.04 4767.5 5955.51 4173.49 2987.23 3407.28 2814.91 2555.84 367.213 323.371 1831.9 1245.59 2088.41 889.948 1101.9 5789.04 963.333 793.079 1077.3
internal_weight=0 107 7626 78 240 29 7386 16 12 4 6 4 6 2 4 55 16 39 24 168 155 23 7 16 13 11 13 72 41 25
internal_count=7733 107 7626 78 240 29 7386 16 12 4 6 4 6 2 4 55 16 39 24 168 155 23 7 16 13 11 13 72 41 25
shrinkage=0.1


Tree=30
num_leaves=31
num_cat=0
split_feature=8 7 8 6 8 6 8 1 5 3 2 3 4 2 4 8 1 1 3 4 8 2 3 4 3 4 3 5 5 4
split_gain=9.50168e+08 9.59325e+07 7.03877e+07 1.75345e+07 1.45525e+07 1.14794e+07 7.71165e+06 3.50272e+06 4.55138e+06 4.32582e+06 4.31293e+06 3.73885e+06 3.42963e+06 6.59833e+06 6.00719e+06 3.2248e+06 5.08723e+06 3.39239e+06 4.58788e+06 3.21165e+06 3.67386e+06 2.81164e+06 2.80183e+06 4.48823e+06 3.04387e+06 2.74393e+06 3.41144e+06 3.02135e+06 2.76363e+07 2.75998e+06
threshold=29518.500000000004 67802.500000000015 5082.0000000000009 33176.000000000007 11855.000000000002 89557.500000000015 1101.0000000000002 10.500000000000002 67800.500000000015 14.500000000000002 3.5000000000000004 13.500000000000002 66028.000000000015 3.5000000000000004 67794.500000000015 67751.500000000015 10.500000000000002 6.5000000000000009 13.500000000000002 3914.0000000000005 7270.0000000000009 2.5000000000000004 12.500000000000002 25051.500000000004 13.500000000000002 783.00000000000011 12.500000000000002 941.50000000000011 967.00000000000011 669.50000000000011
decision_type=2 2 2 2 2 2 2 2 2 2 2 2 2 2 2 2 2 2 2 2 2 2 2 2 2 2 2 2 2 2
left_child=2 3 6 22 19 7 -1 9 10 -3 11 -9 13 -10 -14 17 -17 18 -5 20 21 -4 23 -2 -24 26 27 -8 -29 -30
right_child=1 5 4 15 -6 -7 25 8 12 -11 -12 -13 14 -15 -16 16 -18 -19 -20 -21 -22 -23 24 -25 -26 -27 -28 28 29 -31
leaf_value=-6.878338305833906 79.413634618123339 535.58374023437534 152.40468139648439 255.26811184353292 83.968342116475114 521.01326481745787 27.761492605770339 269.17347412109365 354.35983886718731 295.42216796874959 186.00143432617179 462.53457031249985 163.35533447265612 717.63203124999927 446.36739908854156 285.34304199218752 455.84189453125003 290.64772949218752 154.29636433919271 20.611255652461239 94.747275597708565 31.231253706614179 226.42337782118057 308.24257812499974 138.50037754603795 1.0971513544629898 6.8597559228687004 587.81430664062452 -28.564760780334467 98.320488993326805
leaf_weight=6747 6.0000000000000027 2.9999999999999973 1.9999999999999987 18.000000000000004 80 13.000000000000002 34 1.9999999999999998 0.99999999999999967 1.0000000000000002 1.9999999999999998 1.9999999999999998 1 1 3 13.999999999999998 1.9999999999999987 14.999999999999998 5.9999999999999991 99 13.999999999999998 45 8.9999999999999982 1 6.9999999999999991 496 101 1 4 3
leaf_count=6747 6 3 2 18 80 13 34 2 1 1 2 2 1 1 3 14 2 15 6 99 14 45 9 1 7 496 101 1 4 3
internal_value=0 2959.26 -41.5212 2381.9 491.444 4512.14 -58.8393 3945.03 3674.89 4755.43 3059.03 3658.54 4290.75 5359.96 3756.14 2688.51 3066.55 2533.42 2300.25 317.324 497.816 363.876 1648.71 1121.03 1879.57 46.157 168.199 407.716 960.646 258.146
internal_weight=0 107 7626 78 240 29 7386 16 12 4 6 4 6 2 4 55 16 39 24 160 61 47 23 7 16 639 143 42 8 7
internal_count=7733 107 7626 78 240 29 7386 16 12 4 6 4 6 2 4 55 16 39 24 160 61 47 23 7 16 639 143 42 8 7
shrinkage=0.1


Tree=31
num_leaves=31
num_cat=0
split_feature=6 8 6 7 7 8 6 1 3 3 4 3 3 4 1 3 4 7 8 4 1 2 7 5 7 2 6 8 1 1
split_gain=7.70205e+08 6.85471e+07 6.72775e+07 1.23456e+07 9.59192e+06 9.05959e+06 7.15826e+06 5.80323e+06 8.18151e+06 5.04009e+06 3.71531e+06 4.18895e+06 4.92236e+06 3.67365e+06 3.40185e+06 4.19467e+06 3.37781e+06 3.06919e+06 8.71099e+06 7.65225e+07 1.72163e+08 2.52746e+06 2.52066e+06 2.25922e+07 2.91182e+06 2.46764e+06 2.32719e+06 2.21676e+06 2.31482e+06 2.10298e+06
threshold=27058.500000000004 7270.0000000000009 67801.500000000015 14910.000000000002 48860.500000000007 1356.5000000000002 89557.500000000015 4.5000000000000009 12.500000000000002 12.500000000000002 32648.000000000004 13.500000000000002 12.500000000000002 25051.500000000004 6.5000000000000009 13.500000000000002 44740.500000000007 14.500000000000002 15.500000000000002 3.5000000000000004 10.500000000000002 3.5000000000000004 1235.0000000000002 941.50000000000011 1690.5000000000002 2.5000000000000004 1111.5000000000002 71781.000000000015 10.500000000000002 10.500000000000002
decision_type=2 2 2 2 2 2 2 2 2 2 2 2 2 2 2 2 2 2 2 2 2 2 2 2 2 2 2 2 2 2
left_child=1 5 4 7 10 17 27 -3 -9 22 11 12 13 -2 16 -16 -6 -1 19 20 -19 -8 23 25 -24 -7 -26 -4 -29 -10
right_child=2 3 6 -5 14 9 21 8 29 -11 -12 -13 -14 -15 15 -17 -18 18 -20 -21 -22 -23 24 -25 26 -27 -28 28 -30 -31
leaf_value=-8.7663477394689036 76.241926193237191 7.70653523394936 267.12739257812478 99.000678330421451 149.79666900634766 179.54700927734439 316.16887207031255 121.71248006184896 57.402023334037978 3.6445159293849159 307.64643554687501 107.56558494567872 257.5711007254464 222.63048909505201 226.1272471110027 331.89009155273436 248.03561466762 -7.3433668136596557 -4.7509683204902107 -8.6552143262780241 1599.6561523437479 481.64052861531576 -6.5584803127107172 529.03291015624916 189.50810546875002 13.96250894334581 35.193170334572017 478.89086914062545 359.95332438151036 25.37319795562
leaf_weight=2556 4.0000000000000053 38 2.0000000000000009 50 3.9999999999999991 0.99999999999999534 0.999999999999999 14.999999999999998 41 432 1.9999999999999987 7.9999999999999991 7 3 5.9999999999999973 10 28 2.0000000000000027 4360 23 1.0000000000000002 12 21 1.0000000000000007 0.999999999999999 9 43 1.9999999999999973 9 41
leaf_count=2556 4 38 2 50 4 1 1 15 41 432 2 8 7 3 6 10 28 2 4360 23 1 12 21 1 1 9 43 2 9 41
internal_value=0 -35.7551 2785.61 565.533 2287.71 -50.6864 4164.41 408.32 538.09 78.2236 1771.53 1652.9 1982.75 1389.8 2545.8 2922.29 2357.56 -60.1197 -44.0682 533.038 5283.23 4689.12 315.701 758.402 240.783 305.21 387.003 3639.7 3815.78 413.876
internal_weight=0 7635 98 185 72 7450 26 135 97 508 24 22 14 7 48 16 32 6942 4386 26 3 13 76 11 65 10 44 13 11 82
internal_count=7733 7635 98 185 72 7450 26 135 97 508 24 22 14 7 48 16 32 6942 4386 26 3 13 76 11 65 10 44 13 11 82
shrinkage=0.1


Tree=32
num_leaves=31
num_cat=0
split_feature=8 7 8 6 7 6 8 4 6 1 5 2 3 3 4 2 4 1 3 4 8 3 8 6 1 3 1 3 1 5
split_gain=6.24902e+08 6.26351e+07 4.65477e+07 1.11969e+07 9.74797e+06 7.53664e+06 5.41546e+06 2.88115e+06 3.12495e+06 2.58028e+06 3.47906e+06 3.60853e+06 2.99607e+06 2.84721e+06 2.778e+06 5.34465e+06 4.86582e+06 2.43705e+06 2.96308e+06 2.43217e+06 2.42153e+06 3.65702e+06 2.35688e+06 3.99477e+06 2.41996e+06 3.26226e+06 2.3976e+06 2.27273e+06 2.75729e+06 4.36116e+06
threshold=29518.500000000004 67802.500000000015 5082.0000000000009 33176.000000000007 11153.000000000002 89557.500000000015 631.50000000000011 4603.5000000000009 8081.5000000000009 10.500000000000002 67800.500000000015 3.5000000000000004 14.500000000000002 13.500000000000002 66028.000000000015 3.5000000000000004 67794.500000000015 4.5000000000000009 13.500000000000002 16387.000000000004 6626.5000000000009 5.5000000000000009 67751.500000000015 59393.000000000007 6.5000000000000009 13.500000000000002 6.5000000000000009 14.500000000000002 4.5000000000000009 17225.000000000004
decision_type=2 2 2 2 2 2 2 2 2 2 2 2 2 2 2 2 2 2 2 2 2 2 2 2 2 2 2 2 2 2
left_child=2 3 6 19 7 9 -1 8 20 12 11 13 -3 -11 15 -12 -16 -8 -19 -2 -4 -22 24 -24 25 -5 -25 28 -6 -30
right_child=1 5 4 22 27 -7 17 -9 -10 10 14 -13 -14 -15 16 -17 -18 18 -20 -21 21 -23 23 26 -26 -27 -28 -29 29 -31
leaf_value=-5.9125221805153698 240.1187988281246 439.03630371093777 21.85516677612954 206.17042439778643 44.922900136311853 422.02073035606963 -3.3299280205403514 13.045379436016084 215.03457031250002 212.95209960937493 282.92854003906234 132.8091186523437 239.16721191406219 381.68895263671857 111.02446289062492 609.87353515624943 365.73531901041656 13.011326042916687 -1.1776103974009553 124.71065871829079 244.15837402343752 50.488836293342786 382.35683593750036 242.7474815955529 236.08622619628906 121.02661997477215 82.060577392577983 26.520096549987798 81.42665496826173 190.94009208679199
leaf_weight=6279 2.0000000000000027 2.9999999999999973 47 18.000000000000004 18 13.000000000000002 518 80 0.999999999999999 1.9999999999999998 0.99999999999999967 1.9999999999999998 1.0000000000000002 1.9999999999999998 1 1 3 301 288 21 0.999999999999999 39 1.9999999999999973 12.999999999999998 14.999999999999998 5.9999999999999991 1.0000000000000007 9.9999999999999982 40 3.9999999999999991
leaf_count=6279 2 3 47 18 18 13 518 80 1 2 1 2 1 2 1 1 3 301 288 21 1 39 2 13 15 6 1 10 40 4
internal_value=0 2399.87 -33.6725 1933.36 399.738 3654.65 -47.7557 267.802 392.665 3195.13 2963.28 2424.83 3890.69 2973.21 3501.72 4464.01 3020.58 16.7331 60.7344 1347.46 372.462 553.306 2178.37 2501.56 2045.77 1848.84 2312.7 707.589 778.942 913.824
internal_weight=0 107 7626 78 240 29 7386 168 88 16 12 6 4 4 6 2 4 1107 589 23 87 40 55 16 39 24 14 72 62 44
internal_count=7733 107 7626 78 240 29 7386 168 88 16 12 6 4 4 6 2 4 1107 589 23 87 40 55 16 39 24 14 72 62 44
shrinkage=0.1


Tree=33
num_leaves=31
num_cat=0
split_feature=4 6 8 8 7 6 4 4 1 7 4 3 4 3 2 8 4 6 1 1 4 1 3 1 1 5 4 6 4 5
split_gain=5.07324e+08 4.55088e+07 4.36807e+07 7.10961e+06 6.96773e+06 6.59418e+06 4.96545e+06 4.77001e+06 6.18181e+06 3.27662e+06 2.96233e+06 3.08553e+06 3.05046e+06 4.97319e+06 2.93073e+06 2.86305e+06 2.82349e+06 3.86497e+06 3.23677e+06 2.8768e+06 3.13721e+06 2.4972e+06 4.74499e+06 2.4377e+06 2.35115e+06 3.34321e+06 1.98025e+06 4.00806e+06 1.93957e+06 5.47184e+06
threshold=20510.000000000004 67801.500000000015 7860.0000000000009 1989.5000000000002 48860.500000000007 14309.500000000002 5907.0000000000009 76852.500000000015 10.500000000000002 11153.000000000002 32648.000000000004 13.500000000000002 25051.500000000004 11.500000000000002 3.5000000000000004 107.50000000000001 32648.000000000004 47899.500000000007 10.500000000000002 6.5000000000000009 44740.500000000007 4.5000000000000009 11.500000000000002 6.5000000000000009 10.500000000000002 9135.5000000000018 318.50000000000006 4309.5000000000009 16387.000000000004 17225.000000000004
decision_type=2 2 2 2 2 2 2 2 2 2 2 2 2 2 2 2 2 2 2 2 2 2 2 2 2 2 2 2 2 2
left_child=2 4 3 15 10 6 9 -3 -9 26 11 12 13 -2 -5 -1 -6 18 -18 20 -19 -8 -23 -11 25 -24 -4 -28 29 -7
right_child=1 7 5 14 16 28 21 8 -10 23 -12 -13 -14 -15 -16 -17 17 19 -20 -21 -22 22 24 -25 -26 -27 27 -29 -30 -31
leaf_value=-6.3398957837025787 -14.366319274902267 297.9314213344029 -88.005596923828136 19.302163803437999 322.68950195312505 74.272737339564728 -4.2972547919661919 621.89829101562509 362.21022637107149 39.606098175048828 259.02614746093752 81.645672225952154 222.47134521484378 159.96585358513727 0.70549803447155723 -2.231287383063985 192.57468261718756 93.75130920410146 -61.856884765624933 246.98247880202075 201.35150233677456 155.48836669921877 19.378484429253476 174.81969299316404 9.4368158165613814 115.74595101674397 192.65303344726564 47.834440333344219 51.321592125525846 182.55652109781903
leaf_weight=4345 2.0000000000000098 14 0.999999999999999 171 1.9999999999999987 21.000000000000004 27 0.999999999999999 11 1.9999999999999987 1.9999999999999987 7.9999999999999991 4.9999999999999991 8.9999999999999982 168 2782 0.99999999999999867 3.0000000000000027 1 12.999999999999998 28 2.9999999999999991 8.9999999999999982 4 30 5.9999999999999991 1.9999999999999987 43 12.999999999999998 5.9999999999999991
leaf_count=4345 2 14 1 171 2 21 27 1 11 2 2 8 5 9 168 2782 1 3 1 13 28 3 9 4 30 6 2 43 13 6
internal_value=0 2237.78 -29.3171 -40.631 1837.91 476.488 364.968 3375.87 3838.51 602.437 1420.97 1323.53 1577.07 1282.69 100.861 -47.3611 2063.74 2013.17 653.589 2074.97 1909.39 200.323 337.177 1297.48 255.997 579.255 511.779 542.708 830.562 983.358
internal_weight=0 100 7633 7466 74 167 127 26 12 52 26 24 16 11 339 7127 48 46 2 44 31 75 48 6 45 15 46 45 40 27
internal_count=7733 100 7633 7466 74 167 127 26 12 52 26 24 16 11 339 7127 48 46 2 44 31 75 48 6 45 15 46 45 40 27
shrinkage=0.1


Tree=34
num_leaves=31
num_cat=0
split_feature=8 7 8 7 7 4 1 8 4 1 4 6 1 4 1 3 2 1 3 8 7 2 1 5 2 3 4 2 2 1
split_gain=4.11722e+08 4.09639e+07 3.07576e+07 7.00482e+06 6.35051e+06 4.95382e+06 5.00726e+06 3.57862e+06 2.62543e+06 2.52048e+06 2.42719e+06 2.96543e+06 3.76496e+06 2.86011e+06 2.62178e+06 2.40188e+06 4.83585e+06 2.37267e+06 2.40468e+06 3.25466e+06 1.92003e+07 2.37173e+06 2.22879e+06 2.67184e+06 2.92291e+06 2.30624e+06 2.25018e+06 4.32917e+06 3.99197e+06 2.1841e+06
