tree
version=v3
num_class=1
num_tree_per_iteration=1
label_index=0
max_feature_idx=8
objective=regression
feature_names=Outbreak_enc Region_enc Month Week Recovered_Lag_5 Recovered_Lag_4 Recovered_Lag_3 Recovered_Lag_2 Recovered_Lag_1
feature_infos=none [0:11] [1:4] [4:15] [0:76248] [0:76408] [0:76577] [0:76763] [1:76991]
tree_sizes=2896 2878 2877 2927 2916 2877 2934 2916 2962 2865 2917 2966 2916 2862 2909 2846 2851 2851 2819 2857 2856 2805 2812 2878 2900 2816 2844 2760 2867 2847 2860 2850 2863 2809 2834 2780 2825 2790 2819 2792 2879 2888 2850 2902 2875 2876 2842 2894 2909 2881 2863 2881 2859 2842 2835 2857 2875 2857 2815 2775 2845 2900 2787 2930 2897 2887 2848 2860 2790 2898 2860 2850 2826 2852 2924 2805 2878 2932 2843 2832 2978 2958 2860 2827 2794 2900 3025 2876 2821 2914 2883 2896 2867 2939 2957 2895 2890 2890 2981 2862 2824 2869 2919 2925 2871 2919 2960 2877 2870

Tree=0
num_leaves=31
num_cat=0
split_feature=7 8 4 7 8 4 4 8 7 8 8 4 4 8 4 8 8 8 8 8 8 8 4 4 8 8 3 8 8 4
split_gain=1.19331e+11 1.3769e+10 6.03769e+09 1.31922e+09 1.26694e+09 5.68845e+08 3.89219e+08 3.15821e+08 1.70068e+08 1.28144e+08 9.24914e+07 6.09521e+07 6.00935e+07 5.20301e+07 4.33653e+07 3.77496e+07 2.87846e+07 1.82401e+07 1.3346e+07 1.33255e+07 9.55297e+06 8.18197e+06 7.77752e+06 7.70618e+06 7.07638e+06 6.7496e+06 5.76487e+06 5.7071e+06 5.46198e+06 5.24232e+06
threshold=26571.500000000004 7228.0000000000009 47382.500000000007 15914.500000000002 1894.5000000000002 62839.000000000007 28851.500000000004 11982.000000000002 21718.000000000004 4484.0000000000009 440.50000000000006 57106.500000000007 36088.500000000007 33558.500000000007 71453.500000000015 14636.000000000002 8957.0000000000018 1035.0000000000002 5715.5000000000009 2551.0000000000005 131.50000000000003 15840.500000000002 65962.500000000015 53064.000000000007 26571.500000000004 37185.500000000007 13.500000000000002 3772.5000000000005 13265.000000000002 42044.500000000007
decision_type=2 2 2 2 2 2 2 2 2 2 2 2 2 2 2 2 2 2 2 2 2 2 2 2 2 2 2 2 2 2
left_child=1 4 6 7 10 11 13 16 -5 19 20 23 -8 -2 22 28 -3 -12 -11 -6 -1 -17 -7 -4 -10 -15 -16 -21 -9 -14
right_child=2 3 5 8 9 14 12 15 24 18 17 -13 29 25 26 21 -18 -19 -20 27 -22 -23 -24 -25 -26 -27 -28 -29 -30 -31
leaf_value=1414.2773541988936 4858.4043156048301 2320.3209334433704 7353.520982271486 3574.1084822714965 1678.6478781173494 8376.7705916464965 6022.1709822714938 2821.5376489381624 4169.8043156048288 1985.6709456504022 1489.7999390137136 8088.6041853964944 6635.4709822714922 5279.4209822714947 8888.9455916464976 3071.6043156048299 2565.2043115358192 1586.748732399783 2129.387600110038 1775.1584578574334 1438.9096861458524 3244.810982271496 8682.2705916464947 7631.1209822714936 4387.0043156048287 5539.2209822714949 9050.0105916464945 1889.5209578574336 2972.395982271496 6959.2709822714905
leaf_weight=1751 2.9999999999999982 8.0000000000000018 2.0000000000000027 7.9999999999999982 12.999999999999998 0.999999999999999 1.9999999999999998 6.0000000000000018 3 14.000000000000002 69 3 0.99999999999999967 1.9999999999999998 3.9999999999999982 5.9999999999999982 11.999999999999998 27 11.999999999999998 16.000000000000004 173 5 5 1.9999999999999998 3 1.9999999999999998 5 5.9999999999999991 4 1
leaf_count=1751 3 8 2 8 13 1 2 6 3 14 69 3 1 2 4 6 12 27 12 16 173 5 5 2 3 2 5 6 4 1
internal_value=0 -921.941 59674.8 14695.3 -1334.7 69239.3 40545.7 11833.5 23076.5 3155.37 -1470.29 61795.7 48414.7 36049.1 72713 14542 8989.5 -512.343 4837.01 1906.16 -1518.09 15820.3 70630.5 59240.2 27101 38410.2 74101.3 2380.47 13135.8 52290.7
internal_weight=0 2136 33 55 2081 22 11 41 14 61 2020 7 4 7 15 21 20 96 26 35 1924 11 6 4 6 4 9 22 10 2
internal_count=2169 2136 33 55 2081 22 11 41 14 61 2020 7 4 7 15 21 20 96 26 35 1924 11 6 4 6 4 9 22 10 2
shrinkage=1


Tree=1
num_leaves=31
num_cat=0
split_feature=7 8 4 8 7 4 4 8 7 8 8 4 4 8 4 8 8 8 8 8 8 4 8 4 8 8 5 4 4 8
split_gain=9.66582e+10 1.11558e+10 4.89053e+09 1.11171e+09 1.00599e+09 4.60765e+08 3.15267e+08 2.20377e+08 1.37755e+08 1.11107e+08 8.07614e+07 4.93712e+07 4.86757e+07 4.21444e+07 3.55151e+07 3.05772e+07 1.71067e+07 1.53369e+07 1.30873e+07 1.2595e+07 7.99555e+06 7.41159e+06 6.6274e+06 6.242e+06 5.73187e+06 5.46718e+06 5.05726e+06 1.21666e+07 4.9777e+06 4.42421e+06
threshold=26571.500000000004 7799.5000000000009 47382.500000000007 2010.0000000000002 15914.500000000002 62839.000000000007 28851.500000000004 11982.000000000002 21718.000000000004 4700.5000000000009 440.50000000000006 57106.500000000007 36088.500000000007 33558.500000000007 72000.500000000015 14636.000000000002 1035.0000000000002 8957.0000000000018 3618.5000000000005 6198.5000000000009 76.500000000000014 65962.500000000015 15840.500000000002 53064.000000000007 26571.500000000004 37185.500000000007 15712.500000000002 12742.500000000002 22928.500000000004 13265.000000000002
decision_type=2 2 2 2 2 2 2 2 2 2 2 2 2 2 2 2 2 2 2 2 2 2 2 2 2 2 2 2 2 2
left_child=1 3 6 10 7 11 13 17 26 18 20 23 -8 28 21 29 -12 -3 -5 -11 -1 -7 -17 -4 -10 -15 27 -6 -2 -9
right_child=2 4 5 9 8 14 12 15 24 19 16 -13 -14 25 -16 22 -18 -19 -20 -21 -22 -23 -24 -25 -26 -27 -28 -29 -30 -31
leaf_value=-139.42051215277777 2870.0095703125012 701.40125325520796 5206.6980468749907 146.18262133789062 1901.7223958333341 6127.623046875 4008.4828124999985 1127.9128580729164 2341.3528645833326 402.73999023437494 -70.65100723487744 5868.2727864583321 4706.162890624998 3340.0078124999986 6688.1015625 1352.9728841145836 20.880994501196106 897.21292317708344 281.54215332031248 545.80256835937496 -121.74661335192229 6421.6784505208325 1508.8589453124998 5456.537890624998 2536.8329427083327 3573.8277343749987 1942.9390624999994 1616.9224934895828 3143.2595703124966 1263.6854492187497
leaf_weight=1620 1.9999999999999982 6.0000000000000027 2.0000000000000027 25 2.9999999999999982 0.999999999999999 1.9999999999999998 6.0000000000000018 3 16.000000000000004 69 3 1.9999999999999998 1.9999999999999998 7.9999999999999991 5.9999999999999982 29 11.999999999999998 9.9999999999999982 9.9999999999999982 304 6 5 1.9999999999999998 3 1.9999999999999998 1.9999999999999998 3 1 4
leaf_count=1620 2 6 2 25 3 1 2 6 3 16 69 3 2 2 8 6 29 12 10 10 304 6 5 2 3 2 2 3 1 4
internal_value=0 -829.747 53707.3 -1194.29 13497.3 62315.4 36491.1 10887 20768.8 3011.78 -1321.17 55616.1 43573.2 32444.2 65441.7 13087.8 -435.65 8319.42 1848.57 4577.64 -1366.28 63796.7 14238.3 53316.2 24390.9 34569.2 18052.3 17593.2 29610.9 11822.2
internal_weight=0 2136 33 2083 53 22 11 39 14 61 2022 7 4 7 15 21 98 18 35 26 1924 7 11 4 6 4 8 6 3 10
internal_count=2169 2136 33 2083 53 22 11 39 14 61 2022 7 4 7 15 21 98 18 35 26 1924 7 11 4 6 4 8 6 3 10
shrinkage=0.1


Tree=2
num_leaves=31
num_cat=0
split_feature=7 8 4 7 8 4 4 8 7 8 8 4 4 8 4 8 8 8 8 8 8 4 8 4 4 4 6 8 4 4
split_gain=7.82931e+10 9.0368e+09 3.96133e+09 8.65007e+08 8.31356e+08 3.7322e+08 2.55366e+08 2.06683e+08 1.11582e+08 9.27405e+07 5.38517e+07 3.99906e+07 3.94273e+07 3.4137e+07 2.92588e+07 2.47675e+07 1.86139e+07 1.49003e+07 1.01331e+07 6.50417e+06 6.06208e+06 6.04506e+06 5.36819e+06 5.10713e+06 5.05602e+06 4.77638e+06 4.40754e+06 6.45766e+06 4.36988e+06 4.24628e+06
threshold=26571.500000000004 7228.0000000000009 47382.500000000007 15914.500000000002 1742.0000000000002 62839.000000000007 28851.500000000004 11982.000000000002 21718.000000000004 3772.5000000000005 425.50000000000006 57106.500000000007 36088.500000000007 33558.500000000007 70794.000000000015 14636.000000000002 8957.0000000000018 5620.0000000000009 891.00000000000011 156.50000000000003 2551.0000000000005 72939.000000000015 15840.500000000002 14682.500000000002 53064.000000000007 26320.000000000004 6880.0000000000009 10703.500000000002 731.50000000000011 42044.500000000007
decision_type=2 2 2 2 2 2 2 2 2 2 2 2 2 2 2 2 2 2 2 2 2 2 2 2 2 2 2 2 2 2
left_child=1 4 6 7 10 11 13 16 -5 20 19 24 -8 -2 -7 -9 -3 -11 -12 -1 -6 -16 -17 -10 -4 -15 -18 -28 -22 -14
right_child=2 3 5 8 9 14 12 15 23 17 18 -13 29 25 21 22 26 -19 -20 -21 28 -23 -24 -25 -26 -27 27 -29 -30 -31
leaf_value=-124.64024363120041 2664.9835937500011 610.56774902343727 4686.0281249999925 1624.7040283203128 82.811985778808605 5692.2361718749999 3607.6347656249986 1063.9997460937498 1988.8843749999983 306.91158447265627 -68.186169063683721 5281.4454427083328 4089.8367187499971 3048.1363932291661 5893.2833007812515 1217.6756184895837 943.00830078125 444.46533900669647 1.9066431903839112 -102.03017720688869 372.26589355468752 6051.9897786458323 1357.9730078124999 2236.4434765624997 4910.8839843749984 3300.4953124999975 714.77496744791688 878.80830078124984 156.36776611328128 4381.2566406249953
leaf_weight=1784 2.9999999999999982 8.0000000000000018 2.0000000000000027 7.9999999999999982 15.999999999999998 4.9999999999999991 1.9999999999999998 10.000000000000002 1 18 66 3 0.99999999999999967 3 3.9999999999999982 5.9999999999999982 1.9999999999999987 13.999999999999998 30 137 0.999999999999999 6 5 5 1.9999999999999998 1 5.9999999999999982 4 14.999999999999998 1
leaf_count=1784 3 8 2 8 16 5 2 10 1 18 66 3 1 3 4 6 2 14 30 137 1 6 5 5 2 1 6 4 15 1
internal_value=0 -746.773 48336.6 11905.3 -1081.16 56083.8 32842 9587.89 18692 2467.14 -1193.75 50054.5 39215.9 29199.8 58897.5 11779 7287.22 3670.91 -462.822 -1230.28 1263.37 59885.1 12814.5 21951.8 47984.6 31112.3 8074.92 7803.88 1698.61 42355.5
internal_weight=0 2136 33 55 2081 22 11 41 14 64 2017 7 4 7 15 21 20 32 96 1921 32 10 11 6 4 4 12 10 16 2
internal_count=2169 2136 33 55 2081 22 11 41 14 64 2017 7 4 7 15 21 20 32 96 1921 32 10 11 6 4 4 12 10 16 2
shrinkage=0.1


Tree=3
num_leaves=31
num_cat=0
split_feature=7 8 4 8 8 4 4 8 7 8 8 5 4 4 8 8 4 8 8 6 8 8 4 8 4 8 1 4 4 6
split_gain=6.34174e+10 7.32228e+09 3.20868e+09 7.304e+08 6.59524e+08 3.02308e+08 2.08569e+08 1.55318e+08 7.72912e+07 6.55669e+07 6.09192e+07 4.23036e+07 3.23924e+07 2.36996e+07 2.36515e+07 1.31089e+07 1.26394e+07 9.80167e+06 8.9375e+06 8.14128e+06 7.54815e+06 6.63033e+06 6.22232e+06 6.00794e+06 4.89651e+06 4.21749e+06 4.19286e+06 4.09537e+06 3.93276e+06 3.57011e+06
threshold=26571.500000000004 7799.5000000000009 47382.500000000007 2188.0000000000005 18106.500000000004 62839.000000000007 31475.500000000004 11982.000000000002 21718.000000000004 634.50000000000011 4700.5000000000009 25866.500000000004 57106.500000000007 70794.000000000015 14055.000000000002 213.00000000000003 36088.500000000007 8957.0000000000018 6439.0000000000009 25866.500000000004 15840.500000000002 1535.0000000000002 26320.000000000004 3618.5000000000005 72939.000000000015 26571.500000000004 10.500000000000002 53064.000000000007 65962.500000000015 6880.0000000000009
decision_type=2 2 2 2 2 2 2 2 2 2 2 2 2 2 2 2 2 2 2 2 2 2 2 2 2 2 2 2 2 2
left_child=1 3 6 9 7 12 11 17 -6 15 23 19 27 28 -9 -1 -8 -3 26 -2 -16 -11 -13 -5 -15 -10 -12 -4 -7 -19
right_child=2 4 5 10 8 13 16 14 25 21 18 22 -14 24 20 -17 -18 29 -20 -21 -22 -23 -24 -25 -26 -27 -28 -29 -30 -31
leaf_value=-111.88606672281767 2316.5101562500013 570.20432942708305 4217.4253906249933 130.77661605834959 1486.5488560267859 4945.6371093750004 3376.5710937499957 933.48920898437473 1891.8251953124993 -22.115508734552485 295.90525790127828 2794.3624999999993 4753.3009114583319 5303.9549804687522 1085.4415039062503 -80.648023302801732 3811.9919921874989 848.70744628906255 468.14772251674106 2601.8393554687491 1233.8175292968749 53.017800454532406 3043.8083007812488 225.70765869140624 5446.7909505208336 2059.505208333333 391.05132141113273 4419.795703124998 5167.3566406249993 702.34943359375006
leaf_weight=1827 1.999999999999998 6.0000000000000027 2.0000000000000027 20.000000000000004 6.9999999999999982 0.999999999999999 1.0000000000000002 8.0000000000000018 3 38 11.000000000000004 1.9999999999999998 3 3.9999999999999982 7.9999999999999982 145 1.9999999999999998 1.9999999999999987 6.9999999999999991 1.9999999999999998 6 17 1.9999999999999998 9.9999999999999982 6 3 8 1.9999999999999998 4 9.9999999999999982
leaf_count=1827 2 6 2 20 7 1 1 8 3 38 11 2 3 4 8 145 2 2 7 2 6 17 2 10 6 3 8 2 4 10
internal_value=0 -672.095 43502.9 -967.431 10935.2 50475.4 29557.8 8924.12 17122.9 -1065.86 2595.18 26891.3 45049.1 53007.8 10706.5 -1095.89 36668.5 6745.63 3715.54 24591.7 11490.3 11.0751 29190.9 1624.2 53896.6 19756.7 3359.67 43186.1 51230.1 7267.42
internal_weight=0 2136 33 2083 53 22 11 40 13 2027 56 8 7 15 22 1972 3 18 26 4 14 55 4 30 10 6 19 4 5 12
internal_count=2169 2136 33 2083 53 22 11 40 13 2027 56 8 7 15 22 1972 3 18 26 4 14 55 4 30 10 6 19 4 5 12
shrinkage=0.1


Tree=4
num_leaves=31
num_cat=0
split_feature=7 8 4 8 7 4 4 8 7 8 8 5 4 4 8 8 4 8 8 6 7 4 4 8 5 4 4 8 4 4
split_gain=5.13681e+10 5.93105e+09 2.59903e+09 5.92012e+08 5.35035e+08 2.44869e+08 1.68941e+08 1.16513e+08 7.29785e+07 6.27837e+07 4.05358e+07 3.42659e+07 2.62379e+07 1.93541e+07 1.67013e+07 1.20473e+07 1.02781e+07 7.93935e+06 7.23938e+06 6.59443e+06 5.84638e+06 5.06187e+06 5.04008e+06 4.57193e+06 3.89022e+06 9.21784e+06 3.77162e+06 3.55293e+06 3.77382e+06 3.39926e+06
threshold=26571.500000000004 7799.5000000000009 47382.500000000007 2444.5000000000005 15914.500000000002 62839.000000000007 31475.500000000004 11982.000000000002 21718.000000000004 702.50000000000011 4700.5000000000009 25866.500000000004 57106.500000000007 72000.500000000015 14055.000000000002 254.50000000000003 42044.500000000007 8957.0000000000018 6439.0000000000009 25866.500000000004 1437.5000000000002 68258.000000000015 26320.000000000004 15840.500000000002 15712.500000000002 12742.500000000002 14682.500000000002 3772.5000000000005 731.50000000000011 36088.500000000007
decision_type=2 2 2 2 2 2 2 2 2 2 2 2 2 2 2 2 2 2 2 2 2 2 2 2 2 2 2 2 2 2
left_child=1 3 6 9 7 12 11 17 24 15 27 19 -4 21 -9 -1 29 -3 -12 -2 -11 -7 -13 -16 25 -6 -10 28 -5 -8
right_child=2 4 5 10 8 13 16 14 26 20 18 22 -14 -15 23 -17 -18 -19 -20 -21 -22 -23 -24 -25 -26 -27 -28 -29 -30 -31
leaf_value=-100.45170525996643 2084.8591796875012 513.18391927083303 3886.7494140624967 321.96164550781026 1400.4249348958338 4514.8095703125 3038.9140624999982 840.14028320312468 1600.8132812499987 -10.029986100905651 302.37008120888157 2514.9262695312491 4277.9708333333319 4876.9516113281252 976.89736328125025 -67.631293929925491 3561.931640624995 654.06820475260429 421.33294503348219 2341.6554687499988 62.317009919881826 4703.0464062499987 2739.4275390624989 1098.7939062499997 1437.5199218749995 1152.5292968749998 1813.5558593749997 213.26551361083986 122.06646297679229 3299.6539062499965
leaf_weight=1859 1.999999999999998 6.0000000000000027 4.0000000000000027 1.000000000000006 2.9999999999999982 1.9999999999999987 0.99999999999999967 8.0000000000000018 1 37 19.000000000000004 1.9999999999999998 3 7.9999999999999991 7.9999999999999982 119 1.0000000000000002 11.999999999999998 6.9999999999999991 1.9999999999999998 15.999999999999998 5 1.9999999999999998 5 1.9999999999999998 3 5 7.9999999999999991 17 1
leaf_count=1859 2 6 4 1 3 2 1 8 1 37 19 2 3 8 8 119 1 12 7 2 16 5 2 5 2 3 5 8 17 1
internal_value=0 -604.886 39152.6 -870.688 9841.64 45427.9 26602 7938 15144.6 -955.992 2461.07 24202.2 40544.2 47707 9538.22 -984.772 33001.7 6071.07 3343.99 22132.6 118.106 46492.6 26271.8 10237.8 13167.4 12764.8 17781 1578.16 1331.72 31692.8
internal_weight=0 2136 33 2083 53 22 11 39 14 2031 52 8 7 15 21 1978 3 18 26 4 53 7 4 13 8 6 6 26 18 2
internal_count=2169 2136 33 2083 53 22 11 39 14 2031 52 8 7 15 21 1978 3 18 26 4 53 7 4 13 8 6 6 26 18 2
shrinkage=0.1


Tree=5
num_leaves=31
num_cat=0
split_feature=7 8 4 8 7 3 4 8 7 8 8 4 4 8 4 8 8 8 8 4 8 4 8 5 4 8 8 6 4 4
split_gain=4.16082e+10 4.80415e+09 2.10521e+09 4.79839e+08 4.33379e+08 1.98472e+08 1.37755e+08 9.46474e+07 5.91126e+07 4.30443e+07 3.98038e+07 2.45223e+07 2.03201e+07 1.82404e+07 1.37219e+07 1.04389e+07 9.57281e+06 8.83502e+06 5.92438e+06 4.66335e+06 4.485e+06 4.15893e+06 4.01997e+06 3.15108e+06 7.46645e+06 3.10265e+06 2.9963e+06 5.45922e+06 2.78599e+06 2.68863e+06
threshold=26571.500000000004 7799.5000000000009 47382.500000000007 2188.0000000000005 15914.500000000002 11.500000000000002 28851.500000000004 12387.500000000002 21718.000000000004 634.50000000000011 4700.5000000000009 70041.500000000015 36088.500000000007 33558.500000000007 54683.000000000007 10703.500000000002 14636.000000000002 159.50000000000003 6198.5000000000009 73861.000000000015 1535.0000000000002 65962.500000000015 3089.0000000000005 15712.500000000002 12742.500000000002 26571.500000000004 8957.0000000000018 6880.0000000000009 42044.500000000007 9437.5000000000018
decision_type=2 2 2 2 2 2 2 2 2 2 2 2 2 2 2 2 2 2 2 2 2 2 2 2 2 2 2 2 2 2
left_child=1 3 6 9 7 14 13 15 23 17 22 21 -8 -2 -4 26 -9 -1 -12 -13 -11 -7 -5 24 -6 -10 -3 -28 -14 -18
right_child=2 4 5 10 8 11 12 16 25 20 18 19 28 -15 -16 -17 29 -19 -20 -21 -22 -23 -24 -25 -26 -27 27 -29 -30 -31
leaf_value=-90.926783978185256 1940.2774088541673 461.86551106770804 3446.8022135416631 97.669493007659895 1260.3824544270838 3977.1164062500002 2636.9351562499992 791.01775512695281 1528.3785807291663 -18.181851341849878 263.22105407714838 4306.6880580357147 2969.6882812499985 2266.4708007812496 3749.2574218749987 672.93780924479177 988.94109375000028 -67.970100349220075 361.33890136718753 4442.0406249999996 43.61217281117159 4163.2822916666655 171.04446062360492 1293.7679687499995 1037.2763671874998 1672.1991536458329 698.42988281249973 507.65568033854163 3205.7386718749967 889.65208333333328
leaf_weight=1787 2.9999999999999982 6.0000000000000027 3.0000000000000027 16.000000000000004 2.9999999999999982 1.9999999999999987 1.9999999999999998 8.0000000000000018 3 38 16.000000000000004 6.9999999999999982 0.99999999999999967 4 3 5.9999999999999991 4.9999999999999982 185 9.9999999999999982 4 17 3 13.999999999999998 1.9999999999999998 3 3 1.9999999999999998 6 1 6
leaf_count=1787 3 6 3 16 3 2 2 8 3 38 16 7 1 4 3 6 5 185 10 4 17 3 14 2 3 3 2 6 1 6
internal_value=0 -544.397 35237.3 -783.619 8857.48 40885.1 23941.8 7144.2 13630.2 -863.395 2103.98 42724.4 28623.2 21266.7 35980.3 5625.81 8742.51 -887.731 3009.59 43559.1 9.1812 40888.2 1319.11 11850.6 11488.3 16002.9 5152.85 5553.49 30877.1 9347.83
internal_weight=0 2136 33 2083 53 22 11 39 14 2027 56 16 4 7 6 20 19 1972 26 11 55 5 30 8 6 6 14 8 2 11
internal_count=2169 2136 33 2083 53 22 11 39 14 2027 56 16 4 7 6 20 19 1972 26 11 55 5 30 8 6 6 14 8 2 11
shrinkage=0.1


Tree=6
num_leaves=31
num_cat=0
split_feature=7 8 4 7 8 4 4 8 7 7 8 5 4 4 8 8 4 8 6 8 8 8 4 8 4 4 4 4 4 5
split_gain=3.37026e+10 3.89243e+09 1.70522e+09 3.72494e+08 3.58991e+08 1.6092e+08 1.12245e+08 8.88273e+07 4.78812e+07 4.24423e+07 2.31436e+07 2.29573e+07 1.77545e+07 1.31931e+07 1.14476e+07 7.72491e+06 6.53712e+06 6.34537e+06 4.6142e+06 4.14749e+06 4.07961e+06 3.87321e+06 3.36825e+06 3.24864e+06 3.08278e+06 2.99884e+06 2.88541e+06 2.78584e+06 2.77363e+06 2.74008e+06
threshold=26571.500000000004 7228.0000000000009 47382.500000000007 15914.500000000002 1682.5000000000002 62839.000000000007 31475.500000000004 11982.000000000002 21718.000000000004 3267.5000000000005 377.50000000000006 25866.500000000004 57106.500000000007 71453.500000000015 13265.000000000002 8957.0000000000018 42044.500000000007 5715.5000000000009 25866.500000000004 15840.500000000002 891.00000000000011 2551.0000000000005 26320.000000000004 65.500000000000014 51097.500000000007 4994.0000000000009 3321.5000000000005 14682.500000000002 731.50000000000011 2167.5000000000005
decision_type=2 2 2 2 2 2 2 2 2 2 2 2 2 2 2 2 2 2 2 2 2 2 2 2 2 2 2 2 2 2
left_child=1 4 6 7 10 12 11 15 -5 21 23 18 24 -7 -9 -3 -8 29 -2 -16 -12 -6 -13 -1 -4 -19 -17 -10 -23 -11
right_child=2 3 5 8 9 13 16 14 27 17 20 22 -14 -15 19 26 -18 25 -20 -21 -22 28 -24 -25 -26 -27 -28 -29 -30 -31
leaf_value=-82.890625395777874 1682.3455566406258 402.34646606445295 2993.7775390624897 1066.5576416015626 52.546959336598718 3749.5539062500002 2572.024316406249 656.19290364583298 1287.894140624999 281.83896484374952 -44.731983845661851 2036.7865234374995 3467.6528645833323 3940.9889322916665 782.44625976562509 366.57343750000001 2885.164648437496 338.07246704101567 1897.1524414062494 893.99203125000008 -0.23444854872567311 279.99853515624903 2220.3145507812492 -72.05835163252695 3196.5180338541659 232.02691040039059 543.99169034090914 1470.7331249999997 108.6279853372013 187.99124058314734
leaf_weight=1573 1.999999999999998 8.0000000000000018 1.0000000000000024 7.9999999999999982 18 5.9999999999999991 1.9999999999999998 6.0000000000000027 1 4.0000000000000062 78 1.9999999999999998 3 8.9999999999999982 9.9999999999999982 0.999999999999999 1.0000000000000002 7.9999999999999982 1.9999999999999998 4.9999999999999991 28 1.0000000000000024 1.9999999999999998 336 3 4 10.999999999999998 5 17 13.999999999999998
leaf_count=1573 2 8 1 8 18 6 2 6 1 4 78 2 3 9 10 1 1 8 2 5 28 1 2 336 3 4 11 5 17 14
internal_value=0 -489.958 31713.6 7813.61 -709.417 36796.6 21547.6 6292.89 12267.2 1585.52 -784.587 19591.5 32837.6 38644.1 7729.32 4784.63 26764 2463.97 17897.5 8196.28 -329.779 853.478 21285.5 -809.841 31458.3 3027.24 5292.07 14402.6 1181.49 2088.46
internal_weight=0 2136 33 55 2081 22 11 41 14 66 2015 8 7 15 21 20 3 30 4 15 106 36 4 1909 4 12 12 6 18 18
internal_count=2169 2136 33 55 2081 22 11 41 14 66 2015 8 7 15 21 20 3 30 4 15 106 36 4 1909 4 12 12 6 18 18
shrinkage=0.1


Tree=7
num_leaves=31
num_cat=0
split_feature=7 8 4 8 8 3 4 8 8 7 8 3 4 6 8 4 8 8 4 1 8 7 7 8 8 8 8 4 4 4
split_gain=2.72991e+10 3.15325e+09 1.38123e+09 3.14948e+08 2.84654e+08 1.31194e+08 9.1036e+07 6.81695e+07 3.3547e+07 3.30072e+07 2.16343e+07 1.65587e+07 1.38725e+07 1.20803e+07 9.90014e+06 9.17924e+06 7.8459e+06 5.93155e+06 4.41492e+06 4.22031e+06 3.3319e+06 2.86999e+06 2.43448e+06 2.42253e+06 2.3404e+06 2.28206e+06 2.11728e+06 2.57641e+06 1.96009e+06 4.65198e+06
threshold=26571.500000000004 7799.5000000000009 47382.500000000007 2444.5000000000005 18106.500000000004 11.500000000000002 28851.500000000004 12501.500000000002 810.00000000000011 21718.000000000004 4700.5000000000009 12.500000000000002 36088.500000000007 25866.500000000004 10703.500000000002 54683.000000000007 326.50000000000006 15840.500000000002 72939.000000000015 6.5000000000000009 37185.500000000007 1742.0000000000002 5487.5000000000009 6701.5000000000009 55.500000000000007 26571.500000000004 3772.5000000000005 731.50000000000011 3321.5000000000005 3762.0000000000005
decision_type=2 2 2 2 2 2 2 2 2 2 2 2 2 2 2 2 2 2 2 2 2 2 2 2 2 2 2 2 2 2
left_child=1 3 6 8 7 15 13 14 16 -6 26 -7 -8 -2 28 -4 24 -9 -13 23 -15 -10 -21 -12 -1 -11 27 -5 -3 -30
right_child=2 4 5 10 9 11 12 17 21 25 19 18 -14 20 -16 -17 -18 -19 -20 22 -22 -23 -24 -25 -26 -27 -28 -29 29 -31
leaf_value=-74.787880417604399 1514.1110351562509 345.04602864583296 2789.2282552083302 251.99868164062323 976.60095563616096 3285.0319335937502 2133.6247070312488 689.22152506510395 4.3494788588547122 1234.5619791666663 189.75406494140626 3459.3141927083338 2506.0827148437493 1738.254427083333 556.14633789062498 3036.6042968749994 -42.487352405894889 810.99541015625005 3580.625325520833 242.51213785807292 1904.8852539062493 78.398896280924475 332.59506429036458 308.62976074218727 -66.002682784993922 1357.9058919270828 157.83841857910159 86.833298627068018 574.187744140625 405.57947591145836
leaf_weight=1517 1.999999999999998 3.0000000000000027 3.0000000000000027 1.000000000000006 6.9999999999999982 3.9999999999999991 1.9999999999999998 12.000000000000002 41 3 11.999999999999998 5.9999999999999982 1.9999999999999998 3 7.9999999999999991 3 88 5.9999999999999991 6 6 1.9999999999999998 5.9999999999999991 6 2.0000000000000009 379 3 7.9999999999999991 17 1.9999999999999987 8.9999999999999982
leaf_count=1517 2 3 3 1 7 4 2 12 41 3 12 6 2 3 8 3 88 6 6 6 2 6 6 2 379 3 8 17 2 9
internal_value=0 -440.962 28542.3 -634.77 7176.06 33116.9 19392.9 5854.88 -696.989 11241.2 1795.35 34612.4 23198.5 17218.2 4674.05 29129.2 -716.77 7298.13 35199.7 2440.37 18049.1 138.026 2875.54 2067.36 -730.318 12962.3 1150.34 960.092 4166.95 4362.36
internal_weight=0 2136 33 2083 53 22 11 40 2031 13 52 16 4 7 22 6 1984 18 12 26 5 47 12 14 1896 6 26 18 14 11
internal_count=2169 2136 33 2083 53 22 11 40 2031 13 52 16 4 7 22 6 1984 18 12 26 5 47 12 14 1896 6 26 18 14 11
shrinkage=0.1


Tree=8
num_leaves=31
num_cat=0
split_feature=7 8 4 8 8 4 8 4 8 7 3 8 4 8 4 6 8 7 7 3 7 4 8 4 4 4 5 4 4 4
split_gain=2.21123e+10 2.55413e+09 1.11998e+09 2.55522e+08 2.3057e+08 1.38924e+08 5.52173e+07 4.31143e+07 2.75729e+07 2.67359e+07 1.94401e+07 1.84158e+07 8.20702e+06 8.01911e+06 7.53585e+06 7.02769e+06 4.80456e+06 4.08148e+06 3.83511e+06 3.68008e+06 2.82763e+06 2.68415e+06 2.5209e+06 2.36396e+06 2.05813e+06 1.87183e+06 1.84318e+06 5.23436e+06 1.8185e+06 1.75326e+06
threshold=26571.500000000004 7799.5000000000009 42044.500000000007 1894.5000000000002 18106.500000000004 59420.500000000007 12501.500000000002 26320.000000000004 4484.0000000000009 21718.000000000004 12.500000000000002 440.50000000000006 31475.500000000004 10703.500000000002 51097.500000000007 25866.500000000004 15840.500000000002 5487.5000000000009 850.50000000000011 13.500000000000002 2890.5000000000005 65962.500000000015 69.000000000000014 3204.5000000000005 14682.500000000002 7125.0000000000009 15712.500000000002 12742.500000000002 1341.5000000000002 2950.0000000000005
decision_type=2 2 2 2 2 2 2 2 2 2 2 2 2 2 2 2 2 2 2 2 2 2 2 2 2 2 2 2 2 2
left_child=1 3 7 11 6 14 13 15 20 26 21 22 -9 -3 -4 -2 25 29 -13 -12 -5 -7 -1 -19 -11 -8 27 -6 -20 -10
right_child=2 4 5 8 9 10 16 12 17 24 19 18 -14 -15 -16 -17 -18 23 28 -21 -22 -23 -24 -25 -26 -27 -28 -29 -30 -31
leaf_value=-67.109473487849201 1362.6999023437506 375.02542027064726 2380.7584960937456 61.491813311369526 930.02835286458367 2873.457226562497 688.70675455729088 1796.3575195312494 219.62987234933013 1035.6485351562492 3121.1698381696433 -31.788521066430498 2082.8365234374992 500.53170166015627 2618.4954101562494 1592.2813476562496 729.89585774739589 336.12105305989587 6.3612379346575052 3233.4970703124995 121.37307968139649 3023.0162109374987 -57.564027309133046 233.61989339192712 1192.8030078124998 597.49692382812498 960.07529296874964 721.17519531249968 106.15335388183594 152.90118543836806
leaf_weight=1589 1.999999999999998 14.000000000000002 2.0000000000000027 23 2.9999999999999982 3.0000000000000027 3.0000000000000027 1.9999999999999998 7.0000000000000062 1 6.9999999999999982 73 1.9999999999999998 7.9999999999999991 4 4 5.9999999999999991 2.9999999999999991 21.000000000000004 5 11.999999999999998 1.9999999999999998 335 8.9999999999999982 5 8.9999999999999982 1.9999999999999998 1.9999999999999998 1.9999999999999987 8.9999999999999982
leaf_count=1589 2 14 2 23 3 3 3 2 7 1 7 73 2 8 4 4 6 3 21 5 12 2 335 9 5 9 2 2 2 9
internal_value=0 -396.866 25688 -571.293 6458.46 29529.4 5269.39 16852.9 1411.94 10117.1 30989.5 -633.146 19396 4206.64 25392.5 15157.5 6568.32 2151.59 -205.695 31679.7 820.225 29332.8 -654.475 2592.45 11666.1 6202.99 8789.41 8464.87 150.388 1820.95
internal_weight=0 2136 33 2083 53 23 40 10 63 13 17 2020 4 22 6 6 18 28 96 12 35 5 1924 12 6 12 7 5 23 16
internal_count=2169 2136 33 2083 53 23 40 10 63 13 17 2020 4 22 6 6 18 28 96 12 35 5 1924 12 6 12 7 5 23 16
shrinkage=0.1


Tree=9
num_leaves=31
num_cat=0
split_feature=7 8 4 7 8 4 8 4 7 8 3 8 8 8 4 8 7 4 4 4 7 4 4 6 7 4 5 4 8 8
split_gain=1.7911e+10 2.07004e+09 9.07184e+08 1.98232e+08 1.91231e+08 1.12528e+08 4.75615e+07 3.51326e+07 2.53042e+07 2.26761e+07 1.57465e+07 1.23961e+07 8.33574e+06 6.53351e+06 6.10404e+06 4.37713e+06 3.70234e+06 3.53657e+06 3.04763e+06 2.46647e+06 2.45494e+06 2.17416e+06 2.13763e+06 2.05567e+06 2.44777e+06 2.04912e+06 1.96251e+06 4.577e+06 1.73892e+06 1.67812e+06
threshold=26571.500000000004 7228.0000000000009 42044.500000000007 15914.500000000002 1682.5000000000002 59420.500000000007 11982.000000000002 28851.500000000004 21718.000000000004 3772.5000000000005 12.500000000000002 334.00000000000006 33558.500000000007 14055.000000000002 51097.500000000007 8957.0000000000018 5487.5000000000009 36088.500000000007 72480.500000000015 3204.5000000000005 678.00000000000011 65962.500000000015 7804.0000000000009 6880.0000000000009 9437.5000000000018 6142.5000000000009 15712.500000000002 12742.500000000002 30283.000000000004 26571.500000000004
decision_type=2 2 2 2 2 2 2 2 2 2 2 2 2 2 2 2 2 2 2 2 2 2 2 2 2 2 2 2 2 2
left_child=1 4 7 6 11 14 15 12 26 -6 21 -1 28 25 -4 -3 -11 -9 -12 -18 -13 -7 -15 -17 -25 -8 27 -5 -2 -10
right_child=2 3 5 8 9 10 13 17 29 16 18 20 -14 22 -16 23 19 -19 -20 -21 -22 -23 -24 24 -26 -27 -28 -29 -30 -31
leaf_value=-59.138004897268196 1160.3798828125007 291.2239624023436 2142.6826171874964 837.02552083333364 58.91016994925107 2586.1114583333306 580.5504150390617 1726.3024414062493 997.06402994791642 153.26249639337715 2791.546992187501 -33.224371894289938 1488.5607177734373 668.57570800781252 2356.6458496093746 479.26640625000005 302.50894368489594 1956.6251953124975 2893.7674386160711 194.13415178571427 1.7047639700082635 2720.7145507812493 580.71669379340278 318.73282714843754 417.68271484374992 463.67107340494789 864.06777343749968 662.34487304687491 1321.8845214843745 1102.834993489583
leaf_weight=1900 0.99999999999999845 8.0000000000000018 2.0000000000000027 2.9999999999999982 34 3.0000000000000027 2.0000000000000018 1.9999999999999998 3 22 4.9999999999999982 89 4 3.9999999999999991 4 1.9999999999999987 2.9999999999999982 1.0000000000000002 7 7 26 1.9999999999999998 8.9999999999999982 4.9999999999999982 5 6 1.9999999999999998 3 1.9999999999999998 3
leaf_count=1900 1 8 2 3 34 3 2 2 3 22 5 89 4 4 4 2 3 1 7 7 26 2 9 5 5 6 2 3 2 3
internal_value=0 -357.179 23119.2 5698.22 -517.221 26576.4 4588.85 15167.6 8947.1 1157.76 27890.5 -572.084 13940.6 5639.94 22853.2 3485.2 1761.95 18030.8 28511.8 2266.47 -253.273 26399.5 6077.5 3867.18 3682.08 4928.91 7782.81 7496.85 12680.5 10499.5
internal_weight=0 2136 33 55 2081 23 41 10 14 66 17 2015 7 21 6 20 32 3 12 10 115 5 13 12 10 8 8 6 3 6
internal_count=2169 2136 33 55 2081 23 41 10 14 66 17 2015 7 21 6 20 32 3 12 10 115 5 13 12 10 8 8 6 3 6
shrinkage=0.1


Tree=10
num_leaves=31
num_cat=0
split_feature=7 8 4 8 8 4 4 8 8 6 4 5 8 8 4 4 8 4 8 8 6 8 8 1 4 3 8 7 4 4
split_gain=1.45079e+10 1.67746e+09 7.35363e+08 1.76631e+08 1.36756e+08 6.99168e+07 4.91058e+07 3.39899e+07 3.07089e+07 1.50916e+07 1.12858e+07 1.0703e+07 1.0068e+07 5.23474e+06 4.25137e+06 3.39354e+06 3.19665e+06 2.86984e+06 2.81006e+06 2.62007e+06 2.79344e+06 2.18264e+06 2.04178e+06 1.99727e+06 1.85161e+06 2.11673e+06 1.61079e+06 1.57828e+06 1.48644e+06 1.27943e+06
threshold=26571.500000000004 6701.5000000000009 47382.500000000007 15840.500000000002 1682.5000000000002 65962.500000000015 31475.500000000004 22251.000000000004 10703.500000000002 2925.0000000000005 57106.500000000007 25866.500000000004 326.50000000000006 13265.000000000002 72480.500000000015 14682.500000000002 18106.500000000004 36088.500000000007 3089.0000000000005 8957.0000000000018 6880.0000000000009 1067.5000000000002 30283.000000000004 10.500000000000002 12742.500000000002 14.500000000000002 39.500000000000007 5658.5000000000009 53064.000000000007 26320.000000000004
decision_type=2 2 2 2 2 2 2 2 2 2 2 2 2 2 2 2 2 2 2 2 2 2 2 2 2 2 2 2 2 2
left_child=1 4 6 8 12 10 11 16 19 18 28 22 26 -10 -7 -9 -5 -8 -6 -3 -21 -14 -2 -11 -18 -26 -1 -25 -4 -13
right_child=2 3 5 7 9 14 17 15 13 23 -12 29 21 -15 -16 -17 24 -19 -20 20 -22 -23 -24 27 25 -27 -28 -29 -30 -31
leaf_value=-54.98621275854893 1044.341894531251 253.77750244140617 1998.9608398437476 594.54552408854147 40.332241510461877 2494.1782366071434 1619.8502929687479 813.3441162109375 411.81629150390609 134.60720252990723 2297.4689941406245 1342.8666503906245 -29.17585565137863 514.13678222656256 2604.3906808035713 967.46999999999991 753.32298177083317 1827.3292968749993 102.38721618652345 431.33975830078111 294.87386474609372 7.7973981154592416 1209.3381184895832 165.56919381277896 582.82319335937473 761.01098632812409 -48.341335358532646 252.26189778645826 2120.8806640624989 1455.9786132812494
leaf_weight=1403 0.99999999999999811 11.000000000000002 2.0000000000000018 6.0000000000000018 27 6.9999999999999982 1.0000000000000002 1.9999999999999987 10.000000000000002 15.999999999999998 4 1.9999999999999998 100 9.9999999999999982 7 5 3 1.9999999999999998 9.9999999999999982 1.9999999999999998 6 19 3 7.0000000000000018 1.9999999999999998 1.0000000000000002 493 3 1.9999999999999998 1.9999999999999998
leaf_count=1403 1 11 2 6 27 7 1 2 10 16 4 2 100 10 7 5 3 2 10 2 6 19 3 7 2 1 493 3 2 2
internal_value=0 -321.461 20807.3 4982.92 -469.514 24145.2 14131.4 7483.13 3764.87 981.322 21786.9 12837.6 -514.875 4629.77 25492.8 9234.34 6461.58 17581.7 571.039 2854.46 3289.9 -232.726 11680.9 1565.19 6977.71 6422.19 -532.584 1915.77 20599.2 13994.2
internal_weight=0 2136 33 58 2078 22 11 19 39 63 8 8 2015 20 14 7 12 3 37 19 8 119 4 26 6 3 1896 10 4 4
internal_count=2169 2136 33 58 2078 22 11 19 39 63 8 8 2015 20 14 7 12 3 37 19 8 119 4 26 6 3 1896 10 4 4
shrinkage=0.1


Tree=11
num_leaves=31
num_cat=0
split_feature=7 8 4 8 7 3 8 4 7 8 8 4 4 4 6 8 8 8 6 6 2 5 7 7 7 4 2 4 3 4
split_gain=1.17514e+10 1.35884e+09 5.96431e+08 1.37109e+08 1.22576e+08 7.42879e+07 2.72323e+07 2.31386e+07 1.66328e+07 1.43397e+07 9.21805e+06 7.44262e+06 6.84103e+06 4.31255e+06 3.90432e+06 3.26891e+06 2.96406e+06 2.77289e+06 2.17256e+06 2.07317e+06 2.03369e+06 1.7802e+06 1.75782e+06 1.73198e+06 1.62127e+06 1.37156e+06 1.29719e+06 1.30421e+06 1.63111e+06 1.28005e+06
threshold=26571.500000000004 7799.5000000000009 42044.500000000007 2444.5000000000005 15914.500000000002 11.500000000000002 12387.500000000002 26320.000000000004 21718.000000000004 634.50000000000011 4939.5000000000009 70041.500000000015 54683.000000000007 31475.500000000004 25866.500000000004 14682.500000000002 108.50000000000001 10703.500000000002 9252.5000000000018 3818.5000000000005 3.5000000000000004 1101.0000000000002 2950.0000000000005 1742.0000000000002 6370.0000000000009 51097.500000000007 3.5000000000000004 12742.500000000002 14.500000000000002 3321.5000000000005
decision_type=2 2 2 2 2 2 2 2 2 2 2 2 2 2 2 2 2 2 2 2 2 2 2 2 2 2 2 2 2 2
left_child=1 3 7 9 6 12 17 14 26 16 21 -7 25 -9 -2 18 -1 29 -8 -12 -13 -5 -23 -11 -21 -4 -6 -28 -29 -3
right_child=2 4 5 10 8 11 15 13 -10 23 19 20 -14 -15 -16 -17 -18 -19 -20 24 -22 22 -24 -25 -26 -27 27 28 -30 -31
leaf_value=-48.743625761168509 989.63266601562543 216.25188802083309 1737.0998046874972 210.72539062499928 700.26696777343784 2170.6924609375001 519.57951660156164 1310.3807617187495 850.77632649739576 -2.9457894739115016 229.88266296386701 2291.5054199218753 1995.4214843749994 1518.0475097656245 1160.7537841796873 509.43056098090278 -37.394380262561313 355.40616048177088 403.05276184082032 139.05825985179226 2388.0512369791663 48.374146446814898 99.440388434273871 53.741225179036462 218.79475097656251 1854.2134765624994 673.20732421874982 537.43733723958326 684.90991210937443 289.9439630681818
leaf_weight=1706 1.999999999999998 3.0000000000000027 2.0000000000000027 1.0000000000000024 1.999999999999998 4.9999999999999991 2.0000000000000027 1.9999999999999998 6 53 4.0000000000000027 7.9999999999999982 3 1.9999999999999998 4 8.9999999999999982 266 5.9999999999999991 7.9999999999999991 17.000000000000004 3 13.000000000000002 13.999999999999998 5.9999999999999991 2.9999999999999991 1.9999999999999998 1.9999999999999998 3 1 10.999999999999998
leaf_count=1706 2 3 2 1 2 5 2 2 6 53 4 8 3 2 4 9 266 6 8 17 3 13 14 6 3 2 2 3 1 11
internal_value=0 -289.315 18726.6 -416.541 4710.92 21529.8 3799.75 12279.1 7249.16 -457.593 1186.86 22718.5 18812.7 14142.1 11037.1 4657.08 -472.127 2985.29 4263.58 1641.63 23178.4 797.055 748.529 28.1899 1510.19 17956.6 6305.21 6072.73 5743.05 2741.53
internal_weight=0 2136 33 2083 53 23 39 10 14 2031 52 16 7 4 6 19 1972 20 10 24 11 28 27 59 20 4 8 6 4 14
internal_count=2169 2136 33 2083 53 23 39 10 14 2031 52 16 7 4 6 19 1972 20 10 24 11 28 27 59 20 4 8 6 4 14
shrinkage=0.1


Tree=12
num_leaves=31
num_cat=0
split_feature=7 8 4 8 8 4 8 8 4 8 4 8 5 8 4 4 4 8 4 8 8 7 8 6 7 7 8 8 4 4
split_gain=9.51862e+09 1.10144e+09 4.83109e+08 1.16299e+08 8.98422e+07 6.05839e+07 2.21922e+07 1.99871e+07 1.87788e+07 9.94351e+06 8.51698e+06 6.9007e+06 4.79155e+06 3.35827e+06 3.14587e+06 2.45861e+06 2.2753e+06 1.96207e+06 1.88083e+06 1.67375e+06 1.52065e+06 4.72594e+06 1.4548e+06 1.43733e+06 1.4177e+06 1.4135e+06 1.40949e+06 1.38295e+06 1.30006e+06 1.27129e+06
threshold=26571.500000000004 6701.5000000000009 42044.500000000007 15840.500000000002 1682.5000000000002 59420.500000000007 22251.000000000004 11982.000000000002 28851.500000000004 3772.5000000000005 68258.000000000015 440.50000000000006 25866.500000000004 8957.0000000000018 53064.000000000007 14682.500000000002 73861.000000000015 18106.500000000004 36088.500000000007 13265.000000000002 464.50000000000006 266.50000000000006 1067.5000000000002 6880.0000000000009 5658.5000000000009 9284.0000000000018 30283.000000000004 43.500000000000007 2698.0000000000005 15404.500000000002
decision_type=2 2 2 2 2 2 2 2 2 2 2 2 2 2 2 2 2 2 2 2 2 2 2 2 2 2 2 2 2 2
left_child=1 4 8 7 11 14 17 13 12 28 -7 27 26 -3 -4 -8 -12 -5 -10 -9 21 -13 -22 -15 -11 -25 -2 -1 -6 -17
right_child=2 3 5 6 9 10 15 19 18 24 16 20 -14 23 -16 29 -18 -19 -20 -21 22 -23 -24 25 -26 -27 -28 -29 -30 -31
leaf_value=-44.53041562320783 840.94453125000075 205.32822265624998 1592.0837565104148 483.68113606770817 39.463629098372024 1906.4994140624983 654.45756835937505 349.02402750651044 1258.4593749999995 111.28263828443443 2045.4740668402778 232.70891113281243 1110.9454752604165 359.21138916015627 1736.9025390624997 886.49355468749934 2136.1181152343752 564.55284016927078 1426.4249999999984 415.83217529296871 -23.937213306150575 -33.541088867187483 7.3122367658113179 220.29981079101569 165.86500040690106 297.04335937499997 978.03294270833305 -38.334553800622622 155.19864501953126 760.43334960937489
leaf_weight=1444 0.99999999999999811 11.000000000000002 3.0000000000000027 6.0000000000000018 33 4.0000000000000027 1.9999999999999987 5.9999999999999991 1.9999999999999998 23.000000000000004 8.9999999999999982 0.99999999999999933 3 1.9999999999999987 3 1 3.9999999999999991 6 1.0000000000000002 9.9999999999999982 69 1.9999999999999998 19 3.9999999999999982 5.9999999999999991 6 3 480 0.999999999999999 4
leaf_count=1444 1 11 3 6 33 4 2 6 2 23 9 1 3 2 3 1 4 6 1 10 69 2 19 4 6 6 3 480 1 4
internal_value=0 -260.384 16853.9 4037.85 -380.353 19376.8 6066.6 3049.48 11051.2 795.586 20341 -417.12 10154.1 2452.39 16644.9 7481.63 20733.6 5241.17 13144.5 3907.79 -148.034 552.089 -171.902 2818.24 1225.76 2663.46 9437.61 -429.847 428.676 7856.45
internal_weight=0 2136 33 58 2078 23 19 39 10 63 17 2015 7 23 6 7 13 12 3 16 91 3 88 12 29 10 4 1924 34 5
internal_count=2169 2136 33 58 2078 23 19 39 10 63 17 2015 7 23 6 7 13 12 3 16 91 3 88 12 29 10 4 1924 34 5
shrinkage=0.1


Tree=13
num_leaves=31
num_cat=0
split_feature=8 8 4 8 8 4 5 5 8 7 4 4 8 8 7 4 4 8 4 3 4 4 4 2 8 4 5 2 8 5
split_gain=7.71078e+09 7.643e+08 5.45273e+08 7.12168e+07 6.70574e+07 4.9073e+07 2.7736e+07 1.39389e+07 8.45337e+06 7.07662e+06 7.03701e+06 5.9281e+06 5.64341e+06 3.51319e+06 3.46816e+06 2.64304e+06 2.28334e+06 1.83328e+06 1.76747e+06 1.553e+06 1.46775e+06 1.4055e+06 1.36522e+06 1.36029e+06 1.19691e+06 1.70708e+06 1.0301e+06 991336 937716 937128
threshold=26571.500000000004 6439.0000000000009 42044.500000000007 14055.000000000002 1682.5000000000002 59420.500000000007 25866.500000000004 15712.500000000002 10703.500000000002 3267.5000000000005 70041.500000000015 31475.500000000004 326.50000000000006 30283.000000000004 15914.500000000002 51097.500000000007 12742.500000000002 8477.5000000000018 5715.5000000000009 14.500000000000002 7804.0000000000009 1341.5000000000002 65962.500000000015 3.5000000000000004 2551.0000000000005 731.50000000000011 18485.500000000004 3.5000000000000004 31.500000000000004 2167.5000000000005
decision_type=2 2 2 2 2 2 2 2 2 2 2 2 2 2 2 2 2 2 2 2 2 2 2 2 2 2 2 2 2 2
left_child=1 4 6 8 12 15 13 14 17 24 22 -8 28 19 20 -4 -16 -3 -10 -2 -5 27 -7 -12 -6 -26 -9 -14 -1 -11
right_child=2 3 5 7 9 10 11 26 18 29 23 -13 21 -15 16 -17 -18 -19 -20 -21 -22 -23 -24 -25 25 -27 -28 -29 -30 -31
leaf_value=-40.33932739628284 773.0481770833336 175.00438953746445 1404.1815429687476 450.1115661621086 22.26452333662245 1695.8766927083316 1021.1412597656249 579.32908528645828 394.20563964843751 154.11610412597645 1856.674438476563 1231.9984863281245 -7.4386618932088213 880.22965494791652 553.31264648437502 1544.9749755859373 429.93403320312495 234.16424560546875 291.22599609375004 629.15024414062452 377.30908203125 101.63796386718751 1791.2782552083329 1935.6342447916661 185.7064819335931 51.263325410730708 671.97978515624982 -25.836405724287033 -35.508370785564701 101.30445789155506
leaf_weight=1318 2.9999999999999982 11.000000000000002 2.0000000000000027 4.0000000000000062 18 3.0000000000000027 4 2.9999999999999991 1.9999999999999987 4.0000000000000027 7.9999999999999982 1.9999999999999998 54 3 2.9999999999999991 4 3 9.9999999999999982 9.9999999999999982 1 8.9999999999999982 0.999999999999999 3 3 1.0000000000000024 17 1.9999999999999998 64 578 21
leaf_count=1318 3 11 2 4 18 3 4 3 2 4 8 2 54 3 3 4 3 10 10 1 9 1 3 3 1 17 2 64 578 21
internal_value=0 -244.949 14513.2 3367.59 -344.137 17439.1 9336.57 4678.3 2414.35 688.82 18306.9 10914.3 -375.408 7984.26 4287.35 14980.4 4916.23 2031.76 3083.89 7370.74 3997.1 -164.166 17435.8 18782.1 404.985 587.324 6163.89 -174.171 -388.666 1097.54
internal_weight=0 2133 36 57 2076 23 13 24 33 61 17 6 2015 7 19 6 6 21 12 4 13 119 6 11 36 18 5 118 1896 25
internal_count=2169 2133 36 57 2076 23 13 24 33 61 17 6 2015 7 19 6 6 21 12 4 13 119 6 11 36 18 5 118 1896 25
shrinkage=0.1


Tree=14
num_leaves=31
num_cat=0
split_feature=8 8 4 8 8 3 8 5 6 8 8 8 4 4 4 7 4 8 4 3 1 6 8 6 8 7 4 7 8 2
split_gain=6.24573e+09 6.19152e+08 4.41671e+08 5.88677e+07 5.33437e+07 3.98151e+07 2.28142e+07 1.12905e+07 6.69921e+06 5.94072e+06 4.5947e+06 4.16974e+06 4.05911e+06 3.91931e+06 3.39624e+06 2.80921e+06 1.84951e+06 1.49346e+06 1.43165e+06 1.25793e+06 1.21004e+06 1.22901e+06 1.20283e+06 1.82353e+06 1.2026e+06 3.82801e+06 1.18888e+06 1.17652e+06 949156 926959
threshold=26571.500000000004 6701.5000000000009 42044.500000000007 1682.5000000000002 14055.000000000002 11.500000000000002 37185.500000000007 15712.500000000002 2925.0000000000005 10703.500000000002 440.50000000000006 30283.000000000004 70794.000000000015 54683.000000000007 31475.500000000004 15914.500000000002 12742.500000000002 3089.0000000000005 5715.5000000000009 14.500000000000002 10.500000000000002 2963.0000000000005 8957.0000000000018 6880.0000000000009 464.50000000000006 266.50000000000006 7804.0000000000009 678.00000000000011 76.500000000000014 3.5000000000000004
decision_type=2 2 2 2 2 2 2 2 2 2 2 2 2 2 2 2 2 2 2 2 2 2 2 2 2 2 2 2 2 2
left_child=1 3 6 10 9 13 11 15 17 22 28 19 -7 -4 -8 26 -17 -5 -11 -2 -10 -22 -3 -24 25 -12 -6 -26 -1 -14
right_child=2 4 5 8 7 12 14 -9 20 18 24 -13 29 -15 -16 16 -18 -19 -20 -21 21 -23 23 -25 27 -27 -28 -29 -30 -31
leaf_value=-35.787355630191762 695.74334309895858 166.21932594992887 1305.804345703124 24.815257001806188 405.10040283203057 1591.5238769531252 940.5666992187497 554.75041992187505 86.223113441467291 354.78507080078128 210.18188476562491 807.75712890624982 1675.6321428571432 1457.0083007812498 1108.7986816406244 497.98139648437501 386.9406249999999 70.054519348144524 262.10339477539065 566.23520507812452 25.394575500488191 142.25194973415799 299.87382812499987 189.61576538085936 -21.439965048143943 -29.443112182617178 339.57817654079867 3.9030390225923983 -29.697919541911077 1742.0707682291661
leaf_weight=1620 2.9999999999999982 11.000000000000005 4.0000000000000027 27 4.0000000000000062 5.9999999999999991 3 4.9999999999999991 15.999999999999998 1.9999999999999987 0.99999999999999933 4 6.9999999999999982 3 1.9999999999999998 2.9999999999999991 3 9.9999999999999982 9.9999999999999982 1 1.0000000000000024 8.9999999999999982 1.9999999999999998 6 62 1.9999999999999998 8.9999999999999982 26 304 3
leaf_count=1620 3 11 4 27 4 6 3 5 16 2 1 4 7 3 2 3 3 10 10 1 1 9 2 6 62 2 9 26 304 3
internal_value=0 -220.454 13061.9 -308.106 3091.2 15695.2 8402.92 4210.47 643.776 2224.66 -337.867 7355.62 16565.5 13706.1 10078.6 3858.62 4424.61 370.421 2775.5 6633.66 1032.78 1305.66 1876.77 2171.8 -118.297 504.319 3597.39 -139.523 -348.252 16955.6
internal_weight=0 2133 36 2078 55 23 13 24 63 31 2015 8 16 7 5 19 6 37 12 4 26 10 19 8 91 3 13 88 1924 10
internal_count=2169 2133 36 2078 55 23 13 24 63 31 2015 8 16 7 5 19 6 37 12 4 26 10 19 8 91 3 13 88 1924 10
shrinkage=0.1


Tree=15
num_leaves=31
num_cat=0
split_feature=8 8 4 8 8 4 8 5 8 8 4 8 8 4 8 4 4 8 4 3 3 4 5 4 3 8 3 2 4 7
split_gain=5.05904e+09 5.01732e+08 3.57754e+08 4.66548e+07 4.39804e+07 3.24549e+07 1.84795e+07 9.14532e+06 5.51797e+06 5.43171e+06 4.72617e+06 3.37749e+06 3.21805e+06 2.75096e+06 2.4073e+06 1.89302e+06 1.28302e+06 1.21804e+06 1.15964e+06 1.1052e+06 1.01892e+06 972715 834380 829088 1.22755e+06 740246 702635 680778 665568 999815
threshold=26571.500000000004 6439.0000000000009 42044.500000000007 14055.000000000002 1535.0000000000002 59420.500000000007 37185.500000000007 15712.500000000002 10703.500000000002 3772.5000000000005 68258.000000000015 30283.000000000004 261.00000000000006 31475.500000000004 15840.500000000002 51097.500000000007 72480.500000000015 8477.5000000000018 5715.5000000000009 14.500000000000002 14.500000000000002 2698.0000000000005 18485.500000000004 3321.5000000000005 13.500000000000002 891.00000000000011 14.500000000000002 3.5000000000000004 12742.500000000002 15914.500000000002
decision_type=2 2 2 2 2 2 2 2 2 2 2 2 2 2 2 2 2 2 2 2 2 2 2 2 2 2 2 2 2 2
left_child=1 4 6 8 12 15 11 14 17 21 -7 20 -1 -8 -5 -4 -12 -3 -10 28 -2 -6 -9 -19 -25 -14 -11 -26 29 -16
right_child=2 3 5 7 9 10 13 22 18 26 16 -13 25 -15 19 -17 -18 23 -20 -21 -22 -23 -24 24 27 -27 -28 -29 -30 -31
leaf_value=-31.626323377153369 626.16901041666688 141.82714233398434 1133.182910156248 305.53669738769503 26.014535257063415 1388.0872558593737 846.50999348958305 465.92112630208334 319.30656738281255 83.76078315147987 1478.4564127604172 726.98142089843736 -19.237045209072839 997.91879882812464 371.814050292969 1252.3368408203123 1541.474302455357 132.46122436523439 235.8930603027344 277.39489746093699 509.61166992187458 125.93013916015626 549.3067871093748 181.8300842285156 330.63645019531231 0.33394625083259916 169.18085937500001 213.95073242187479 348.24655761718742 448.18325195312491
leaf_weight=1866 2.9999999999999982 11.000000000000002 2.0000000000000027 8.0000000000000053 38 4.0000000000000027 3 2.9999999999999991 1.9999999999999987 26.000000000000004 5.9999999999999982 4 121 1.9999999999999998 3.9999999999999964 4 7 1.9999999999999987 9.9999999999999982 1.0000000000000007 1 0.999999999999999 1.9999999999999998 6 0.99999999999999967 23 0.999999999999999 1 3 3
leaf_count=1866 3 11 2 8 38 4 3 3 2 26 6 4 121 2 4 4 7 2 10 1 1 1 2 6 1 23 1 1 3 3
internal_value=0 -198.409 11755.7 2728.55 -278.773 14125.7 7562.62 3789.42 1957.01 524.461 14831.4 6620.06 -305.148 9070.74 3472.75 12126.2 15123.9 1647.9 2497.95 3776.31 5970.3 285.765 4992.75 1900.49 2044.46 -161.111 869.245 2722.94 3876.55 4045.44
internal_weight=0 2133 36 57 2076 23 13 24 33 66 17 8 2010 5 19 6 13 21 12 11 4 39 5 10 8 144 27 2 10 7
internal_count=2169 2133 36 57 2076 23 13 24 33 66 17 8 2010 5 19 6 13 21 12 11 4 39 5 10 8 144 27 2 10 7
shrinkage=0.1


Tree=16
num_leaves=31
num_cat=0
split_feature=8 8 4 8 8 4 5 8 5 7 4 4 8 4 8 8 5 4 7 4 6 4 3 8 8 6 7 8 4 5
split_gain=4.09783e+09 4.06403e+08 2.8978e+08 3.90562e+07 3.53472e+07 2.62992e+07 1.51211e+07 5.89372e+06 5.74753e+06 5.21546e+06 3.8025e+06 3.06026e+06 2.29308e+06 1.88742e+06 1.76283e+06 1.55044e+06 1.3735e+06 1.3216e+06 1.07891e+06 1.21346e+06 1.01095e+06 936227 825325 762024 759643 1.25596e+06 699216 689238 977763 675848
threshold=26571.500000000004 6701.5000000000009 42044.500000000007 2444.5000000000005 14682.500000000002 62839.000000000007 25866.500000000004 10703.500000000002 15712.500000000002 678.00000000000011 54683.000000000007 31475.500000000004 4939.5000000000009 72480.500000000015 30283.000000000004 208.50000000000003 1101.0000000000002 7125.0000000000009 15914.500000000002 12742.500000000002 3818.5000000000005 1341.5000000000002 14.500000000000002 12387.500000000002 8957.0000000000018 6880.0000000000009 2010.0000000000002 2978.5000000000005 2698.0000000000005 18485.500000000004
decision_type=2 2 2 2 2 2 2 2 2 2 2 2 2 2 2 2 2 2 2 2 2 2 2 2 2 2 2 2 2 2
left_child=1 3 6 9 7 10 14 24 18 15 -4 -8 16 -7 22 -1 -5 -9 -6 -20 -14 26 -2 -19 -3 -26 -11 28 -18 -10
right_child=2 4 5 12 8 13 11 17 29 21 -12 -13 20 -15 -16 -17 27 23 19 -21 -22 -23 -24 -25 25 -27 -28 -29 -30 -31
leaf_value=-28.613088834076599 563.5520996093752 135.13615889115763 1055.9479003906242 162.05285644531193 303.64869520399293 1316.2242553710939 746.62792968749989 277.1912255859375 419.32900390625002 0.9732089764128129 1193.8337646484374 898.12690429687473 145.24790445963524 1387.3269112723212 638.73282877604152 -18.518529183893317 8.4570288419723507 180.36766662597663 403.36494140625001 313.42189941406241 81.989156150817877 74.989730834960938 458.65053710937468 235.08207310267855 244.26312255859366 152.75865071614581 51.222053019205731 54.003291575113934 113.33712158203105 494.37607421874986
leaf_weight=1824 2.9999999999999982 11.000000000000002 4.0000000000000018 1.0000000000000024 9.0000000000000018 7.9999999999999982 4 4.9999999999999991 2.9999999999999991 36 4 1.9999999999999998 3.0000000000000027 7 3 166 8 3.9999999999999982 2.9999999999999991 3 15.999999999999998 1.9999999999999987 1 7 1.9999999999999998 6 2.9999999999999991 18 1.0000000000000007 1.9999999999999998
leaf_count=1824 3 11 4 1 9 8 4 5 3 36 4 2 3 7 3 166 8 4 3 3 16 2 1 7 2 6 3 18 1 2
internal_value=0 -178.568 10580.1 -249.581 2504.46 12713.1 6806.36 1898.45 3564.97 -270.437 11248.9 7971.28 651.633 13494.1 5807.86 -277.71 469.681 2345.63 3255.47 3583.93 919.774 82.6052 5373.27 2151.86 1521.88 1756.35 48.385 427.057 201.104 4493.48
internal_weight=0 2133 36 2078 55 23 13 35 20 2031 8 6 47 15 7 1990 28 16 15 6 19 41 4 11 19 8 39 27 9 5
internal_count=2169 2133 36 2078 55 23 13 35 20 2031 8 6 47 15 7 1990 28 16 15 6 19 41 4 11 19 8 39 27 9 5
shrinkage=0.1


Tree=17
num_leaves=31
num_cat=0
split_feature=8 7 4 8 8 4 8 5 7 8 3 8 6 4 4 6 6 6 5 7 4 4 3 4 7 4 7 4 8 4
split_gain=3.31924e+09 3.2947e+08 2.34722e+08 3.57159e+07 2.53353e+07 2.1572e+07 1.23065e+07 4.6555e+06 4.22452e+06 3.71468e+06 3.23471e+06 2.28297e+06 2.27799e+06 1.93612e+06 1.34253e+06 1.27872e+06 1.21735e+06 1.12419e+06 1.11254e+06 873921 982905 840908 830974 758344 657915 652118 837035 968081 598307 592876
threshold=26571.500000000004 6370.0000000000009 42044.500000000007 2444.5000000000005 14682.500000000002 59420.500000000007 37185.500000000007 15712.500000000002 678.00000000000011 11982.000000000002 12.500000000000002 4939.5000000000009 25866.500000000004 36088.500000000007 51097.500000000007 72.500000000000014 3818.5000000000005 9252.5000000000018 1101.0000000000002 15914.500000000002 12742.500000000002 75219.000000000015 14.500000000000002 1341.5000000000002 75.500000000000014 2963.0000000000005 8425.0000000000018 5715.5000000000009 12387.500000000002 28851.500000000004
decision_type=2 2 2 2 2 2 2 2 2 2 2 2 2 2 2 2 2 2 2 2 2 2 2 2 2 2 2 2 2 2
left_child=1 3 6 8 9 14 12 19 15 25 -7 18 22 29 -4 -1 -13 -11 -5 -6 -21 -12 -2 -10 -17 -3 -27 -28 -19 -8
right_child=2 4 5 11 7 10 13 -9 23 17 21 16 -14 -15 -16 24 -18 28 -20 20 -22 -23 -24 -25 -26 26 27 -29 -30 -31
leaf_value=-26.026065397067033 514.70292968750016 96.810055541992028 914.26982421874845 145.84757080078074 273.28382703993043 1134.1402343749994 666.03051757812477 404.41305664062503 4.3546539800289352 274.37214355468751 1218.035693359375 135.21863403320302 604.54316406249984 860.09814453124932 1014.6140624999998 62.200231933593756 74.229523468017575 130.76038818359376 38.43508659645363 363.0284423828125 282.07971191406244 1289.0669921875001 412.78544921874965 67.490759277343756 -19.055404702315094 137.71270385742181 273.14648437499977 167.96197509765625 212.80280303955078 743.0289794921872
leaf_weight=1707 3.9999999999999982 2.0000000000000027 2.0000000000000027 1.0000000000000024 9.0000000000000018 5.0000000000000027 1.9999999999999998 4.9999999999999991 39 2.9999999999999991 9.9999999999999982 4.0000000000000027 3 1 4 0.999999999999999 18 0.999999999999999 27 2.9999999999999991 3 1.9999999999999987 1 1.9999999999999987 282 10.000000000000002 1 7 7.9999999999999991 1.9999999999999998
leaf_count=1707 4 2 2 1 9 5 2 5 39 3 10 4 3 1 4 1 18 1 27 3 3 2 1 2 282 10 1 7 8 2
internal_value=0 -160.711 9522.12 -222.838 2325.55 11441.8 6125.73 3208.47 -243.393 1773.73 12017.2 612.12 5356.53 7356.43 9811.66 -249.939 853.185 2213.58 422.712 2929.92 3225.54 12298.7 4943.19 74.3446 -187.683 1509.81 1570 1811.1 2036.87 7045.3
internal_weight=0 2133 36 2081 52 23 13 20 2031 32 17 50 8 5 6 1990 22 12 28 15 6 12 5 41 283 20 18 8 9 4
internal_count=2169 2133 36 2081 52 23 13 20 2031 32 17 50 8 5 6 1990 22 12 28 15 6 12 5 41 283 20 18 8 9 4
shrinkage=0.1


Tree=18
num_leaves=31
num_cat=0
split_feature=8 7 4 8 7 4 4 7 8 6 8 4 4 7 8 4 3 4 8 4 3 4 7 4 2 8 4 8 4 4
split_gain=2.68858e+09 2.67229e+08 1.90212e+08 2.94826e+07 1.91961e+07 1.43298e+07 1.36452e+07 6.03034e+06 2.83606e+06 2.65146e+06 2.55213e+06 2.17723e+06 2.02459e+06 1.75679e+06 1.26546e+06 1.05902e+06 910743 757560 749306 720402 673088 592520 539455 501355 463533 439620 426764 417614 527199 416358
threshold=26571.500000000004 5487.5000000000009 47382.500000000007 12501.500000000002 850.50000000000011 26320.000000000004 65962.500000000015 15914.500000000002 3089.0000000000005 25866.500000000004 8957.0000000000018 36088.500000000007 57106.500000000007 21718.000000000004 217.50000000000003 7125.0000000000009 13.500000000000002 3321.5000000000005 9284.0000000000018 2698.0000000000005 14.500000000000002 6142.5000000000009 14167.000000000002 4994.0000000000009 3.5000000000000004 20.500000000000004 10409.000000000002 10703.500000000002 8149.5000000000009 8697.0000000000018
decision_type=2 2 2 2 2 2 2 2 2 2 2 2 2 2 2 2 2 2 2 2 2 2 2 2 2 2 2 2 2 2
left_child=1 4 5 10 14 9 12 15 19 20 23 -7 -4 -9 25 21 -8 -12 -19 -6 -2 -5 26 -3 -25 -1 -17 -20 -29 -30
right_child=2 3 6 7 8 11 16 13 -10 -11 17 -13 -14 -15 -16 22 -18 18 27 -21 -22 -23 -24 24 -26 -27 -28 28 29 -31
leaf_value=-24.4193926668305 463.23261718750013 113.4972025553385 885.86789550781202 225.26868896484294 12.324289138208737 650.69905598958337 1080.8799479166667 299.31390991210941 54.767057418823242 554.11910400390616 72.312127685546884 785.3971435546872 986.48071289062489 389.04650878906239 -14.12237459250859 210.34917724609377 1134.1098437500002 245.83183593750002 136.28805033365887 98.159899902343753 371.50693359374969 295.53719889322906 237.73950927734373 117.40188598632812 58.440062713623036 -21.235349855612089 155.69255371093743 196.85946350097652 113.25460205078122 177.78043823242183
leaf_weight=1124 3.9999999999999982 12.000000000000002 4.0000000000000018 2.0000000000000062 44 2.9999999999999991 8.9999999999999982 7.9999999999999982 28 4 0.999999999999999 1.9999999999999998 4 3 168 4.9999999999999982 4.9999999999999991 0.999999999999999 5.9999999999999991 0.999999999999999 1 3 5 1.9999999999999987 4 706 1.9999999999999998 4 1.9999999999999998 1.9999999999999998
leaf_count=1124 4 12 4 2 44 3 9 8 28 4 1 2 4 3 168 5 5 1 6 1 1 3 5 2 4 706 2 4 2 2
internal_value=0 -144.64 8569.91 1901.05 -205.882 5688.43 10403.6 2660.94 297.795 4934.35 1275.27 7045.78 9361.74 3237.86 -224.285 2287.63 10998.9 1565.86 1622.05 142.317 4448.87 2674.3 2126.52 1016.96 780.94 -231.91 1947.33 1562.31 1711.88 1455.18
internal_weight=0 2133 36 62 2071 14 22 28 73 9 34 5 8 11 1998 17 14 16 15 45 5 5 12 18 6 1830 7 14 8 4
internal_count=2169 2133 36 62 2071 14 22 28 73 9 34 5 8 11 1998 17 14 16 15 45 5 5 12 18 6 1830 7 14 8 4
shrinkage=0.1


Tree=19
num_leaves=31
num_cat=0
split_feature=8 8 4 8 8 4 4 8 8 8 4 8 4 8 7 8 6 2 8 6 4 8 4 2 8 1 4 4 5 4
split_gain=2.1779e+09 2.66586e+08 9.71111e+07 2.56868e+07 2.55054e+07 1.10526e+07 5.98769e+06 5.42694e+06 3.90955e+06 3.11216e+06 1.63991e+06 1.60344e+06 1.06505e+06 958056 3.10069e+06 991283 807193 777729 703154 681319 646207 636610 608133 596355 823304 661503 576954 575280 537010 516835
threshold=30283.000000000004 7799.5000000000009 47382.500000000007 16224.500000000002 2551.0000000000005 65962.500000000015 28851.500000000004 24782.500000000004 12387.500000000002 440.50000000000006 57106.500000000007 5715.5000000000009 36088.500000000007 464.50000000000006 266.50000000000006 1067.5000000000002 1457.5000000000002 3.5000000000000004 3089.0000000000005 9252.5000000000018 3321.5000000000005 33558.500000000007 2698.0000000000005 3.5000000000000004 18696.500000000004 10.500000000000002 17424.500000000004 3971.0000000000005 22667.000000000004 4292.0000000000009
decision_type=2 2 2 2 2 2 2 2 2 2 2 2 2 2 2 2 2 2 2 2 2 2 2 2 2 2 2 2 2 2
left_child=1 4 6 8 9 10 21 23 20 -1 -4 16 -8 14 -11 -15 -6 -7 22 -10 -3 -2 -18 -5 -25 -26 -9 -13 -28 -22
right_child=2 3 5 7 11 17 12 26 19 13 -12 27 -14 15 -16 -17 18 -19 -20 -21 29 -23 -24 24 25 -27 28 -29 -30 -31
leaf_value=-20.615442532585963 451.23969726562518 86.067921956380118 797.28111572265573 304.4248860677082 130.03038330078127 977.59280894886365 603.6561767578122 426.14597167968753 238.1326904296875 196.25703124999993 887.83261718749986 104.73381805419922 706.85742187499977 -11.904754970384682 -19.405465698242182 8.3826437048009925 5.6305772781372081 1035.03369140625 47.251267890746782 185.26346153846157 167.84172668457018 520.33797607421866 88.343914794921801 219.12685241699216 207.24816894531233 298.18106079101557 323.72437744140615 63.77165260314942 397.00532226562484 126.73635113055889
leaf_weight=1924 1.999999999999998 3.0000000000000027 4.0000000000000018 3.0000000000000009 0.999999999999999 10.999999999999998 1.9999999999999998 1.9999999999999987 2.9999999999999991 0.99999999999999933 4 5.9999999999999991 1.9999999999999998 69 1.9999999999999998 37 7.9999999999999982 2.9999999999999991 26 12.999999999999998 4.0000000000000027 4 1 4 1 4 1.9999999999999998 7.9999999999999991 1.9999999999999998 12.999999999999998
leaf_count=1924 2 3 4 3 1 11 2 2 3 1 4 6 2 69 2 37 8 3 26 13 4 4 1 4 1 4 2 8 2 13
internal_value=0 -122.62 8188.73 2071.01 -179.488 9363.22 5604.86 3046.39 1583.32 -196.842 8425.57 526.106 6552.57 -32.4609 524.82 -48.233 414.431 9899.02 389.12 1951.76 1288.57 4973.05 148.209 2658.13 2529.42 2799.94 3822.92 813.269 3603.65 1364.08
internal_weight=0 2137 32 54 2083 22 10 18 36 2033 8 50 4 109 3 106 36 14 35 16 20 6 9 12 9 5 6 14 4 17
internal_count=2169 2137 32 54 2083 22 10 18 36 2033 8 50 4 109 3 106 36 14 35 16 20 6 9 12 9 5 6 14 4 17
shrinkage=0.1


Tree=20
num_leaves=31
num_cat=0
split_feature=8 7 4 8 8 4 5 8 8 8 4 8 4 4 4 4 8 6 3 4 3 7 8 2 2 8 6 3 8 4
split_gain=1.76424e+09 1.75479e+08 1.24815e+08 1.89594e+07 1.35855e+07 1.15868e+07 6.6886e+06 2.3667e+06 2.18051e+06 2.04271e+06 1.8673e+06 1.69111e+06 1.33896e+06 849452 828286 805922 736499 536018 505324 518183 504905 502814 480813 437987 433614 398255 395103 732419 394110 646987
threshold=26571.500000000004 6370.0000000000009 42044.500000000007 1894.5000000000002 15522.500000000002 59420.500000000007 25866.500000000004 11982.000000000002 22251.000000000004 4484.0000000000009 70041.500000000015 377.50000000000006 31475.500000000004 1341.5000000000002 53064.000000000007 2950.0000000000005 30283.000000000004 9252.5000000000018 12.500000000000002 2698.0000000000005 14.500000000000002 5308.5000000000009 23.500000000000004 2.5000000000000004 3.5000000000000004 12387.500000000002 3818.5000000000005 12.500000000000002 16813.500000000004 9103.5000000000018
decision_type=2 2 2 2 2 2 2 2 2 2 2 2 2 2 2 2 2 2 2 2 2 2 2 2 2 2 2 2 2 2
left_child=1 3 6 11 7 14 16 -3 28 18 -7 22 -8 24 -4 26 -2 -9 19 23 -12 -17 -1 -5 -13 -19 -11 -28 29 -6
right_child=2 4 5 9 8 10 12 17 -10 15 20 13 -14 -15 -16 21 -18 25 -20 -21 -22 -23 -24 -25 -26 -27 27 -29 -30 -31
leaf_value=-19.843457997768414 352.04453735351575 110.46616668701172 677.57522786458264 33.500653076171908 248.44136962890582 831.49389648437455 490.61665039062495 201.54251708984376 305.0941101074219 102.84571655273433 894.07103515625022 -0.4916792282691369 590.82739257812477 58.670989990234375 751.88478190104149 26.542421558925071 417.59028320312495 93.685247802734381 33.930696025647613 79.509521484374872 968.59589843749836 61.486930847167969 -16.569937547003843 -5.1404948592185971 -13.119422606418008 159.8729235839844 103.47053833007809 17.889080047607415 235.90603332519532 178.78219909667965
leaf_weight=1188 3.9999999999999982 20 3.0000000000000027 3.9999999999999956 2.0000000000000027 6.0000000000000027 4 2.9999999999999991 3.9999999999999991 5.0000000000000018 9.9999999999999964 52 1.9999999999999998 1.9999999999999987 3 7.0000000000000027 3 0.999999999999999 19 1.0000000000000007 1.0000000000000007 9.9999999999999982 721 11 57 9.9999999999999982 1.9999999999999998 1.9999999999999998 7.9999999999999991 4
leaf_count=1188 4 20 3 4 2 6 4 3 4 5 10 52 2 2 3 7 3 1 19 1 1 10 721 11 57 10 2 2 8 4
internal_value=0 -117.167 6942.14 -162.507 1697.31 8342.02 4465.44 1325.4 2399.8 386.765 8763.69 -179.094 5240.2 -59.102 7147.3 599.082 3801.36 1640.74 229.043 98.1042 9008.46 470.98 -186.071 51.6381 -70.9518 1538.56 841.053 606.798 2213.76 2020.02
internal_weight=0 2133 36 2081 52 23 13 34 18 61 17 2020 6 111 6 26 7 14 35 16 11 17 1909 15 109 11 9 4 14 6
internal_count=2169 2133 36 2081 52 23 13 34 18 61 17 2020 6 111 6 26 7 14 35 16 11 17 1909 15 109 11 9 4 14 6
shrinkage=0.1


Tree=21
num_leaves=31
num_cat=0
split_feature=8 7 4 8 7 4 4 5 8 8 6 4 4 8 1 7 7 4 4 3 4 3 4 8 5 4 4 8 7 1
split_gain=1.42904e+09 1.42211e+08 1.01223e+08 1.58242e+07 1.0318e+07 7.76099e+06 7.37102e+06 2.60799e+06 2.16265e+06 1.47115e+06 1.38722e+06 1.13171e+06 1.08564e+06 750654 635655 1.02274e+06 633134 557000 555049 548259 429585 409003 378591 344838 321823 448952 298517 500742 267072 741141
threshold=26571.500000000004 5487.5000000000009 47382.500000000007 14055.000000000002 850.50000000000011 26320.000000000004 65962.500000000015 15712.500000000002 9993.0000000000018 3089.0000000000005 25866.500000000004 36088.500000000007 54683.000000000007 153.50000000000003 10.500000000000002 8425.0000000000018 14167.000000000002 72939.000000000015 11093.000000000002 14.500000000000002 7019.5000000000009 14.500000000000002 2698.0000000000005 6701.5000000000009 18485.500000000004 17424.500000000004 12742.500000000002 16224.500000000002 891.00000000000011 10.500000000000002
decision_type=2 2 2 2 2 2 2 2 2 2 2 2 2 2 2 2 2 2 2 2 2 2 2 2 2 2 2 2 2 2
left_child=1 4 5 8 13 10 12 16 14 22 21 -7 -4 -1 23 -16 18 -8 -5 26 -10 -2 28 -3 -9 -26 27 -18 29 -6
right_child=2 3 6 7 9 11 17 24 20 -11 -12 -13 -14 -15 15 -17 19 -19 -20 -21 -22 -23 -24 -25 25 -27 -28 -29 -30 -31
leaf_value=-17.040166097758863 338.28136596679701 40.070198440551742 634.42718098958278 172.94245198567688 105.91046142578128 475.6387858072917 785.03887329101576 245.80296223958337 157.4705535888672 39.911088861737937 402.99050903320307 572.75156249999975 710.51985351562496 -10.823185921808996 87.790252130681822 193.41787109374968 183.52349446614602 825.34501139322913 92.47153320312492 128.39731445312478 118.69495666503906 266.77934570312476 71.558569335937506 76.030513381958016 344.96850585937477 250.21066894531225 178.83302408854161 235.2015502929687 7.6334647962025235 -15.838523864746078
leaf_weight=1780 3.9999999999999982 4.0000000000000009 3.0000000000000018 6.0000000000000062 0.99999999999999867 2.9999999999999991 7.9999999999999982 2.9999999999999991 3.9999999999999991 28 4 1.9999999999999998 5 218 10.999999999999998 1.0000000000000007 2.9999999999999964 6 1 1.0000000000000007 9.9999999999999982 1 0.999999999999999 7.9999999999999991 0.99999999999999967 1 3 5 42 1
leaf_count=1780 4 4 3 6 1 3 8 3 4 28 4 2 5 218 11 1 3 6 1 1 10 1 1 8 1 1 3 5 42 1
internal_value=0 -105.45 6247.93 1386.88 -150.127 4145.92 7585.57 2022.58 985.386 219.143 3590.96 5144.84 6819.85 -163.618 803.181 965.926 1853.47 8023.13 1614.47 1992.9 1297.74 3239.81 107.164 640.437 2665.18 2975.9 2057.34 2158.22 93.3358 450.36
internal_weight=0 2133 36 62 2071 14 22 24 38 73 9 5 8 1998 24 12 19 14 7 12 14 5 45 12 5 2 11 8 44 2
internal_count=2169 2133 36 62 2071 14 22 24 38 73 9 5 8 1998 24 12 19 14 7 12 14 5 45 12 5 2 11 8 44 2
shrinkage=0.1


Tree=22
num_leaves=31
num_cat=0
split_feature=8 8 4 8 7 4 4 8 8 8 8 5 6 8 4 7 4 4 3 4 4 4 3 3 7 4 5 7 4 4
split_gain=1.1576e+09 1.42026e+08 5.1756e+07 1.35885e+07 1.3576e+07 4.68755e+06 4.58362e+06 2.78667e+06 2.22029e+06 1.70012e+06 869906 789568 663111 651369 531470 506647 505866 504635 485167 440763 434455 418926 340189 319378 336190 309695 309433 306909 303967 281906
threshold=30283.000000000004 7799.5000000000009 51097.500000000007 2551.0000000000005 15914.500000000002 31475.500000000004 65962.500000000015 12501.500000000002 24782.500000000004 634.50000000000011 4939.5000000000009 1101.0000000000002 3818.5000000000005 37185.500000000007 57106.500000000007 24.500000000000004 3321.5000000000005 7125.0000000000009 14.500000000000002 36088.500000000007 1058.5000000000002 17424.500000000004 10.500000000000002 13.500000000000002 9284.0000000000018 4700.5000000000009 22667.000000000004 2167.5000000000005 6142.5000000000009 72000.500000000015
decision_type=2 2 2 2 2 2 2 2 2 2 2 2 2 2 2 2 2 2 2 2 2 2 2 2 2 2 2 2 2 2
left_child=1 3 5 9 7 13 14 16 -6 15 11 -5 -12 -2 -4 -1 -3 28 29 -7 22 -10 -11 24 -18 -25 -23 -24 -9 -8
right_child=2 4 6 10 8 19 18 17 21 20 12 -13 -14 -15 -16 -17 23 -19 -20 -21 -22 26 27 25 -26 -27 -28 -29 -30 -31
leaf_value=-16.056132682001941 345.51965942382822 58.419469197591084 591.15839843749927 112.8709228515621 200.60987141927083 450.14526367187466 701.01281738281284 146.98059082031224 316.51192626953127 21.77269318898519 89.308657836913994 22.253578788757324 44.706727664470677 407.16097005208326 646.83822021484366 -12.707446007271127 76.964450073242148 139.36558176676434 789.2018554687487 526.80582682291652 27.6363489151001 232.64550781249991 -4.5967484980821611 174.07608642578126 108.27826385498048 111.85717620849607 288.27219238281236 51.376733398437501 197.31007893880204 730.55203683035711
leaf_weight=1271 3.9999999999999982 3.0000000000000027 3.0000000000000027 1.0000000000000024 8.9999999999999982 1 5.9999999999999964 2.0000000000000027 1.9999999999999987 5.9999999999999991 4.0000000000000027 25 20 3 4 701 6.0000000000000027 11.999999999999998 1.0000000000000007 3 5.9999999999999991 1.9999999999999998 48 0.999999999999999 7.9999999999999991 4 1.9999999999999998 0.999999999999999 3 7
leaf_count=1271 4 3 3 1 9 1 6 2 2 6 4 25 20 3 4 701 6 12 1 3 6 2 48 1 8 4 2 1 3 7
internal_value=0 -89.3968 5970.03 -130.905 1511.74 4212.84 6890.46 1200.78 2320.23 -143.571 384.116 257.389 521.404 3719.37 6229.75 -148.658 965.807 1504.87 7220.82 5076.41 20.8503 2791.43 -7.02382 1026.06 948.581 1243.01 2604.59 -34.5443 1771.78 7169.19
internal_weight=0 2137 32 2083 54 11 21 39 15 2033 50 26 24 7 7 1972 22 17 14 4 61 6 55 19 14 5 4 49 5 13
internal_count=2169 2137 32 2083 54 11 21 39 15 2033 50 26 24 7 7 1972 22 17 14 4 61 6 55 19 14 5 4 49 5 13
shrinkage=0.1


Tree=23
num_leaves=31
num_cat=0
split_feature=8 8 4 8 7 4 4 5 8 6 8 7 4 4 6 4 4 3 4 4 1 4 7 4 4 4 8 1 3 8
split_gain=9.3773e+08 9.35501e+07 6.64925e+07 1.09499e+07 6.18891e+06 5.09292e+06 4.80806e+06 2.14861e+06 1.01178e+06 922782 843146 756279 718054 709076 552761 483261 406070 396111 372713 431197 339001 1.24844e+06 461190 323244 296205 288984 325678 282295 256756 230100
threshold=26571.500000000004 5715.5000000000009 47382.500000000007 12501.500000000002 850.50000000000011 26320.000000000004 65962.500000000015 15712.500000000002 8477.5000000000018 25866.500000000004 2978.5000000000005 14167.000000000002 54683.000000000007 36088.500000000007 70.500000000000014 10409.000000000002 75219.000000000015 14.500000000000002 3321.5000000000005 5620.0000000000009 10.500000000000002 462.00000000000006 1742.0000000000002 2698.0000000000005 4994.0000000000009 12742.500000000002 16224.500000000002 6.5000000000000009 14.500000000000002 77.500000000000014
decision_type=2 2 2 2 2 2 2 2 2 2 2 2 2 2 2 2 2 2 2 2 2 2 2 2 2 2 2 2 2 2
left_child=1 4 5 8 14 9 12 11 24 28 20 15 -4 -7 -1 -5 -8 25 -10 -20 21 27 -22 -23 -3 26 -13 -6 -2 -16
right_child=2 3 6 7 10 13 16 -9 18 -11 -12 17 -14 -15 29 -17 -18 -19 19 -21 22 23 -24 -25 -26 -27 -28 -29 -30 -31
leaf_value=-13.954166390293834 273.48883056640631 65.244039036677421 514.01370442708287 135.4587171766492 33.609057617187368 385.92600097656253 642.920654296875 216.84611328125004 50.117361450195226 326.59846191406245 30.292246321269445 151.23459065755222 575.89765624999995 462.79582519531232 18.263998985290527 81.114776611328125 691.59038085937505 101.62102050781232 130.07846883138021 88.018835683969357 -10.626886227925617 3.573028103075921 19.104368984699249 62.177355957031253 36.603843383789062 140.88873697916662 192.91129394531248 98.681466674804653 216.83686523437484 -9.5707819798508211
leaf_weight=1699 3.9999999999999982 13.000000000000002 3.0000000000000018 9.0000000000000053 1.0000000000000029 2.9999999999999991 11.999999999999998 4.9999999999999991 2.0000000000000027 4 28 2.9999999999999964 5 1.9999999999999998 2.9999999999999991 1.9999999999999987 1.9999999999999987 1.0000000000000007 2.9999999999999991 12.999999999999998 15.000000000000002 16.000000000000004 7.9999999999999991 0.999999999999999 4.9999999999999991 3 5 1.9999999999999998 1 296
leaf_count=1699 4 13 3 9 1 3 12 5 2 4 28 3 5 2 3 2 2 1 3 13 15 16 8 1 5 3 5 2 1 296
internal_value=0 -85.4211 5061.2 1105.32 -122.254 3357.54 6145.34 1574.33 740.53 2907.98 167.878 1445.18 5526.91 4166.74 -132.564 1255.78 6498.73 1618.79 908.175 959.05 79.9417 175.159 -2.8558 70.2034 572.884 1673.57 1772.83 769.907 2621.58 -92.915
internal_weight=0 2133 36 64 2069 14 22 28 36 9 71 23 8 5 1998 11 14 12 18 16 43 20 23 17 18 11 8 3 5 299
internal_count=2169 2133 36 64 2069 14 22 28 36 9 71 23 8 5 1998 11 14 12 18 16 43 20 23 17 18 11 8 3 5 299
shrinkage=0.1


Tree=24
num_leaves=31
num_cat=0
split_feature=8 8 4 7 6 4 4 7 8 8 8 2 8 7 6 4 1 6 1 6 8 4 2 4 4 3 8 3 4 8
split_gain=7.59605e+08 9.31995e+07 3.40015e+07 9.00982e+06 8.89107e+06 3.14578e+06 2.9889e+06 2.43644e+06 1.15582e+06 972132 684942 591818 655996 2.51156e+06 528705 521799 470588 825953 1.3949e+06 426207 391642 387619 369948 350354 305334 330466 282663 277011 287205 263311
threshold=30283.000000000004 7799.5000000000009 51097.500000000007 14167.000000000002 1564.0000000000002 28851.500000000004 65962.500000000015 21718.000000000004 425.50000000000006 12387.500000000002 4484.0000000000009 3.5000000000000004 464.50000000000006 266.50000000000006 3451.0000000000005 36088.500000000007 8.5000000000000018 463.50000000000006 6.5000000000000009 9252.5000000000018 5715.5000000000009 59420.500000000007 2.5000000000000004 72000.500000000015 3204.5000000000005 13.500000000000002 16.500000000000004 12.500000000000002 2698.0000000000005 33558.500000000007
decision_type=2 2 2 2 2 2 2 2 2 2 2 2 2 2 2 2 2 2 2 2 2 2 2 2 2 2 2 2 2 2
left_child=1 4 5 9 8 29 21 -5 26 24 27 12 13 -10 -12 -7 17 -14 -19 -11 22 -4 -16 -8 -3 -26 -1 28 -6 -2
right_child=2 3 6 7 10 15 23 -9 11 19 14 -13 16 -15 20 -17 -18 18 -20 -21 -22 -23 -24 -25 25 -27 -28 -29 -30 -31
leaf_value=-13.340312766477021 262.73676757812513 38.972106933593686 484.47717285156205 149.58119637625555 -0.53084050284491635 360.19656982421861 566.61947428385417 221.83727504185268 179.99063720703117 144.22412516276043 70.323836059570269 -9.7153994083404545 -11.957750431696569 -14.105610656738277 77.268933105468477 426.13840332031242 -5.7045558591042802 12.246607657841272 87.38675130208334 101.24857727050782 45.88995616619404 532.02833658854149 13.155524365107219 598.58612060546875 72.915707615443623 105.50729370117188 -10.906525077836008 26.909865312916892 55.959619140624902 307.17586059570311
leaf_weight=1037 1.999999999999998 2.0000000000000027 4.0000000000000027 14.000000000000002 9 1.9999999999999998 5.9999999999999991 6.9999999999999991 0.99999999999999933 2.9999999999999991 5.0000000000000027 50 9.0000000000000018 1.9999999999999998 1.0000000000000024 3 31 14.000000000000002 2.9999999999999991 9.9999999999999982 12.999999999999998 3 8.9999999999999982 7.9999999999999991 14.000000000000002 3.9999999999999991 884 13.999999999999998 1.0000000000000007 4
leaf_count=1037 2 2 4 14 9 2 6 7 1 3 5 50 9 2 1 3 31 14 3 10 13 3 9 8 14 4 884 14 1 4
internal_value=0 -72.4164 4836.06 1224.62 -106.041 3411.8 5582.1 1736.67 -116.495 898.773 302.265 -16.8035 50.1552 505.931 408.52 3997.62 26.167 125.382 255.066 1111.66 344.451 5048.56 195.669 5848.86 760.397 801.583 -122.203 178.3 51.1821 2923.63
internal_weight=0 2137 32 54 2083 11 21 21 2031 33 52 110 60 3 28 5 57 26 17 13 23 7 10 14 20 18 1921 24 10 6
internal_count=2169 2137 32 54 2083 11 21 21 2031 33 52 110 60 3 28 5 57 26 17 13 23 7 10 14 20 18 1921 24 10 6
shrinkage=0.1


Tree=25
num_leaves=31
num_cat=0
split_feature=8 7 4 8 8 8 4 5 8 4 7 8 5 4 6 4 2 7 8 1 7 4 2 7 6 5 4 2 4 3
split_gain=6.15541e+08 6.1438e+07 4.36146e+07 7.16441e+06 4.05889e+06 3.33005e+06 3.13744e+06 1.1731e+06 1.06149e+06 621331 481443 467439 429622 391691 380788 367862 363302 485843 2.12994e+06 344231 519016 317871 426876 378944 291577 905230 364247 286468 279539 236950
threshold=26571.500000000004 5308.5000000000009 47382.500000000007 14055.000000000002 1418.0000000000002 37185.500000000007 62839.000000000007 15712.500000000002 9993.0000000000018 36088.500000000007 261.00000000000006 3772.5000000000005 2167.5000000000005 70794.000000000015 25866.500000000004 54683.000000000007 3.5000000000000004 266.50000000000006 440.50000000000006 10.500000000000002 8425.0000000000018 9437.5000000000018 2.5000000000000004 14638.000000000002 463.50000000000006 438.50000000000006 180.50000000000003 2.5000000000000004 7019.5000000000009 14.500000000000002
decision_type=2 2 2 2 2 2 2 2 2 2 2 2 2 2 2 2 2 2 2 2 2 2 2 2 2 2 2 2 2 2
left_child=1 4 5 8 10 14 15 21 19 -7 -1 -6 -13 -8 -2 -4 17 18 -12 -3 -21 23 -23 -5 -19 26 -26 -14 -10 -15
right_child=2 3 6 7 11 9 13 -9 28 -11 16 12 27 29 -16 -17 -18 24 -20 20 -22 22 -24 -25 25 -27 -28 -29 -30 -31
leaf_value=-11.077493521903698 212.94087646484377 41.053069359915597 416.10923665364538 119.73730957031235 9.1232542596080091 305.6383178710937 500.80510742187499 175.8680126953125 108.20187530517579 373.90239257812482 -6.5288756370544441 49.949201711018851 69.542041015625003 529.95338541666683 258.00601399739577 462.43265380859367 -9.2001369736411345 -7.5729590140856233 161.99157714843739 57.863666187633171 133.10989990234353 172.69342041015656 104.16870452880858 164.6932495117187 -14.395928955078075 -6.8732912659645082 51.717380981445309 13.998894001887397 76.922701110839853 581.26401367187407
leaf_weight=1891 4.9999999999999982 14 3.0000000000000027 5.0000000000000053 44 4 4.9999999999999991 4.9999999999999991 3.9999999999999991 1.9999999999999998 2.9999999999999991 6.0000000000000027 0.999999999999999 8.9999999999999964 3 4 66 26 1 10.999999999999998 1.0000000000000007 0.99999999999999711 10 3 1.0000000000000024 11.999999999999998 5 12.999999999999998 9.9999999999999982 1.0000000000000007
leaf_count=1891 5 14 3 5 44 4 5 5 4 2 3 6 1 9 3 4 66 26 1 11 1 1 10 3 1 12 5 13 10 1
internal_value=0 -69.2077 4100.56 895.762 -99.057 2720.77 4978.6 1327.7 636.597 3283.93 -106.97 148.851 275.611 5236.58 2298.4 4425.8 -43.8587 22.3374 356.012 517.059 641.342 1214.29 1103.98 1365.96 -7.99669 89.8397 406.985 179.663 858.596 5350.84
internal_weight=0 2133 36 64 2069 14 22 24 40 6 2005 64 20 15 8 7 114 48 4 26 12 19 11 8 44 18 6 14 14 10
internal_count=2169 2133 36 64 2069 14 22 24 40 6 2005 64 20 15 8 7 114 48 4 26 12 19 11 8 44 18 6 14 14 10
shrinkage=0.1


Tree=26
num_leaves=31
num_cat=0
split_feature=8 7 4 8 3 7 5 7 8 8 4 4 4 7 6 5 4 8 7 8 4 6 4 3 1 4 7 8 4 3
split_gain=4.98601e+08 4.48974e+07 4.15878e+07 4.72033e+06 3.40994e+06 3.29576e+06 2.4686e+06 779546 460124 431432 422076 418250 359427 357663 311965 288546 257008 305761 466022 255241 351910 254706 219737 295686 196910 803301 304527 221130 213748 191930
threshold=24782.500000000004 5308.5000000000009 42044.500000000007 12387.500000000002 11.500000000000002 850.50000000000011 25866.500000000004 14167.000000000002 2978.5000000000005 8477.5000000000018 70794.000000000015 28851.500000000004 53064.000000000007 30.500000000000004 9252.5000000000018 4292.0000000000009 2963.0000000000005 4484.0000000000009 4828.5000000000009 30283.000000000004 17424.500000000004 4484.0000000000009 3204.5000000000005 13.500000000000002 10.500000000000002 462.00000000000006 1742.0000000000002 2271.0000000000005 2698.0000000000005 14.500000000000002
decision_type=2 2 2 2 2 2 2 2 2 2 2 2 2 2 2 2 2 2 2 2 2 2 2 2 2 2 2 2 2 2
left_child=1 5 6 9 12 13 19 14 24 15 -6 -8 -4 -1 -5 -3 17 -10 21 20 -2 -19 -11 -24 25 -7 -26 -28 -27 -12
right_child=2 3 4 7 10 8 11 -9 16 22 29 -13 -14 -15 -16 -17 -18 18 -20 -21 -22 -23 23 -25 26 28 27 -29 -30 -31
leaf_value=-10.576503361588252 218.71982421875009 62.20287536621089 359.14856770833291 118.21249593098945 448.0269856770833 60.725464884440036 252.7843017578125 123.38646280924479 17.455705751691536 18.968252563476565 476.9580566406251 305.58898111979158 404.93786621093744 -7.6982051734595602 81.444987487792972 33.935404799534723 1.6850714492797854 61.031241861979176 -1.4905867785215372 220.19427897135412 167.34545593261714 6.5191734313964789 60.361603673299157 95.461802164713546 -8.9525910886128734 1.7955548167228697 31.83247089385986 -1.4188609123229978 49.451330566406256 523.13759765624911
leaf_weight=1367 1.999999999999998 5.0000000000000027 3.0000000000000027 3.0000000000000027 5.9999999999999991 3.0000000000000027 2.9999999999999991 14.999999999999998 14.000000000000005 0.999999999999999 8.9999999999999964 3 4 631 9.9999999999999982 12.999999999999998 4.9999999999999991 5.9999999999999982 1.9999999999999998 3 4 1 11.999999999999998 2.9999999999999991 15.000000000000002 16.000000000000004 4 4 0.999999999999999 1.0000000000000007
leaf_count=1367 2 5 3 3 6 3 3 15 14 1 9 3 4 631 10 13 5 6 2 3 4 1 12 3 15 16 4 4 1 1
internal_value=0 -64.0246 3590.43 774.476 4435.27 -89.1513 2295.02 1078.53 122.571 524.079 4689.95 2791.87 3853.14 -96.6749 899.298 417.875 222.332 267.002 410.806 1963.78 1844.7 532.438 643.558 673.816 57.6098 130.178 -5.49323 152.068 45.9884 4815.76
internal_weight=0 2131 38 62 23 2069 15 28 71 34 16 6 7 1998 13 18 28 23 9 9 6 7 16 15 43 20 23 8 17 10
internal_count=2169 2131 38 62 23 2069 15 28 71 34 16 6 7 1998 13 18 28 23 9 9 6 7 16 15 43 20 23 8 17 10
shrinkage=0.1


Tree=27
num_leaves=31
num_cat=0
split_feature=8 8 4 8 8 4 4 5 8 8 8 7 4 2 7 8 4 2 7 6 5 4 4 4 2 3 3 4 7 3
split_gain=4.04047e+08 4.03536e+07 2.86097e+07 4.42163e+06 2.89476e+06 2.20099e+06 2.09575e+06 803390 652415 538354 361062 354934 326155 286142 397523 1.72525e+06 258219 331805 279016 223514 695940 281625 222858 216615 278743 219164 206767 195284 179880 171968
threshold=26571.500000000004 5924.5000000000009 47382.500000000007 14055.000000000002 1418.0000000000002 28851.500000000004 65962.500000000015 15712.500000000002 9993.0000000000018 33558.500000000007 3089.0000000000005 261.00000000000006 57106.500000000007 3.5000000000000004 266.50000000000006 440.50000000000006 9437.5000000000018 2.5000000000000004 14638.000000000002 463.50000000000006 438.50000000000006 180.50000000000003 73861.000000000015 3971.0000000000005 3.5000000000000004 13.500000000000002 14.500000000000002 7019.5000000000009 7125.0000000000009 12.500000000000002
decision_type=2 2 2 2 2 2 2 2 2 2 2 2 2 2 2 2 2 2 2 2 2 2 2 2 2 2 2 2 2 2
left_child=1 4 5 8 11 9 12 16 23 26 -6 -1 -4 14 15 -13 18 -18 -5 -16 21 -21 -8 24 25 -3 -2 -10 -25 -23
right_child=2 3 6 7 10 -7 22 -9 27 -11 -12 13 -14 -15 19 -17 17 -19 -20 20 -22 29 -24 28 -26 -27 -28 -29 -30 -31
leaf_value=-8.9920040990485521 184.75248535156254 58.969558105468721 342.31688842773417 97.30954956054677 6.2703342011100371 283.16473388671875 418.68983886718752 143.15671875000001 88.494665527343756 223.81237792968747 21.235860708781654 -5.1061675389607757 382.69976196289053 -7.5189855658646794 -6.0458424311417804 146.56224365234362 143.08542480468776 82.671432495117188 135.88527832031247 -12.186515045165974 -5.4534432252248131 30.804646809895829 446.61838378906253 21.212610054016118 35.547132740020743 110.25272216796867 134.94080810546865 62.350935516357424 44.80858372279576 68.660507202148409
leaf_weight=1891 4.9999999999999982 5.0000000000000018 4.0000000000000018 5.0000000000000053 38 3.9999999999999991 9.9999999999999982 4.9999999999999991 3.9999999999999991 4 28 2.9999999999999991 4 66 26 1 0.99999999999999711 10 3 1.0000000000000024 11.999999999999998 3 3.9999999999999991 5.9999999999999982 5 1 1 9.9999999999999982 7 1.9999999999999998
leaf_count=1891 5 5 4 5 38 4 10 5 4 4 28 3 4 66 26 1 1 10 3 1 12 3 4 6 5 1 1 10 7 2
internal_value=0 -56.0715 3322.24 738.879 -79.8701 2204.72 4033.38 1074.91 526.647 1953.95 126.193 -86.6532 3625.08 -32.4644 26.2831 328.109 981.054 881.636 1117.75 -1.15563 84.504 362.581 4266.69 426.572 529.851 675.168 1764.51 698.206 339.181 459.47
internal_weight=0 2133 36 62 2071 14 22 24 38 10 66 2005 8 114 48 4 19 11 8 44 18 6 14 24 11 6 6 14 13 5
internal_count=2169 2133 36 62 2071 14 22 24 38 10 66 2005 8 114 48 4 19 11 8 44 18 6 14 24 11 6 6 14 13 5
shrinkage=0.1


Tree=28
num_leaves=31
num_cat=0
split_feature=8 7 4 8 4 7 8 8 4 8 1 7 7 4 4 4 4 4 5 4 8 7 6 5 4 6 1 4 7 2
split_gain=3.27327e+08 2.95095e+07 2.73162e+07 3.08049e+06 2.89227e+06 2.14486e+06 1.11803e+06 534532 393421 292346 283735 274632 264094 237260 228202 225463 225384 214183 248818 206402 229558 380188 201056 197680 157337 173198 181381 533659 326730 228222
threshold=24782.500000000004 5308.5000000000009 36088.500000000007 12387.500000000002 59420.500000000007 850.50000000000011 33558.500000000007 16813.500000000004 70041.500000000015 2978.5000000000005 10.500000000000002 72.500000000000014 8425.0000000000018 51097.500000000007 8697.0000000000018 7125.0000000000009 5715.5000000000009 17424.500000000004 22667.000000000004 2963.0000000000005 4484.0000000000009 4828.5000000000009 4484.0000000000009 8425.0000000000018 2698.0000000000005 1786.0000000000002 10.500000000000002 462.00000000000006 2010.0000000000002 3.5000000000000004
decision_type=2 2 2 2 2 2 2 2 2 2 2 2 2 2 2 2 2 2 2 2 2 2 2 2 2 2 2 2 2 2
left_child=1 5 6 10 13 11 17 15 -6 24 14 -1 -12 -4 -3 23 -14 -2 -19 20 -11 22 -22 -5 25 26 27 -7 -28 -30
right_child=2 3 4 7 8 9 -8 -9 -10 19 12 -13 16 -15 -16 -17 -18 18 -20 -21 21 -23 -24 -25 -26 -27 28 -29 29 -31
leaf_value=-8.3643443935303292 176.55259602864589 30.53159036636352 280.3096761067705 74.731894938150873 357.34524332682275 51.946210225423187 212.5333292643229 105.89109069824219 389.17851340553977 13.800342226028437 42.493226692893273 -5.2516982031147386 95.984182739257818 317.51204223632806 79.772271728515634 69.141631698608407 54.869961547851553 115.43321533203121 160.96869303385415 -0.60702181816101075 52.175637563069671 -4.1806777954101539 3.7436702728271452 111.03434448242186 43.879165649414062 -16.048879241943361 -5.8092563841078011 5.1554864149827226 49.673579406738284 1.9009849548339837
leaf_weight=1656 2.9999999999999982 16.000000000000004 3.0000000000000027 3.0000000000000062 6.0000000000000027 2.9999999999999991 6 9.9999999999999982 10.999999999999998 14.000000000000005 11.000000000000002 342 1.9999999999999987 4 0.999999999999999 11.999999999999998 4 1.9999999999999998 3 4.9999999999999991 5.9999999999999982 1.9999999999999998 1 3 0.999999999999999 3.9999999999999991 18.000000000000004 12.999999999999998 1.9999999999999987 1.9999999999999998
leaf_count=1656 3 16 3 3 6 3 6 10 11 14 11 342 2 4 1 12 4 2 3 5 6 2 1 3 1 4 18 13 2 2
internal_value=0 -51.8754 2909.12 627.913 3556.67 -72.246 1799.02 873.539 3779.43 98.5538 425.633 -78.3155 516.985 3015.68 334.281 770.555 685.747 1554.29 1427.55 178.074 218.105 342.707 452.568 928.831 46.7735 37.4398 58.2743 139.287 -0.644312 257.873
internal_weight=0 2131 38 62 24 2069 14 28 17 71 34 1998 17 7 17 18 6 8 5 28 23 9 7 6 43 42 38 16 22 4
internal_count=2169 2131 38 62 24 2069 14 28 17 71 34 1998 17 7 17 18 6 8 5 28 23 9 7 6 43 42 38 16 22 4
shrinkage=0.1


Tree=29
num_leaves=31
num_cat=0
split_feature=8 7 4 8 3 7 5 8 8 7 4 4 7 4 4 4 4 7 4 8 7 6 7 1 4 4 4 6 4 3
split_gain=2.65135e+08 2.39027e+07 2.21442e+07 2.50199e+06 1.81616e+06 1.74714e+06 1.31354e+06 373061 292087 280853 253180 232025 225552 225003 212389 211167 195193 182261 167186 185942 307952 162856 147330 147324 143135 211712 140675 139303 132084 139448
threshold=24782.500000000004 5308.5000000000009 42044.500000000007 12501.500000000002 11.500000000000002 634.50000000000011 25866.500000000004 16813.500000000004 2978.5000000000005 9284.0000000000018 72000.500000000015 28851.500000000004 14.500000000000002 3971.0000000000005 11001.500000000002 11406.000000000002 53064.000000000007 14638.000000000002 2963.0000000000005 4484.0000000000009 4828.5000000000009 4484.0000000000009 7125.0000000000009 10.500000000000002 8149.5000000000009 8697.0000000000018 3527.0000000000005 2545.0000000000005 2698.0000000000005 10.500000000000002
decision_type=2 2 2 2 2 2 2 2 2 2 2 2 2 2 2 2 2 2 2 2 2 2 2 2 2 2 2 2 2 2
left_child=1 5 6 9 16 12 -2 14 28 13 -6 -8 -1 23 17 -16 -4 -5 19 27 21 -21 -15 -3 -11 -26 -25 -10 29 -7
right_child=2 3 4 7 10 8 11 -9 18 24 -12 -13 -14 22 15 -17 -18 -19 -20 20 -22 -23 -24 26 25 -27 -28 -29 -30 -31
leaf_value=-8.0973171250402078 143.13162570529514 32.148256378173812 261.70271809895803 72.796961212158166 329.47597351074222 17.186124674479167 183.87129720052084 95.30198242187501 21.058990782499293 63.450879923502612 354.63447570800781 223.20105794270827 -5.9617568657890558 16.725669574737552 27.936392974853518 84.216986083984267 295.44621582031249 117.23228759765605 -0.54631990432739264 46.95807317097983 -3.7626099586486803 3.3693031311035129 36.591043308803009 48.542477416992178 16.023561477661126 62.035693359374982 89.629034423828045 0.90206383864084883 39.491247558593756 1.0162249058485031
leaf_weight=1055 8.9999999999999982 5.0000000000000018 3.0000000000000027 12.000000000000004 7.9999999999999991 5.9999999999999991 2.9999999999999991 9.9999999999999982 8.0000000000000053 5.9999999999999982 7.9999999999999991 3 931 7.9999999999999982 1.9999999999999987 1.0000000000000002 4 1.0000000000000007 4.9999999999999991 5.9999999999999982 1.9999999999999998 1 7 5 1.9999999999999998 1.9999999999999998 1 5.9999999999999991 0.999999999999999 48
leaf_count=1055 9 5 3 12 8 6 3 10 8 6 8 3 931 8 2 1 4 1 5 6 2 1 7 5 2 2 1 6 1 48
internal_value=0 -46.6878 2618.2 565.122 3234.69 -65.0214 1672.93 801.502 77.1243 394.403 3420.55 2035.36 -70.9621 339.625 706.803 466.966 2809.85 762.151 160.266 196.294 308.436 407.311 259.962 448.257 536.824 390.296 553.902 124.203 34.7976 28.1288
internal_weight=0 2131 38 62 23 2069 15 26 83 36 16 6 1986 26 16 3 7 13 28 23 9 7 15 11 10 4 6 14 55 54
internal_count=2169 2131 38 62 23 2069 15 26 83 36 16 6 1986 26 16 3 7 13 28 23 9 7 15 11 10 4 6 14 55 54
shrinkage=0.1


Tree=30
num_leaves=31
num_cat=0
split_feature=8 7 4 7 6 4 4 8 7 8 2 7 8 6 8 6 3 8 4 4 5 6 5 4 4 8 3 7 4 4
split_gain=2.14947e+08 2.63017e+07 9.57991e+06 2.79294e+06 2.37506e+06 920379 895448 697834 389510 319249 311757 304917 1.39745e+06 246166 170628 260131 162482 158973 366526 346594 317636 183927 487349 213141 152234 249427 186752 148301 145180 143310
threshold=30283.000000000004 6370.0000000000009 51097.500000000007 14167.000000000002 1564.0000000000002 31475.500000000004 68258.000000000015 22251.000000000004 261.00000000000006 10703.500000000002 3.5000000000000004 266.50000000000006 440.50000000000006 9252.5000000000018 5153.5000000000009 3818.5000000000005 14.500000000000002 2188.0000000000005 731.50000000000011 1341.5000000000002 1076.5000000000002 463.50000000000006 438.50000000000006 180.50000000000003 2963.0000000000005 4484.0000000000009 12.500000000000002 4559.0000000000009 59420.500000000007 2698.0000000000005
decision_type=2 2 2 2 2 2 2 2 2 2 2 2 2 2 2 2 2 2 2 2 2 2 2 2 2 2 2 2 2 2
left_child=1 4 5 9 8 -2 28 -5 -1 -3 11 12 -10 -11 24 -16 -8 19 -19 20 21 -13 23 -23 25 26 29 -17 -4 -6
right_child=2 3 6 7 14 -7 16 -9 10 13 -12 17 -14 -15 15 27 -18 18 -20 -21 -22 22 -24 -25 -26 -27 -28 -29 -30 -31
leaf_value=-6.5760749962741718 159.78900495256698 36.070417523384094 257.05980224609357 78.307608501727756 -4.3619283570183605 219.92032775878903 309.82570800781258 115.84542465209961 -3.4742053985595707 74.288728027343709 -5.6237334781222872 -4.4509291211764017 133.02735595703115 48.439858027866912 45.823071670532187 54.598504638671876 351.78071289062439 52.588179016113287 0.15783329010009761 58.851538085937506 -32.192590332031251 -9.8465179443359023 -0.39349038977372019 40.727160339355464 -10.281089115142823 40.649368286132812 17.521116297585625 14.825729484558105 284.00234985351557 35.542123413085875
leaf_weight=1893 6.9999999999999982 15.999999999999998 4.0000000000000018 13.000000000000002 9.0000000000000071 4 11.999999999999996 7.9999999999999991 2.9999999999999991 5.0000000000000027 72 27 1 13.999999999999998 4.0000000000000027 0.999999999999999 1.0000000000000007 1.9999999999999987 4 0.999999999999999 2.9999999999999991 1.0000000000000024 19 5 2.9999999999999991 2.9999999999999991 13.999999999999998 14.999999999999998 4 1.0000000000000007
leaf_count=1893 7 16 4 13 9 4 12 8 3 5 72 27 1 14 4 1 1 2 4 1 3 1 19 5 3 3 14 15 4 1
internal_value=0 -38.522 2572.54 637.766 -56.721 1816.55 2968.54 926.077 -62.0216 464.78 -10.7308 38.9127 306.512 552.422 158.592 230.138 3130.53 21.6483 176.346 5.07351 -5.53453 12.7188 74.5252 322.982 110.895 134.64 100.658 173.115 2705.31 -3.71523
internal_weight=0 2137 32 56 2081 11 21 21 2031 35 138 66 4 19 50 20 13 62 6 56 55 52 25 6 30 27 24 16 8 10
internal_count=2169 2137 32 56 2081 11 21 21 2031 35 138 66 4 19 50 20 13 62 6 56 55 52 25 6 30 27 24 16 8 10
shrinkage=0.1


Tree=31
num_leaves=31
num_cat=0
split_feature=8 7 4 8 4 8 8 5 8 4 4 4 2 4 4 5 8 3 8 7 4 8 1 6 5 3 3 4 4 4
split_gain=1.74148e+08 1.74034e+07 1.23286e+07 2.02586e+06 1.186e+06 1.15682e+06 710360 355486 285071 259403 226430 177693 219506 169797 169092 208051 173183 163161 154675 150404 140762 239932 159635 123422 148606 122315 116068 107932 146558 105268
threshold=26571.500000000004 5308.5000000000009 42044.500000000007 14055.000000000002 59420.500000000007 607.50000000000011 37185.500000000007 15712.500000000002 9993.0000000000018 1058.5000000000002 70041.500000000015 9437.5000000000018 2.5000000000000004 3971.0000000000005 1088.0000000000002 1421.5000000000002 1742.0000000000002 14.500000000000002 12.500000000000002 14638.000000000002 469.00000000000006 2551.0000000000005 10.500000000000002 6880.0000000000009 5605.5000000000009 14.500000000000002 14.500000000000002 16813.500000000004 15404.500000000002 5715.5000000000009
decision_type=2 2 2 2 2 2 2 2 2 2 2 2 2 2 2 2 2 2 2 2 2 2 2 2 2 2 2 2 2 2
left_child=1 5 6 8 -4 18 17 11 13 20 -6 19 -13 23 -11 -16 -17 -2 -1 -5 21 -7 -23 24 -3 -15 -12 28 -9 -10
right_child=2 3 4 7 10 9 -8 27 29 14 26 12 -14 25 15 16 -18 -19 -20 -21 -22 22 -24 -25 -26 -27 -28 -29 -30 -31
leaf_value=-6.7577104951185705 127.1878853934152 36.424341668023004 223.88206176757799 65.121927490234299 259.96926676432275 2.8658200919628145 169.83872070312498 90.738015747070321 66.640914916992188 52.349591064453129 280.87105224609383 100.82681884765644 51.688533401489252 23.194341332571852 -34.310797119140624 52.966387939453128 10.725296930652677 84.005700683593673 -4.9796310687387315 93.444230143229149 -4.3009500009042254 64.810046386718724 15.87611579895019 3.6416873931884703 77.059094238281119 -13.006733703613259 316.60263671874947 76.376364135742151 137.62471923828107 41.860555203755695
leaf_weight=927 6.9999999999999982 8.9999999999999982 6.0000000000000027 5.0000000000000053 6.0000000000000027 40 5 1.9999999999999987 1.9999999999999987 0.999999999999999 9.9999999999999964 0.99999999999999711 10 13.999999999999996 0.999999999999999 0.999999999999999 33 1 1036 3 27 0.99999999999999933 1.9999999999999998 1.0000000000000007 1.0000000000000007 1.0000000000000007 1.0000000000000007 1.9999999999999998 1.0000000000000002 11.999999999999998
leaf_count=927 7 9 6 5 6 40 5 2 2 1 10 1 10 14 1 1 33 1 1036 3 27 1 2 1 1 1 1 2 1 12
internal_value=0 -36.8117 2181.09 476.773 2621.05 -52.6983 1402.7 706.462 338.961 49.0575 2755.96 644.029 561.557 277.013 118.039 106.454 119.677 1217.9 -58.193 757.428 13.5813 49.1151 321.874 371.382 404.878 207.809 2841.19 943.707 1063.67 454.006
internal_weight=0 2133 36 64 23 2069 13 24 40 106 17 19 11 26 36 35 34 8 1963 8 70 43 3 11 10 15 11 5 3 14
internal_count=2169 2133 36 64 23 2069 13 24 40 106 17 19 11 26 36 35 34 8 1963 8 70 43 3 11 10 15 11 5 3 14
shrinkage=0.1


Tree=32
num_leaves=31
num_cat=0
split_feature=8 8 4 7 6 4 7 4 8 4 2 4 8 5 8 6 4 4 8 5 5 8 8 6 4 4 4 4 7 7
split_gain=1.41122e+08 1.72678e+07 6.3184e+06 1.71297e+06 1.69483e+06 752918 449257 435592 268742 183114 155735 136715 169748 134360 132915 187670 129282 125370 160842 124678 194314 123389 121133 168514 138297 120992 119395 119360 119114 1.37167e+06
threshold=30283.000000000004 7799.5000000000009 47382.500000000007 14167.000000000002 1564.0000000000002 65962.500000000015 21718.000000000004 28851.500000000004 288.00000000000006 3321.5000000000005 3.5000000000000004 11093.000000000002 12501.500000000002 5950.0000000000009 5153.5000000000009 3818.5000000000005 438.50000000000006 3321.5000000000005 4700.5000000000009 3850.5000000000005 4292.0000000000009 2271.0000000000005 2978.5000000000005 2154.5000000000005 2698.0000000000005 17424.500000000004 75219.000000000015 54683.000000000007 263.50000000000006 266.50000000000006
decision_type=2 2 2 2 2 2 2 2 2 2 2 2 2 2 2 2 2 2 2 2 2 2 2 2 2 2 2 2 2 2
left_child=1 4 7 9 8 27 -5 -2 -1 -3 28 12 13 -11 17 16 -16 18 21 -17 -21 -6 24 -24 -23 -8 -7 -4 -10 -30
right_child=2 3 5 6 14 26 25 -9 10 11 -12 -13 -14 -15 15 19 -18 -19 -20 20 -22 22 23 -25 -26 -27 -28 -29 29 -31
leaf_value=-5.345222080531741 125.49734700520835 14.944120152791342 198.163077799479 64.692504228864379 27.628785451253158 248.61920572916665 110.90073852539064 168.09975585937497 -7.7084676456451424 48.937090555826735 -4.1134018962447705 4.5023330688476566 52.655241394042974 30.846003591097322 7.6158851623534893 -3.801877689361568 49.134052530924464 -15.25944061279297 37.983277893066408 41.293324788411461 12.839132126172386 -8.8405419213431191 28.942863845825197 4.9745509277690543 30.915380859374974 84.334098815917955 275.00994873046875 223.39372558593746 120.2225830078125 2.1482909761002804
leaf_weight=1885 5.9999999999999982 2.9999999999999991 3.0000000000000018 14.000000000000002 3.0000000000000098 11.999999999999998 2.9999999999999991 4 9.9999999999999982 6.0000000000000098 74 0.999999999999999 9.9999999999999982 12.999999999999998 1.0000000000000024 3.0000000000000027 3 1.9999999999999987 1.9999999999999987 2.9999999999999991 11.999999999999998 7.0000000000000018 3.9999999999999991 10.999999999999998 1 4 1.9999999999999987 5 0.999999999999999 61
leaf_count=1885 6 3 3 14 3 12 3 4 10 6 74 1 10 13 1 3 3 2 2 3 12 7 4 11 1 4 2 5 1 61
internal_value=0 -31.2133 2084.47 527.082 -45.6867 2384.05 750.349 1425.38 -50.2509 385.002 -8.91836 408.558 421.094 365.59 132.581 191.619 387.545 89.2857 106.563 148.08 185.3 85.5421 60.6622 113.661 -38.7105 957.198 2523.89 2139.32 24.1922 40.5272
internal_weight=0 2137 32 54 2083 22 21 10 2031 33 146 30 29 19 52 22 4 30 28 18 15 26 23 15 8 7 14 8 72 62
internal_count=2169 2137 32 54 2083 22 21 10 2031 33 146 30 29 19 52 22 4 30 28 18 15 26 23 15 8 7 14 8 72 62
shrinkage=0.1


Tree=33
num_leaves=31
num_cat=0
split_feature=8 8 4 8 4 8 8 5 8 4 8 4 2 3 3 4 7 6 1 6 8 4 2 3 4 4 7 4 4 3
split_gain=1.14376e+08 1.14031e+07 8.13237e+06 1.25777e+06 976265 847002 315114 228627 182274 164316 154046 141263 171089 141024 136738 209939 112796 101078 182695 125956 281970 92519.6 111445 97140.2 83967.4 108044 146998 99919 83863.9 82162.2
threshold=26571.500000000004 5924.5000000000009 36088.500000000007 14055.000000000002 59420.500000000007 1418.0000000000002 33558.500000000007 15712.500000000002 9993.0000000000018 72480.500000000015 23.500000000000004 9437.5000000000018 2.5000000000000004 10.500000000000002 12.500000000000002 2698.0000000000005 14638.000000000002 1564.0000000000002 10.500000000000002 1397.5000000000002 2551.0000000000005 3971.0000000000005 3.5000000000000004 14.500000000000002 7019.5000000000009 8697.0000000000018 10409.000000000002 9569.0000000000018 53064.000000000007 14.500000000000002
decision_type=2 2 2 2 2 2 2 2 2 2 2 2 2 2 2 2 2 2 2 2 2 2 2 2 2 2 2 2 2 2
left_child=1 5 6 8 28 10 29 11 21 -6 -1 16 -13 -7 15 -15 -5 19 -19 20 -16 22 -3 -23 -10 26 -26 -27 -4 -2
right_child=2 3 4 7 9 13 -8 -9 24 -11 -12 12 -14 14 17 -17 -18 18 -20 -21 -22 23 -24 -25 25 27 -28 -29 -30 -31
leaf_value=-5.3421768678960575 98.57150390625003 38.604128774007144 169.45712890624986 53.103463745117125 215.08343383789057 20.318098722185411 125.74778645833334 76.223215332031245 49.2686767578125 235.05976911272325 -3.5583044303820501 84.274884033203278 40.893076324462889 -7.732412617547169 2.4215605926513675 18.244567370414735 77.630558268229152 2.4783152406865896 19.445450414021806 -13.237322306632997 58.114215087890528 19.450001239776615 18.389503631591793 -12.989973449707009 39.290948486328141 60.661083984374983 7.9861557642618797 29.051118469238272 191.57513834635412 67.171722412109318
leaf_weight=1188 4.9999999999999982 6.0000000000000018 4.0000000000000027 5.0000000000000053 10.000000000000002 6.9999999999999991 6 4.9999999999999991 3.9999999999999991 6.9999999999999991 817 0.99999999999999711 10 14.000000000000002 9.9999999999999964 3.9999999999999991 3 11 15 3.9999999999999991 1.0000000000000007 11.999999999999996 5 1.0000000000000007 2.9999999999999982 1.9999999999999998 3 1.9999999999999998 3 1
leaf_count=1188 5 6 4 5 10 7 6 5 4 7 817 1 10 14 10 4 3 11 15 4 1 12 5 1 3 2 3 2 3 1
internal_value=0 -29.8327 1767.59 392.749 2103.67 -42.4837 1095.43 571.971 279.556 2233.09 -46.1528 521.902 448.369 68.9811 53.059 -19.5975 623.011 84.957 122.67 19.587 74.8453 226.659 294.157 169.546 370.236 321.256 236.386 448.561 1789.36 933.382
internal_weight=0 2133 36 62 24 2071 12 24 38 17 2005 19 11 66 59 18 8 41 26 15 11 24 11 13 14 10 6 4 7 6
internal_count=2169 2133 36 62 24 2071 12 24 38 17 2005 19 11 66 59 18 8 41 26 15 11 24 11 13 14 10 6 4 7 6
shrinkage=0.1


Tree=34
num_leaves=31
num_cat=0
split_feature=8 7 4 8 3 8 8 8 3 4 4 8 5 2 7 4 5 7 1 3 4 4 3 8 4 1 7 3 4 4
split_gain=9.26444e+07 9.25385e+06 6.58722e+06 1.07501e+06 791702 655850 255243 252606 139577 138294 141986 125160 228094 116403 105599 99158.7 95318.9 90799.4 90512.1 131949 106771 95491 79201 75112.1 107452 89056.2 85430.4 92740 74026.3 73728.5
threshold=26571.500000000004 5308.5000000000009 36088.500000000007 12387.500000000002 11.500000000000002 607.50000000000011 33558.500000000007 16813.500000000004 10.500000000000002 11001.500000000002 11406.000000000002 3772.5000000000005 2167.5000000000005 3.5000000000000004 8.5000000000000018 53064.000000000007 1910.5000000000002 14638.000000000002 10.500000000000002 13.500000000000002 3971.0000000000005 8697.0000000000018 14.500000000000002 22251.000000000004 12742.500000000002 10.500000000000002 16745.500000000004 14.500000000000002 15404.500000000002 7019.5000000000009
decision_type=2 2 2 2 2 2 2 2 2 2 2 2 2 2 2 2 2 2 2 2 2 2 2 2 2 2 2 2 2 2
left_child=1 5 6 18 15 14 -2 9 -7 17 -11 -10 16 -6 -1 -4 -13 -5 21 20 -20 22 -3 24 -9 -25 -26 -28 -27 -22
right_child=2 3 4 7 13 8 -8 23 11 10 -12 12 -14 -15 -16 -17 -18 -19 19 -21 29 -23 -24 25 26 28 27 -29 -30 -31
